//Numpy array shape [128]
//Min -0.000042086809
//Max 0.000040128685
//Number of zeros 0

#ifndef B27_H_
#define B27_H_

#ifndef __SYNTHESIS__
model_default_t b27[128];
#else
model_default_t b27[128] = {0.1259849221, 0.0542461425, -0.2186327428, -0.0849536657, 0.1945468187, -0.2359421104, 0.0816042647, -0.0444074497, -0.1041296199, -0.1827208847, 0.1307770461, 0.0652694404, -0.1997609437, 0.2678601742, -0.0473379716, 0.0768864825, 0.0407282040, -0.0398248844, 0.0336419083, -0.1140168458, 0.1525691748, -0.0804756507, 0.0458837748, 0.2094316185, -0.1260206848, -0.0366153754, 0.0994672030, -0.0712331384, 0.0572866909, -0.0224331543, -0.0975460038, 0.0821897760, -0.0508618616, -0.1358067095, 0.2811424434, 0.2360383272, 0.0597521216, 0.0389401168, 0.0552928746, -0.0852151886, 0.2124099731, -0.0914241225, -0.2775586545, -0.2148862183, -0.0203895997, 0.1840379089, -0.1890072823, 0.2571119964, -0.0742895156, 0.1310162544, 0.2063365281, 0.1014138907, 0.2088387311, -0.0498259701, -0.1962907016, -0.0242052637, 0.1647864878, -0.0097150393, -0.2767917216, -0.1637017131, -0.2419048250, 0.1083823740, 0.1149986759, -0.0663247034, -0.0526784211, -0.0873646364, -0.1326116920, 0.1284845024, 0.1008139178, -0.1196152493, 0.3356330991, 0.2618426383, -0.2164275348, 0.1401452124, -0.0873367339, -0.0939906240, 0.1962638646, 0.0323583409, 0.2915200293, -0.0196401924, -0.1463137120, -0.1281437129, -0.0597248785, -0.0324488319, -0.0320343710, -0.0619892068, -0.0021776261, -0.0956013277, 0.2999330163, -0.2136808932, 0.1492243260, 0.1861049682, -0.0138568524, -0.1159332693, 0.3153944016, 0.2267062217, -0.0377114229, -0.0245278329, 0.3042440414, -0.1243188381, 0.0799540579, 0.3805083632, -0.1833278239, 0.0289899409, 0.1562277824, 0.1654137373, 0.2346679866, 0.1164408922, 0.1413669139, -0.0686061457, 0.0238410830, 0.2884859443, -0.0177608207, -0.0966509879, -0.1257069707, -0.1488717198, -0.1010376513, 0.1495896429, -0.2090299129, -0.2610713542, 0.0632962808, 0.0100728069, -0.0664357692, 0.1149724051, 0.1411826015, 0.1223909557, 0.1584964842, -0.0486493409};
#endif

#endif
