//Numpy array shape [256]
//Min -0.000040517934
//Max 0.000021850828
//Number of zeros 0

#ifndef B36_H_
#define B36_H_

#ifndef __SYNTHESIS__
model_default_t b36[256];
#else
model_default_t b36[256] = {-0.3389254212, 0.0558773614, 0.2251244932, 0.0465376452, 0.1139763221, 0.2524056435, -0.2473446876, 0.0267123561, 0.1304380596, 0.4145804942, -0.2289654762, 0.1701999605, -0.0302245133, -0.1372673810, -0.3412899375, 0.2452062219, -0.2907715738, 0.3413127959, 0.0544703305, 0.0882063434, 0.0388772450, -0.0835736543, 0.0029659551, 0.1386676580, -0.1580257565, 0.1912056953, -0.1622854471, 0.1992377788, -0.0089293662, 0.1885680109, 0.0924829841, -0.2671110332, 0.1716214567, 0.2676644921, 0.1751264632, -0.1945765018, -0.2275271267, 0.1972559094, 0.1547609121, -0.3554307222, -0.2142806202, 0.2524605691, 0.0370149463, 0.1290667802, 0.2447864413, -0.0907747671, 0.1799766272, 0.0224232636, 0.1658877730, 0.3099671304, -0.0933666900, -0.3529099226, -0.1980465353, -0.2803780437, 0.2333809733, -0.1600615978, 0.0904334262, -0.0925412625, -0.1129214093, -0.1176406294, -0.2195810676, 0.2784433067, -0.0017621019, 0.0549496301, 0.1462458968, 0.1508391201, -0.0131177027, -0.3328738809, -0.2715182602, 0.1818223149, 0.3015617132, -0.2927936018, -0.0309145078, 0.0935516804, -0.0340502933, -0.0722815394, -0.1489773542, -0.3488342464, -0.1387721747, -0.1959327310, -0.1400459558, -0.1754032671, -0.1078160182, 0.1245652735, -0.0387630165, 0.1807062030, 0.0632368028, 0.1585845351, -0.1685595214, -0.0814339817, 0.1746308059, 0.0398472138, -0.1759677082, -0.0928102732, -0.2413677424, -0.1777711511, -0.1821307838, -0.3920399249, 0.2433192879, 0.1591438204, -0.2732135952, -0.1906742752, -0.0542867519, -0.0196054168, 0.2208555937, -0.0545652956, 0.1532267034, 0.0959912017, 0.1279658824, 0.2930912673, 0.3342937529, -0.0999651477, 0.0442798398, -0.1413920373, -0.3585526943, 0.2753958404, 0.0894539431, 0.0516277626, -0.3169726729, 0.1433350295, 0.0589329451, 0.1214773580, 0.4074078500, 0.0511847660, 0.0863947049, 0.1791718304, -0.2971098125, -0.3426384926, -0.1639310271, -0.0608819090, -0.2075781077, 0.1370904297, 0.2327063978, -0.0052793305, -0.2306631356, 0.0283623450, 0.2252211124, 0.2658360898, -0.1135455817, 0.2645832598, 0.0769449919, -0.0951638520, 0.2644353509, 0.0523266867, -0.1637075543, 0.1578026116, 0.1820002496, 0.2240510881, 0.2803837955, -0.2108682543, -0.1589189470, 0.2080794722, 0.1109702885, -0.1458215564, 0.0519730225, 0.2004443258, -0.2919024527, 0.0947953239, -0.0429129042, -0.1617105007, 0.3182098269, 0.0274925511, -0.1380308717, 0.0824271441, 0.4033870399, 0.0073640393, -0.2249312103, -0.1403024793, -0.0347081162, 0.0745627582, 0.0459723696, 0.1326060593, 0.0980182439, 0.1898817122, -0.1908039004, 0.0933798030, 0.2001309395, -0.0265058484, 0.1304874122, 0.0457299352, -0.1415591538, 0.1115983874, -0.0997080952, 0.3891959488, -0.0660094023, -0.2107697427, -0.0846654400, -0.1396923810, -0.2534443438, -0.0995303392, 0.1074139029, -0.2079013884, -0.1791861206, -0.0132121891, 0.2367559671, -0.2984147072, 0.1726091802, 0.1258706897, 0.1485720575, 0.0725767538, -0.0520991795, -0.1989473701, -0.2577743828, -0.1172170117, 0.0477180257, 0.2732495964, 0.3561491966, -0.0950090066, -0.2675247490, 0.1241746321, -0.1363411397, -0.2059648186, 0.0158585794, 0.0254305080, 0.2374698818, -0.3686916232, -0.1634921432, -0.2490193844, 0.2762669325, 0.3299398720, -0.2023227364, 0.0184635706, 0.2267086506, -0.1487022489, 0.0295810215, -0.0257240273, 0.3744937181, 0.2434314638, 0.0914851055, -0.1425164938, 0.3171145618, -0.2555177808, 0.2397404313, 0.3098023236, 0.2805829644, 0.1869433522, -0.1344532073, -0.0338694043, -0.0455648154, 0.2217255533, 0.2746109068, -0.2509864867, 0.0392268710, -0.1282772720, 0.0548791215, 0.1026001051, 0.1622576565, 0.2060690075, -0.0511699654, 0.1419397742, -0.2029417604, -0.3055094182, 0.0567041188, 0.2342358977, 0.1180201322, 0.0643919781};
#endif

#endif
