//Numpy array shape [256]
//Min 0.000000000000
//Max 0.000000000000
//Number of zeros 256

#ifndef B49_H_
#define B49_H_

#ifndef __SYNTHESIS__
bias49_t b49[256];
#else
bias49_t b49[256] = {0.1228633076, -0.1903161407, -0.2589239776, -0.0854462162, 0.0319682583, -0.1657800525, 0.0278059691, -0.0770111233, 0.1608551592, -0.0074543832, 0.1947827935, 0.0225204714, -0.0068451781, 0.0570047274, -0.0773393884, 0.0350022204, 0.1343663335, -0.1872409731, 0.1771612316, -0.0875619277, -0.2101554573, 0.1290101111, 0.0314650089, 0.1432334483, 0.0742317438, 0.1570294201, 0.0282204822, 0.0564558804, 0.2383483946, -0.1103109941, -0.1212511584, 0.0181572437, 0.3321549296, 0.1344419122, -0.0937015936, 0.2280002385, 0.0224843007, 0.2021725178, 0.2061373144, -0.1933961958, 0.0738231465, -0.0354995467, 0.1315207630, 0.0846716687, 0.0835346952, -0.2204117030, -0.0172027759, -0.0658168346, 0.0004949737, 0.0370944142, -0.1350553632, -0.0253499113, 0.0714084879, 0.0493843518, -0.1434875876, 0.0968221202, -0.0345985815, -0.2909500599, 0.0569192134, 0.1365043074, -0.0070641190, 0.0548558608, -0.0318135172, -0.0655795336, -0.1121276468, -0.0881314799, -0.1778928488, -0.0429645926, -0.3345432580, 0.0122673623, 0.0001345864, 0.1335112154, -0.1405512244, -0.1055077165, -0.2560833395, -0.1086387858, 0.0819541812, 0.1288006604, -0.3220438659, -0.1540742069, 0.0339506119, 0.0805822760, 0.1674508601, -0.0935096294, 0.1412118375, -0.0645059049, -0.0103731882, -0.1677731574, 0.1829319447, 0.0118042743, -0.0614497624, 0.2509754300, -0.2209110260, 0.1572066545, 0.0810975134, 0.0357146338, 0.1665344536, 0.1135345846, -0.2484396249, 0.0053720325, 0.1052131876, 0.1127691120, -0.0371280387, -0.1206987351, -0.0238519590, -0.2375452965, 0.0437344760, 0.1885629296, 0.0903804079, -0.0088490071, 0.0477236658, -0.0390520208, -0.0857992023, 0.0060626781, 0.0231547244, -0.0642371327, 0.2618591189, 0.1815736741, -0.2397074103, -0.0924943537, 0.0904323682, 0.0806420594, 0.1482864916, -0.0380096696, -0.0177928060, 0.0392903760, -0.2401338071, 0.1577485800, 0.0240404829, -0.1216435581, 0.2122650594, -0.0515419766, 0.1011695117, 0.0010100622, -0.0015449915, 0.0620278977, -0.0134514831, -0.0473687425, -0.1625810713, 0.0429980382, 0.1054826081, -0.1568705589, -0.1055988967, -0.1141038239, -0.0336579755, 0.0739790723, 0.1811817288, 0.2765198946, 0.2921068966, -0.1592099667, 0.0188174136, 0.0637083277, -0.0876980200, -0.1050082073, -0.0865637884, 0.0805911273, -0.0827349275, 0.1331365108, -0.2306932360, 0.0636821389, 0.1374928653, -0.1575730145, -0.1028619781, -0.0044862386, -0.0423287526, -0.1534341723, 0.0155091025, 0.2207839340, 0.1812913269, 0.1561506689, -0.1681906581, 0.0980227292, 0.0107758138, -0.0807489306, -0.2311645895, 0.0256650690, -0.0072643044, -0.0358154401, -0.0516737886, -0.2696999609, -0.1150882170, 0.0275560617, -0.1086563095, -0.0365107395, 0.0870787501, 0.0484963208, -0.0891371444, 0.0344515592, -0.1860519350, 0.1225300059, -0.0653823391, 0.1211592183, 0.1841592938, 0.1538251638, 0.0176902935, -0.0851492360, 0.0734080002, -0.1772914827, 0.1359042972, -0.1130032241, -0.2029717416, 0.0797880888, -0.1249111816, 0.0143018151, -0.2004114240, 0.0664436072, 0.3792932928, -0.1130668074, -0.0281259678, -0.0501055457, 0.0817798674, 0.0503574386, 0.0390129983, -0.0377619453, -0.1595109403, -0.0587593019, -0.0773790553, -0.0816721171, -0.0757204443, 0.1009792238, 0.1186748073, -0.2354826480, 0.1580505669, -0.2272645384, -0.0448882766, -0.0302545503, -0.0584167168, -0.0760145038, -0.0203942619, 0.1192036569, -0.0265601799, 0.1198057234, 0.0748444349, -0.0529745743, 0.0145655414, 0.0009639915, 0.0259452332, 0.3085019886, 0.0813479498, 0.0515678599, 0.0420909375, -0.0271086432, -0.0689989477, 0.0091671217, -0.0925705135, -0.3497162759, -0.0527893379, -0.2378663570, 0.0888390988, 0.2674611807, -0.0508855544, 0.1087158993, 0.2977165878, -0.0624307506, 0.1935177594, -0.2125984728};
#endif

#endif
