//Numpy array shape [3, 3, 32, 64]
//Min -0.229065656662
//Max 0.246818140149
//Number of zeros 0

#ifndef W18_H_
#define W18_H_

#ifndef __SYNTHESIS__
model_default_t w18[18432];
#else
model_default_t w18[18432] = {0.0103534348, 0.0160513055, 0.0572948679, -0.0807983950, -0.1084042490, -0.0801412985, -0.0370726176, 0.0263053589, 0.0103144068, 0.0015230158, 0.0200592820, -0.0024438943, -0.0196829047, -0.0117983017, -0.1203913018, -0.0747176483, -0.0124340756, 0.0079688849, 0.0270935763, -0.0058814199, -0.0037932587, -0.0364939496, -0.0104220463, -0.0239853896, 0.1131851301, -0.0310531873, 0.0137820560, -0.0073577128, -0.1004063934, -0.0504915155, 0.0260520633, -0.0183201674, -0.0460683592, -0.0366588160, -0.0324245803, -0.0083914725, -0.0017739453, 0.0207063500, -0.0364459306, 0.0184647944, 0.0902718902, -0.0674099028, 0.0195011571, -0.0117707346, -0.0439004079, 0.0371735543, -0.0289239995, 0.0174307767, -0.0134121133, -0.0253288765, -0.0573921017, -0.0662215501, 0.0374245830, -0.0662173033, 0.0094889114, -0.0405505523, -0.0638739988, -0.1197025329, 0.0275240950, 0.0016423619, -0.0495278314, -0.0281268302, -0.0859390870, -0.0590250567, 0.0508442000, -0.0142066423, 0.0395107158, -0.0479297787, -0.0117822513, -0.0298350416, 0.0082381135, 0.0424058102, 0.0060408036, 0.0106262276, -0.0411263816, -0.0358350910, -0.0250701010, 0.0754560977, -0.0465138108, -0.0284092706, 0.1149201989, 0.0234585200, -0.0122361574, -0.0066566444, -0.0340462402, -0.0065463586, -0.0058025429, 0.0296345521, 0.0075733950, -0.0201750342, 0.0786515027, -0.0056331139, -0.0225479230, 0.0876087919, 0.0019799126, 0.0376049876, -0.0467320681, 0.0565784350, -0.0137326336, 0.0504397899, -0.0329353809, -0.0421056114, 0.0483733714, 0.0276256632, -0.0029094552, 0.0159292296, -0.0150460703, 0.0150864897, 0.0218065586, -0.0035803327, 0.0406045504, 0.0564146973, 0.0054994449, -0.1072335839, -0.0206812192, 0.0120060574, -0.0661620945, -0.0445978083, 0.0127502261, 0.0290554818, 0.0123313731, -0.0360907651, -0.0382023603, -0.0110773388, 0.1313608736, -0.0399734862, 0.0549763478, -0.0188073833, -0.0763152465, -0.0417999886, -0.0464005023, 0.0708219036, 0.0062491507, -0.0861824229, -0.0169061758, 0.0011764982, -0.0798893496, 0.0198389497, -0.0152778169, -0.0104491021, -0.0436616838, 0.0679874495, -0.0314220116, 0.0334072821, 0.0452666543, 0.0447947122, -0.0282193627, 0.0072287247, 0.0915160701, 0.0655588731, -0.0335173085, 0.0111662252, -0.0995683223, -0.0866111219, -0.0033132618, 0.0115642231, -0.1437855661, 0.0547870547, 0.0590482019, 0.0436418541, 0.0717085674, 0.0112942616, -0.0803671852, 0.0688999221, -0.0246892851, -0.0890752524, 0.0680428296, -0.0865727216, -0.0459546037, 0.0014183968, -0.0605556816, -0.0115212351, 0.0123900454, -0.0175696164, 0.0767683014, 0.1169367358, -0.0853142291, -0.0510499030, 0.0646624938, 0.0822361410, -0.0663146302, 0.0287503097, 0.0345740579, -0.0306157488, 0.0756670535, -0.0019099445, -0.0015318539, -0.0057935030, 0.0335870907, -0.0611020848, -0.0295235440, 0.0115357544, -0.0744098425, 0.0361141637, 0.0081280163, -0.0384518094, -0.0327923633, -0.1286750436, -0.0043452946, -0.0007144964, 0.0320241302, -0.0623993166, 0.0284757372, 0.0907543227, -0.0337792933, 0.0162473340, 0.0240189489, -0.0330311619, -0.0649437979, -0.0548625253, 0.0449048169, 0.0387273058, -0.0213776249, 0.0167299565, 0.0182285029, 0.0168408602, 0.0311721209, 0.0104874903, -0.0213151239, -0.0134516330, 0.0665445998, -0.0528593808, 0.0325426050, -0.0760873780, -0.0109779704, -0.1383849978, 0.0282845590, 0.0008253809, -0.0574569292, -0.0127756735, 0.0229461547, 0.0760222152, -0.0273763612, -0.0200132113, -0.0381015167, -0.0003357046, -0.0503189713, 0.0344615169, -0.0520682260, 0.0309732128, 0.0606160723, -0.0260704383, -0.0358156227, -0.0294167437, -0.0354475118, -0.0688346177, -0.0543763898, 0.0068387059, -0.0065564783, -0.0057718516, -0.0335271917, 0.0032485388, 0.0471574329, -0.0550284907, 0.0547390655, -0.1014476418, -0.0303408150, 0.1007177457, -0.0995992273, 0.0951489583, 0.0141952410, -0.0217200369, 0.0197535511, -0.0846241042, 0.0476576202, -0.0250293147, 0.0504224300, 0.0930370241, -0.0655613765, 0.0138671640, -0.0444231108, 0.0123361498, 0.0524843261, 0.0363612697, 0.0632778704, 0.0054063275, 0.0132176382, -0.0238704830, -0.0400758125, -0.0438769981, -0.0637555718, -0.0429120436, -0.0191965848, -0.0840189308, -0.0161935762, 0.1259087771, 0.0469835773, -0.0563547090, 0.0955658108, 0.0379051492, -0.0154419960, 0.1371303648, -0.1106949747, -0.0439875759, -0.0422428176, 0.0785960108, 0.0655027926, -0.0304734353, -0.0354042500, -0.0629094914, -0.0187797695, 0.0596164353, 0.0017614997, -0.0230831560, 0.0173178222, -0.0624932051, -0.1004025564, 0.0556138121, 0.0735993013, -0.1184331030, -0.1006206200, 0.0130194519, -0.1104053482, -0.0357811674, 0.0809542686, 0.0911521390, 0.0659948066, -0.0675179586, -0.0289453734, -0.0966215506, -0.0015350657, 0.0603484139, 0.0327188447, -0.0266956631, 0.1378027350, 0.0015337764, 0.0759004653, -0.0149971265, 0.0610990413, -0.0316676199, 0.0243767146, 0.0435456075, 0.0926442891, -0.0621984228, -0.0168685094, 0.0414617434, -0.0317986868, -0.0659705177, 0.0116109410, -0.0336466506, 0.0319149420, -0.0494237877, 0.0047052032, -0.0512145273, 0.0643796995, 0.0486217588, -0.0090002893, 0.0818422884, 0.0904956236, 0.0846271068, -0.0765526816, -0.0315339155, 0.0225274172, 0.0003365481, -0.0353921168, -0.0709237456, 0.0081649898, 0.0227150638, 0.0272423699, -0.1065692604, 0.1202186421, -0.0271690581, -0.0040777703, -0.0578219071, 0.1111640260, 0.0421186127, 0.0068764617, -0.0601417087, 0.0247216020, 0.0190335792, -0.0116705215, -0.1302229166, 0.0320804752, 0.0794113725, -0.0092696771, 0.0151639953, 0.0244061928, -0.1066154689, -0.0586229600, 0.0207264014, -0.0076082051, 0.0565962642, -0.0073441374, 0.0683107823, -0.0528793857, -0.0626937374, 0.0141865397, 0.0858193636, 0.0642094836, -0.0170995537, -0.0726944432, 0.0216543991, 0.0208704770, -0.0433942713, -0.0496874414, -0.0094602313, 0.0125054512, -0.0680588111, 0.0643852353, -0.1213202477, 0.0623603053, 0.0113374097, 0.0309531260, -0.0302275401, -0.0390810482, 0.0070496644, -0.0440654866, -0.0453038029, -0.0533444211, -0.0495231934, -0.0302829444, 0.0039164182, 0.0171821024, -0.0010219167, -0.0355689228, -0.0082646841, 0.0034693002, -0.0293452349, 0.0688813105, 0.0139902951, 0.0047790040, 0.0248563737, 0.0198911224, -0.0553767607, -0.0213196874, 0.0311328657, 0.0329738595, -0.0001872032, -0.0683163777, 0.0486771315, -0.0422682539, 0.0291314051, 0.0049265330, -0.0381163843, 0.0657029599, -0.0286637414, -0.0134118283, -0.0671122819, -0.0034244156, 0.0884128734, -0.0162831303, -0.0651046932, -0.0862035453, -0.0238476787, 0.0364489108, 0.0272741467, 0.0200040899, 0.0654853582, -0.0590007193, 0.0600987524, -0.0570970736, 0.0636885837, -0.0725475550, -0.0416568853, 0.0589236803, 0.0389388353, -0.0208212603, 0.0147387292, 0.0527311414, 0.0803340375, 0.0004044274, 0.0505966358, 0.0653416589, -0.0239192136, -0.0883593783, 0.0459249690, 0.0225649960, 0.0103470683, -0.0193871576, 0.0262857862, 0.0594531149, 0.0203309692, -0.0495026968, 0.1117887944, 0.0037828782, -0.0426541194, -0.0016958932, -0.0666622594, -0.0032815915, 0.0245337300, -0.0700856075, 0.0260851979, -0.0066697043, -0.0299146045, -0.0046789432, 0.0789955929, -0.0231368933, -0.0529748611, 0.0290976837, 0.0549472049, -0.0161512233, -0.0734397545, 0.0644915476, 0.0109462328, 0.0118517419, -0.0115834577, -0.0131676150, 0.0505517349, -0.1034333929, -0.0032877629, -0.0318596587, 0.1107581779, -0.0805895329, -0.0560466610, -0.0159056466, -0.0124900378, -0.0055995015, -0.0206696242, -0.0078592617, 0.0021376368, -0.1158318967, -0.0378074646, -0.0453523695, -0.0395878367, -0.0192691591, 0.0053831218, 0.0182632413, -0.0343429036, 0.0718619749, 0.0452323630, -0.0399084724, -0.0336909406, -0.0419993848, -0.0645584762, -0.0096131144, 0.0178803895, -0.0892511085, -0.0758288726, -0.0014004390, 0.0353989303, 0.0082915602, 0.0740463883, -0.0107576242, -0.0484799631, 0.0238742847, 0.0880965441, 0.0147092389, -0.0118021900, 0.0399268679, 0.0684071779, -0.0042590406, -0.0071387240, -0.0604158826, -0.0428659283, -0.0387839787, -0.0332946405, 0.0476651825, 0.0242914073, -0.0458999947, -0.0278201103, -0.0270431507, 0.0008410641, 0.0705260411, 0.0104539618, -0.0335196555, -0.0486920401, 0.0162529219, -0.1253103763, 0.0311342776, -0.0120520964, -0.0840831921, 0.0135369981, -0.1263006479, 0.0128123313, 0.0788629726, -0.0648789555, -0.0541567728, -0.1106021106, -0.0240170490, 0.0144833084, 0.0594448633, 0.0427497998, -0.0721382350, -0.0124506466, -0.0046892953, 0.0837331861, -0.0417316407, 0.0356337912, 0.0391169079, -0.0911634117, -0.0117331445, 0.0761130303, 0.0145149147, 0.0280708391, -0.0396557115, 0.0517793484, -0.0553912818, -0.0335865766, -0.0470037237, 0.0134596238, 0.0531608164, 0.1108592078, 0.0668868050, -0.0091468021, -0.0606228709, 0.0645482317, 0.0841082260, -0.0256748032, 0.0096787717, 0.0470069759, -0.0507081673, -0.0050429050, 0.0012236872, 0.0423263833, -0.0289228261, -0.1311915070, 0.0545850880, 0.0089662764, -0.0045380713, -0.0758735836, 0.0926095098, -0.0545425378, 0.0389066674, 0.0241822004, 0.0803504661, -0.0478437692, -0.0306890626, 0.0380059108, 0.0399883352, 0.1243675873, -0.0193609614, 0.0974655822, -0.0895938128, -0.0079613822, 0.0168090705, 0.0617551953, 0.0127930082, 0.0829077959, 0.0235789027, -0.0108695114, 0.0590643883, 0.0551732406, 0.0457963347, 0.0583957881, -0.0190207213, 0.0963871852, -0.1123609841, 0.0355358273, -0.0715246275, 0.0332851224, -0.0265169144, -0.0280616265, 0.0738595128, 0.0044871643, -0.0437680930, 0.0477877595, -0.0634360313, 0.0503939353, 0.0540303960, 0.0465984158, -0.0809967667, -0.0356053077, 0.0248230249, -0.0321664996, -0.0178699791, 0.0044033960, 0.1235361770, -0.0648593679, -0.0355764963, -0.0932693779, 0.0230768844, 0.0589316040, 0.0617298223, -0.0124092670, -0.1159337834, 0.0257874671, -0.0322903320, -0.1521161646, 0.0439330600, -0.0379745997, 0.0179983266, 0.0689829737, 0.0169123895, 0.1083059683, -0.0505205318, 0.0727743730, 0.0186616518, 0.0317791887, 0.0998971313, 0.1155218109, 0.0228900388, 0.0496633574, -0.0784065425, -0.0400016792, 0.0423435718, 0.0459224135, -0.0437564887, 0.0472324789, -0.0435922593, 0.0651077405, -0.0202664845, -0.0315107629, -0.0458359569, -0.0427203514, -0.0708616599, 0.0086507164, 0.0367404111, 0.0639202669, -0.0221697707, -0.0846191198, 0.0162869953, -0.0261876415, 0.0268291924, -0.0743398368, -0.0322914198, 0.0062803533, -0.0868415087, -0.0207528714, 0.0196018647, -0.1218198985, 0.0778483748, 0.0707974657, -0.0067059379, 0.0526101775, -0.0557893664, 0.0476874076, 0.0398212895, 0.0601060949, -0.0718908235, 0.0280983206, -0.0291246325, 0.0253543202, -0.1264952868, -0.0440051295, 0.0961405486, -0.0837813020, -0.0089717405, -0.0533810258, -0.0071466072, -0.0839653835, -0.0142208785, 0.0039882455, 0.0233517457, -0.0797675475, 0.0199331325, 0.0185381100, 0.0225679204, 0.0251079109, -0.0312408116, 0.0513724163, -0.0581766330, -0.0751861408, -0.0441401787, 0.0659605637, 0.0038277660, -0.0507251881, -0.0638390556, 0.0083281519, -0.0098737888, -0.0871985033, -0.0094158836, -0.0516191833, -0.0019667170, -0.0336601920, 0.0872703046, 0.1213067323, -0.0319350064, -0.0190653801, -0.0406024940, 0.0271478891, -0.0913690105, -0.0268409103, 0.0810738057, -0.0612754859, 0.0522203110, 0.0784643590, 0.0972381979, 0.0218663123, -0.0078484491, 0.1131401211, 0.0702221915, -0.0403243601, -0.0348246321, 0.0179845635, 0.0227836277, -0.0522472858, 0.0288971998, -0.0842466131, 0.0355476849, -0.0258558150, 0.0170516651, 0.0129459612, -0.0511172712, -0.0540613495, -0.0290612839, -0.0034857378, -0.0495065711, 0.0098173236, 0.0660299435, -0.0207543876, 0.0189914964, 0.1289132237, 0.0552397259, -0.0045706965, 0.0669236705, -0.0489991531, -0.0172291566, -0.0050880224, -0.0283614043, 0.0962529778, 0.0116068944, 0.0440075584, 0.0017414996, -0.0667421594, 0.0605154708, 0.0126049137, -0.0020716162, -0.1636170000, -0.0637566298, 0.0133203054, -0.0017372983, -0.0727830604, -0.0211572349, -0.0277065840, 0.1584471762, -0.0005001450, 0.0389552861, 0.0196911357, -0.0390623584, -0.0219564363, 0.0106089357, -0.0340775102, 0.0106587000, -0.0473205633, 0.0494106263, -0.0204994325, -0.0526180565, 0.0392250866, 0.0279429927, 0.0387551822, -0.0194873400, -0.0150369331, 0.1518029869, 0.0086581856, 0.0135296872, -0.0599834174, -0.0198719706, 0.1049139202, -0.0537935570, 0.0145395920, -0.0329654887, 0.0193743333, -0.1553324908, 0.0476699956, 0.1227547005, 0.0058932900, 0.0578923374, 0.0279123746, 0.0017676177, 0.0225141309, 0.0199677423, -0.0734282956, 0.0702043697, 0.0080032106, -0.0110331960, -0.0605170019, -0.0158444513, -0.0197330397, -0.0034844386, 0.0694481581, 0.1168456003, -0.0505347885, 0.0114446841, -0.0554065667, 0.0415213369, 0.0038335063, -0.0928447396, 0.0964528248, 0.0750626028, 0.0476255231, -0.0333959423, -0.0721114501, -0.0153733725, -0.0622777715, 0.0104551073, 0.0434249155, -0.0883354992, 0.0136109805, 0.0130868470, 0.0240293909, 0.0279955529, -0.0399327129, 0.0013950976, 0.0188974272, 0.0803058743, -0.0393497460, 0.0409164205, -0.0740492940, -0.0437057205, -0.0550858229, 0.1057252213, 0.0087120114, -0.0124102663, -0.0194760114, -0.0118990922, -0.0344223045, 0.0839078873, 0.0209261402, -0.0525782853, -0.0032987564, -0.0568965115, 0.0241563320, -0.0304497480, 0.1132635847, 0.0174202658, 0.0189257637, 0.0500082411, -0.0459203571, 0.0849439502, -0.0310658067, -0.0287095364, -0.0545151681, -0.0240566432, 0.0346639417, -0.1104334593, 0.0327986218, 0.0479026400, -0.1257697493, 0.0970274433, 0.0658864379, -0.0019414609, 0.0357154869, 0.1276029795, -0.0704663023, 0.0132086035, -0.0079980325, 0.0775382519, 0.0051303715, -0.0276533794, -0.0406873561, 0.0030845643, -0.0325941108, -0.0474708900, -0.0202008393, -0.0694593489, 0.0701629668, -0.0270551182, 0.0649749562, -0.0341436528, -0.0879080892, -0.0710302070, -0.1337392032, -0.0174562763, -0.0266681314, -0.0129282894, -0.0019650646, -0.0636060014, 0.0603041761, 0.1060817763, 0.0216768067, 0.0192387793, 0.0003604604, -0.0053003323, 0.0697327033, 0.0372686721, 0.0188308395, 0.1046235859, -0.0650497675, 0.0832112581, -0.0286304448, 0.0126452316, -0.0310093723, 0.0252371896, -0.0205837265, -0.0076065557, 0.0722413361, 0.0777603239, -0.0662607923, -0.0378782079, -0.0072688777, 0.0217418764, 0.0854792669, 0.0428721756, 0.0089234607, -0.0400204249, -0.0330841094, 0.0413111672, -0.0425907597, -0.0381703749, -0.0985154137, -0.0607483685, 0.0720410943, 0.0694121420, 0.0040557114, 0.0358225107, 0.0866476521, -0.0057641212, 0.1128454208, -0.0033328263, -0.0226448495, 0.0072513702, 0.0539959408, 0.0642696545, -0.0937078297, -0.0066697653, -0.0371265374, 0.0226258487, 0.0399203859, -0.0797776654, -0.0033044103, 0.0024382160, 0.0047825649, -0.0335715152, 0.0307596643, -0.0130714504, 0.0108100399, 0.0391592085, 0.0318426900, 0.0571909212, -0.0282768849, -0.0964230895, -0.0188991167, 0.0248440318, 0.0285344198, -0.0376496911, 0.0053215134, -0.0623422936, -0.0732674822, 0.0008191218, 0.0099528171, -0.0029013269, 0.0063853776, -0.0374690369, 0.0047796741, 0.0515244268, -0.0934359580, -0.0540062152, -0.0248971861, 0.0211411305, -0.1742054820, 0.0169871580, 0.0289547127, 0.0112129180, -0.0077440594, -0.0533697046, 0.0855147690, -0.0190885346, 0.0640163794, -0.0268878527, -0.0286701173, 0.0094677918, -0.0208146498, 0.0811164305, 0.0347725861, 0.0068280273, -0.0240584519, 0.0092526535, -0.0103900349, 0.0333842039, -0.0291097816, 0.0184147581, 0.0052532526, 0.0332581140, 0.1064665914, -0.1079770923, 0.0328833796, -0.0107977428, 0.0484031700, 0.0574769825, -0.0379907191, -0.0822657794, -0.0223041195, -0.0055667823, 0.0837524682, 0.0714123324, -0.0060696909, 0.0195634793, 0.0245499089, 0.0126962140, -0.0273370817, 0.0815348029, 0.0411884449, 0.0437383726, 0.0187556241, -0.1155585051, 0.0202432014, -0.0696198717, -0.0329844058, -0.0232829414, -0.0440824106, 0.0257796627, -0.0236688443, 0.0313397758, -0.0152313085, -0.0826762393, 0.0234988518, -0.0334759429, 0.0431996584, 0.0279008374, 0.0103169065, -0.0211672205, 0.0119421827, 0.0358058177, -0.0178852770, 0.0742648318, 0.0663565248, -0.0128304372, 0.0143796373, 0.0187823493, -0.0495561212, 0.0630774572, 0.0690565407, 0.0008622821, -0.0587588288, 0.1229525134, -0.0140906563, -0.0101715764, -0.0057296911, 0.0652528107, 0.0063202805, -0.1170904562, 0.0195612609, -0.1432243139, -0.0147718210, 0.0271208994, -0.0263146162, -0.0103565054, 0.0279817861, 0.0061638467, 0.0443329737, -0.1007002890, 0.1068706736, -0.0711906105, -0.1866025478, 0.1269845963, 0.0215193052, -0.0249896087, -0.0417221189, 0.0231021922, 0.0263709147, 0.0998238847, -0.0372614749, 0.0635180250, -0.0318894386, -0.0866945460, -0.0964013860, 0.0929634646, -0.0251790956, -0.1077778041, -0.0759817585, -0.0150471404, -0.0108303567, -0.0530113690, -0.0941838101, 0.0379988588, 0.0611743331, 0.0287057199, 0.0409488156, -0.0171810128, 0.0121107623, -0.0692465156, 0.0306830816, -0.1433148682, -0.0287377443, 0.0264149494, 0.0346210748, 0.0241712257, -0.0442550071, -0.0404835641, 0.0135161588, 0.0605498813, -0.0097267348, 0.0220112633, 0.0518547930, 0.0169141497, -0.0197119750, -0.0177644882, -0.1100133508, -0.0354230329, -0.0375219136, -0.0633363947, -0.0579846576, 0.0148633840, 0.0296534598, 0.0523664840, -0.0644598007, -0.0322381705, -0.0047417628, 0.0193604529, 0.0268497709, 0.0122640813, -0.0345518328, 0.0832606032, 0.0658975318, -0.0276190750, 0.0699349120, -0.0096543515, -0.0402942300, 0.0440763570, -0.0017978370, 0.0307595674, -0.0541067608, 0.0895883814, 0.0247424655, -0.0606657639, 0.0731788799, 0.0180408359, -0.0118170148, -0.0022277187, -0.0652295798, -0.0312321130, -0.0178948138, 0.0005904852, 0.0738936141, 0.0126166772, -0.0341915749, -0.0237729289, -0.0149128158, 0.0015754933, 0.0106067806, 0.0067610079, 0.0335625038, 0.0510981008, 0.0694610551, 0.0293157659, -0.0442123637, 0.0046640332, 0.0268363915, 0.0146818059, -0.0572161041, 0.0038453576, 0.0547215492, -0.0175250899, 0.0059351856, -0.0469191000, -0.0523343459, -0.0872920528, -0.0485351905, 0.1391853243, -0.0562053397, -0.0686391667, -0.0123378038, -0.0067901975, -0.0120623084, 0.0269494206, 0.0297800954, -0.0569926575, -0.0185450856, 0.0954553634, 0.0828066915, 0.0316718183, 0.0099736443, 0.0047240695, 0.0463911332, 0.0057573528, 0.0524397492, 0.0286328532, -0.0167798884, 0.0183293056, -0.0149785336, -0.0406742021, 0.0974410772, -0.0087841721, -0.0272358749, 0.0063554393, -0.0624694638, -0.0624463670, 0.0369535387, -0.0372316018, 0.0141959684, 0.0323359519, 0.0081928764, 0.0543954447, 0.0144328447, -0.0407702997, -0.0178040471, -0.0306456126, 0.0758349597, -0.0300780982, -0.0436805934, -0.0451780744, -0.0411914289, -0.0163056403, -0.0136640370, 0.0054879342, 0.0353383347, -0.0116108339, 0.0931779817, -0.0379853696, 0.0499272272, 0.1314263493, -0.0200756509, -0.0169329215, -0.0348911509, 0.0591985025, 0.0420501605, 0.0152246524, 0.0360809751, 0.0295585915, -0.0080198385, -0.0019886116, -0.0342812911, -0.0271235965, -0.0195372924, -0.0550658479, 0.0119624073, -0.0131953210, 0.0795368776, 0.0400200374, 0.0016684755, 0.0610731095, 0.0906782076, -0.0029603799, -0.0640667826, 0.0001037379, -0.0425806865, 0.0853037313, 0.0115194172, 0.0097037377, 0.0043469402, -0.0129063586, -0.0400414392, 0.0657669976, 0.0260123033, 0.0782390013, 0.0719942078, 0.0382614806, 0.0171210133, -0.0268597119, -0.0195330456, -0.0325013138, 0.0352405943, -0.0338831209, 0.0202059280, -0.0331459641, 0.0613652952, -0.0063601905, -0.0079987459, -0.0149958497, 0.0053354083, -0.0316239260, -0.0443448983, 0.0523018688, -0.0420265757, 0.0504886284, 0.0388886891, -0.0019590023, 0.0063303784, 0.1213633344, -0.0161947794, -0.0325577371, 0.0797469616, -0.0222350415, -0.0562175363, -0.0005959559, -0.0378939025, 0.0162436422, 0.0517667979, 0.0090772333, -0.0890262648, 0.0253941305, -0.0066387248, 0.0553642400, 0.0529877879, -0.0312616788, 0.0384296849, -0.0615622438, -0.0061179474, 0.0272347573, 0.0341058262, 0.0451395772, -0.0243935529, 0.0116820056, 0.0406406671, 0.0092519186, -0.0192797538, 0.0429236740, 0.1026400030, -0.0323620215, 0.0605348200, 0.0054390687, 0.1186811477, 0.0351526216, 0.0124270907, 0.0597866662, -0.0333378762, -0.0157929510, 0.0407501347, 0.0187222306, -0.0234223045, -0.0122104315, 0.0198081452, 0.0044659916, 0.0071881115, -0.0083102528, 0.0100791650, 0.1128549948, -0.0597737692, 0.0101917796, -0.0252137743, 0.0738987327, -0.0259282924, 0.0737580881, -0.0349969268, 0.0915324092, -0.0838430896, -0.0959636793, -0.0389498845, -0.0265457183, -0.0175437145, 0.0539501980, -0.0201411285, -0.0696872622, 0.0671380684, 0.0271184277, 0.0243573077, 0.0116409585, -0.0264325310, 0.1077699587, -0.0432733558, 0.0866250545, -0.0108957840, -0.0573467389, -0.0065816795, -0.0236565880, -0.0546554737, -0.0637930334, 0.0442081876, 0.0349793285, 0.0620000474, -0.0606395528, -0.0201974809, -0.0084405029, 0.0765859485, -0.0661379769, 0.0312808491, -0.0717054978, -0.0490334816, -0.1421333998, -0.0187282432, 0.0103087062, -0.0858857706, 0.0433737710, 0.0388035774, 0.0613042898, 0.0436493829, -0.0446125157, 0.0692079365, -0.0897688568, 0.0736613348, -0.0271405205, 0.1265553534, -0.0577174500, -0.0535775758, -0.0019707773, 0.0608174205, -0.0490444601, -0.0267915037, -0.0568258502, 0.0124720065, 0.0729599074, 0.0348027609, -0.0023932972, -0.0149873793, -0.0226085410, 0.0805845037, 0.0120105306, -0.0023469743, 0.0310858507, -0.0127320532, 0.0495386161, 0.0648925900, -0.0732503682, -0.0053268187, -0.0031392877, 0.1137718111, -0.0238307193, 0.0102904197, 0.0132374177, 0.0002777480, -0.0074282647, -0.0214429814, 0.0027761790, -0.0887740999, 0.0589247346, 0.0038454714, 0.1175019369, -0.0408694558, -0.0110676903, -0.0101154549, -0.0480173416, 0.0343542211, 0.0610856898, 0.0213488452, 0.0270967241, -0.0761356354, 0.0454090163, 0.0509880073, -0.0485729352, -0.0508031249, -0.0329275504, 0.1026771367, -0.0171223171, 0.0547006354, 0.0373424701, 0.0577336438, -0.0682877153, 0.0713227466, 0.0684601292, 0.0297911428, -0.0689792782, -0.0745214447, -0.0370448902, -0.1713077724, 0.0233078394, 0.0082139652, 0.0616688728, -0.0477398038, -0.0580804795, -0.0707944110, -0.0719248205, -0.0298074447, 0.0312670358, 0.0079902299, 0.0698510334, 0.0290465634, 0.0091180839, 0.0434879027, -0.0850425437, -0.0312998667, 0.0082169576, 0.0730303377, 0.0251671448, 0.1011813506, -0.0557703637, 0.0181160644, 0.0483884662, 0.0421076342, 0.0748631880, -0.0292004198, 0.0536517464, -0.0584888682, -0.0239316598, -0.1434565783, -0.0704172701, -0.0052549709, -0.0870472118, -0.0360441543, -0.0067492477, 0.0597409420, -0.0166529436, -0.0012530815, 0.0568166748, -0.1222161055, 0.0807129368, 0.0441011153, 0.0988954231, 0.1152727827, 0.0912706405, 0.0929077044, -0.0366126038, -0.0183917936, -0.0649140924, 0.1335951090, 0.0113825165, -0.0052568675, -0.0578222722, 0.0678887591, 0.0068555847, -0.0696134120, -0.0753376707, -0.0392117128, 0.0086569153, -0.0576580763, -0.0511064008, -0.0241027176, -0.0553365387, 0.0611413270, -0.0461919867, 0.0783297271, -0.0062101055, -0.1145266965, 0.0911922678, 0.0252901260, 0.0071631637, -0.0574734509, 0.0465342216, -0.0072368304, 0.0465678200, 0.0024912190, 0.0811352730, -0.0632145554, -0.0124292225, 0.0289563257, -0.0709529817, 0.0035433702, 0.1091078669, -0.1205686927, -0.0341874212, 0.1413806528, 0.0398114882, -0.0186549108, 0.0126179811, -0.1082010269, -0.0509705096, 0.0976815894, -0.0240953509, 0.1109946668, -0.0417346023, -0.0142508587, 0.0472446568, 0.0885956660, 0.0349955037, 0.0300755128, -0.0309772342, 0.0142808501, -0.1016605124, -0.0379259586, 0.0089723980, 0.0034693335, 0.0141535802, 0.0222007260, 0.0794919729, -0.0604106002, -0.0561970472, 0.0589586943, -0.0740647689, 0.0180343445, 0.0486116931, -0.0679721832, -0.0400319286, 0.0932981819, -0.0953404084, -0.0374306031, 0.0327782854, 0.0213395376, 0.0631704628, 0.0146274017, -0.0389088243, -0.0187679827, 0.0926874727, 0.0466852896, 0.0022052613, 0.0508157797, 0.0440950468, 0.0005214512, -0.0593919531, -0.0424280427, 0.0254939124, 0.0759642422, 0.0542351864, 0.1235813200, -0.0366281085, -0.0008730608, 0.0627742037, 0.0427003875, 0.0671733469, 0.0381274559, -0.0873200670, 0.0199184325, -0.0163965765, -0.0375143513, 0.0801287517, -0.0414011255, 0.0029404897, -0.1026908606, 0.0556870438, 0.0273515563, 0.0075646648, -0.1141375527, -0.0170867126, 0.0076581640, -0.0634161383, 0.0132939117, 0.1465671062, -0.0872155502, 0.0171524156, 0.0416535661, 0.0015623763, -0.0595920496, -0.0691719577, 0.0526438653, -0.0807747915, -0.0921933427, 0.0309853684, 0.0347340032, 0.0917223096, 0.0980439186, 0.0665404201, -0.1121819839, 0.0064775157, 0.0192599930, 0.0291582216, 0.0435275063, -0.1325753480, -0.0302640367, 0.0421986096, 0.0198619608, -0.0898187235, 0.0570243746, 0.0552150123, 0.0466307327, -0.0729036182, -0.0389835313, 0.1201010719, -0.1102607250, -0.0300332960, -0.0443379432, 0.0793560371, 0.1085908785, -0.0645879358, 0.0946470201, -0.0636417046, -0.0052441172, -0.0172145646, -0.0490588844, 0.0589216538, 0.0991994888, 0.0212191269, 0.0608095974, -0.1042060852, -0.0379823446, -0.0336592980, -0.0050036656, 0.0144204488, -0.0016915094, 0.0332195796, 0.0301162004, 0.0199750923, -0.0202568024, 0.0635679737, 0.1003034115, -0.0774328485, -0.0017261620, 0.0638613328, -0.0551649556, 0.0867943019, 0.0464153513, -0.0156169692, -0.0869039074, -0.0906510428, 0.0199383982, 0.1698352098, -0.0319504924, -0.0333272889, -0.0314424373, -0.0152685298, -0.0487060659, 0.0190615822, -0.0843039751, -0.0382071547, 0.1296956241, -0.0541832373, 0.0715553910, -0.0323051177, 0.1492761672, -0.0044852211, 0.0044990671, 0.0128869656, 0.0417893678, -0.0216744468, -0.0094291158, 0.0049985969, -0.0235453453, -0.0151793109, -0.0270839427, 0.0683404133, -0.0345365219, -0.0545246415, -0.0841586813, -0.1026312932, 0.0653574988, -0.0216625575, 0.0606654175, 0.0009702776, -0.0061090626, 0.0202939976, -0.0754484087, -0.0086627956, -0.0678820014, -0.0211362187, 0.0073826406, -0.0324266143, -0.0271521416, -0.0042011188, -0.0074318997, -0.0726406053, 0.0679864734, -0.0043984139, 0.0809457302, 0.0459386706, -0.0510134436, 0.0244901404, 0.0647670180, 0.0996815115, -0.0040471642, 0.0774536356, 0.0483422317, -0.0614500158, -0.0314585082, -0.0166612212, -0.0303082932, 0.0504869781, 0.0295135397, 0.0467137955, 0.0949221477, -0.0495646670, 0.0069491053, -0.0097984187, 0.0269269980, -0.0108338557, -0.0302351732, -0.0263383407, 0.0465710238, 0.0515595451, -0.0125501808, 0.0949591249, 0.0265640058, -0.1003349498, 0.0788936764, 0.0518891327, 0.1519636959, -0.0316497236, -0.0495226756, 0.0136820050, 0.0285396092, 0.0526326708, -0.1083483398, -0.0330582485, 0.0069861626, -0.0178711899, 0.1097812057, -0.0252326895, 0.0564613529, 0.0069557312, 0.0906169340, -0.0300862081, -0.0810793489, 0.0619799048, -0.0638930276, 0.0486536063, 0.0139371753, 0.0534218960, 0.0095966961, -0.0244559273, 0.0328137502, 0.0045482726, -0.0207970962, 0.0366163589, 0.0116732307, 0.0244222824, 0.0134690451, -0.1352580786, -0.0587265827, 0.0236358419, 0.0700180680, -0.0288759153, 0.0093992464, -0.0128846532, 0.0087700570, -0.0469128415, 0.0044598826, 0.0861349702, 0.0366922952, -0.0111178197, 0.0488748662, 0.0540832728, -0.0365983956, -0.0900877863, 0.0355229639, 0.0356990397, -0.0403091200, 0.0032745451, -0.0532120317, 0.0491235703, -0.0794818848, -0.0365852602, -0.0797624514, 0.0010111959, -0.0040594144, -0.0580375865, -0.0283382256, -0.0201878455, 0.0906698182, -0.0312167946, 0.0591434725, -0.0710984021, -0.0209427066, -0.0613791086, 0.0024928011, 0.0387622677, 0.0109787602, -0.0048676394, 0.0236767847, -0.0914135575, 0.0237656366, 0.0707819015, -0.0979284346, 0.0151711777, -0.0390214734, -0.0466264971, -0.0143199246, 0.0016489422, 0.0053195492, -0.0025597096, 0.0306123383, -0.0280361250, 0.0465213247, 0.0115837166, 0.0794578716, 0.0062452033, 0.0567054413, -0.0028464987, -0.0148602501, -0.0395453870, -0.0374816880, 0.0441136472, 0.0405208282, -0.0205284134, 0.0323261283, 0.0482297912, -0.0698839650, 0.0151357651, 0.0863179117, -0.0054086260, -0.0175131243, 0.0412311964, -0.0141442837, 0.1032627895, 0.0839539841, -0.0767481178, 0.0685533211, -0.0374714881, 0.0874287337, -0.0136359725, 0.0546707623, 0.0199063756, 0.0145532144, -0.0020888082, -0.0622240826, -0.0923300236, -0.0216668807, -0.0231280178, 0.0310525224, 0.0552944317, 0.0686829090, 0.0538023449, 0.0800484121, 0.0055175144, 0.0700577423, 0.0460331105, -0.0010046290, 0.0934908763, 0.0664867461, 0.0597204939, 0.0378963463, 0.0666608587, -0.0679545999, -0.0677863508, -0.0493612029, 0.0402146466, -0.1078226194, -0.0464225113, 0.0977762789, -0.0116060125, -0.0377899669, 0.0321805254, 0.0153978178, 0.0713473931, -0.0354094356, 0.0886626840, 0.0697612092, 0.0795303583, 0.0548624359, 0.0659222007, 0.0086018993, 0.0055297818, 0.0292156953, -0.0176294111, 0.0201598853, -0.0864164755, 0.0558679625, -0.0130755669, -0.1170302480, -0.0384448506, -0.0311470814, 0.0770085081, -0.0268054772, -0.0427581333, 0.0394138061, 0.0345447958, -0.0254659634, -0.0728840306, 0.0225912631, -0.0228668135, 0.0538134649, 0.1198386997, 0.0676050186, 0.0222755894, 0.0413922071, 0.0305920579, -0.0140534863, -0.0157754384, -0.0542487763, 0.0285780318, -0.0787070394, -0.0033225943, -0.0706255287, -0.0042739115, -0.0967387855, -0.0263932347, 0.0309215765, 0.0532623120, 0.0639108866, 0.0382845700, 0.0514252000, -0.0715192035, 0.0653822571, -0.0364188217, 0.0805675834, 0.0399377570, -0.0018033726, 0.0047913548, -0.0354485884, 0.1058351099, -0.0183370132, 0.0421345308, -0.0155820521, -0.0271061920, 0.0045918589, 0.0228566956, -0.0663120523, 0.1626170427, -0.0017175456, -0.0951239541, -0.0451753661, -0.0107388785, 0.0038062185, 0.0699772835, 0.0122539680, 0.0302093606, -0.1025967300, 0.0741862729, -0.0167425834, 0.0734200701, -0.0089267027, 0.1373540014, -0.0005842825, 0.0602881387, 0.0336704180, 0.0216913763, 0.0689996108, -0.0377363078, 0.0704685971, 0.0558860973, -0.0909485146, -0.0069985720, -0.0282416549, -0.0345745794, 0.1701493859, -0.0171587504, -0.0132426200, 0.0221984368, -0.0288011618, 0.0645399615, -0.0289647654, -0.0723738670, -0.0496653952, -0.0004333017, -0.0131021803, 0.0496038124, 0.0460546836, 0.0052003055, 0.0204805117, -0.0541270934, 0.0279557202, -0.0261349529, -0.0856314152, 0.0025903294, -0.0061436361, 0.0259876493, 0.0322355554, 0.1221304312, 0.0510688573, 0.0482501984, 0.0361705422, -0.0048875147, 0.0222846884, 0.0105568524, -0.1071458161, 0.0150421839, -0.0220622960, 0.0027904729, -0.0704894662, -0.0107774846, -0.0700413436, 0.0343550779, 0.0036648682, -0.0660741404, 0.0723804384, 0.0248875227, -0.1271351129, -0.0138779394, -0.0281423293, 0.0735521913, 0.0475944579, 0.0019882249, -0.1167318150, -0.0603368394, 0.0491156727, 0.0296840183, -0.0913538858, -0.0219781883, -0.0327967927, -0.1066084728, 0.0271294508, 0.0377167128, 0.0083533619, -0.0627487823, 0.0369080678, 0.0542457066, -0.0151575385, 0.0001840327, 0.1007511392, 0.0181696992, 0.0238717534, -0.0141930664, 0.0729245469, -0.0203100014, -0.0131857442, -0.0295717288, 0.0145613095, 0.0773102939, 0.0020153490, 0.0105271023, 0.0436812416, -0.0264657773, -0.0228628237, 0.1213024706, 0.0705148056, 0.0334277116, -0.0428473204, -0.0724025145, 0.0243818071, 0.0362136699, -0.0850386322, -0.0190848783, -0.0248491149, 0.0122650070, 0.0200426020, -0.0493265279, 0.1210947484, 0.0187328067, 0.0754346177, -0.0357102975, 0.0473961495, -0.0126824947, -0.0785491019, -0.0116372211, -0.1069585532, 0.0974355116, 0.0556453094, -0.0072047114, -0.0589702055, -0.0428260081, -0.1462344378, -0.0680588260, -0.0308940616, -0.0552877448, 0.0013419911, 0.0506380424, 0.0945087597, 0.0133629264, -0.0039340383, 0.0675342157, -0.0193931274, 0.0527471527, -0.0289153364, -0.0399879515, 0.1078244671, -0.1149369925, 0.0494081341, 0.0668681413, -0.0284363292, 0.0602398142, -0.0554045327, 0.0700718164, 0.0873195156, -0.0108931195, -0.0401212238, -0.0354612768, 0.0353510380, 0.0326354615, -0.0181248728, 0.0683315098, -0.0017216894, 0.0115720807, 0.0053446079, 0.1387757808, -0.0960405618, 0.0661118776, 0.0881125107, 0.0758180916, 0.0575367399, 0.0730512217, -0.0894219726, 0.0393440090, 0.0068918220, -0.0014391766, 0.0034348669, -0.0050067995, 0.0604330078, -0.0325310007, 0.0245051533, -0.0769906417, -0.0419289209, -0.0291928146, -0.1202868149, 0.0167216826, -0.0970418081, -0.0281795524, 0.0366888680, -0.0151435658, -0.0767311081, 0.0385546722, -0.0708548501, 0.0058031334, -0.0349817909, -0.0308969803, 0.0527953431, -0.0254625473, -0.0595741868, 0.1014342904, -0.0079074567, -0.1910330206, -0.0999458432, -0.0192118976, 0.0925124511, 0.0850474611, 0.0343522504, -0.0181216653, 0.0161665883, -0.0018752775, 0.0551432222, -0.0033964333, -0.0139055215, -0.0039477390, -0.1276032478, -0.0422080271, 0.0170531236, 0.0336442739, -0.0669515431, -0.0537956990, 0.1246288568, 0.0882572010, -0.0087533640, -0.0645153299, -0.0843630806, -0.1017076448, -0.0502196588, 0.0809842721, -0.0234259963, 0.0165096708, 0.0281506218, 0.0455234684, 0.1025149673, 0.0468593538, -0.0221168697, 0.0513971150, 0.0796532631, 0.0224123299, 0.0483377539, -0.0065708477, -0.0637774765, 0.0222627167, -0.0611330830, -0.0873211399, -0.0060755927, 0.0864951834, -0.0817728937, 0.0481205806, -0.0106723737, -0.0052766735, 0.0266660638, 0.0179593842, 0.0100877006, 0.0622801259, -0.0766079798, 0.0236473437, 0.1351817399, 0.1098077074, 0.0204848200, 0.0019162289, -0.1120773330, 0.1058530957, 0.0436241291, -0.0031520191, -0.1259166002, -0.0369524434, -0.0385255255, 0.0011337259, -0.0332236290, -0.0177786294, -0.0078896340, -0.0048489389, 0.0589888655, 0.0525257289, -0.1070868671, 0.0384497643, 0.0060783275, -0.1480930299, 0.0255272370, -0.0571851060, -0.0331340171, -0.0435964428, -0.0322816819, -0.0213978458, -0.0065442584, 0.0005439600, -0.0748300850, 0.0685833693, 0.0118374871, 0.0230034627, -0.0205721240, 0.0375334956, -0.0501234233, 0.0189760402, 0.0331078991, -0.0024326225, 0.0013486071, -0.0701589584, -0.0420663059, 0.0164980181, -0.0321439244, 0.0079166275, 0.0120586306, 0.0138979740, -0.0127687147, -0.0108746672, -0.0446279272, 0.0228162706, -0.0139698414, -0.0387354866, 0.0595486537, -0.0222193263, 0.0833720639, -0.0737452060, -0.0805596635, -0.0107249450, -0.0185269937, 0.0063547930, -0.0867067650, -0.0204935223, 0.0237021688, -0.0151866637, -0.0402334109, 0.0182148870, -0.0941434205, 0.0355987363, -0.0384670235, -0.0098695429, -0.0361694619, 0.0107947541, -0.0710970089, -0.0564418845, 0.0395513102, -0.0886015221, -0.0202616900, 0.0314323641, -0.0551290661, -0.0039202129, -0.0114297504, 0.0293610077, -0.0276081599, -0.0187397823, 0.0027041386, -0.0153682996, -0.0260200091, -0.0092234379, -0.0663956478, 0.0250959527, -0.0947489142, -0.0066738753, 0.0104747182, 0.0069078254, -0.0871817395, -0.0239018369, 0.0081243152, 0.0923944563, -0.0289376024, -0.0222740304, 0.0148259318, 0.0344372578, -0.0064228894, -0.0212311856, 0.0724388361, 0.0188077651, -0.0517194644, 0.0071726507, -0.0055065942, -0.0093453880, 0.0244786646, -0.0636128411, -0.0339921303, 0.0281940680, -0.0624553040, 0.0455197655, 0.0439995043, -0.0229841433, -0.0106469924, -0.0005278130, 0.0107246358, 0.0615422390, -0.0029321113, 0.0753074512, -0.0511636846, 0.0303963106, 0.0532430634, -0.0051384456, -0.0261498410, 0.0175020285, 0.0266649984, 0.0630708635, -0.0203862563, 0.0774482265, 0.0030561627, -0.0615891181, -0.0220722090, -0.0472733490, -0.0000471191, -0.0112065673, 0.0002345436, -0.0334740244, 0.0150328083, -0.0448417366, -0.0260445662, -0.0122343656, 0.0002018986, -0.0294549949, 0.0811896622, 0.0416205078, -0.0291513000, -0.0284296665, 0.0542682111, 0.0679712966, -0.0478140675, 0.0643646494, 0.0088568525, -0.0229018647, -0.0129194958, 0.0502300300, -0.0160346031, 0.0109003950, 0.0237841997, -0.0212104004, 0.0376513563, 0.0330836810, 0.0417126417, -0.0126335882, -0.0436856709, 0.0208703671, 0.0448147170, -0.0248588137, -0.0502183028, -0.0140570356, -0.0402451791, 0.0419022106, 0.0079802070, 0.0539927855, 0.0017525514, -0.0127298851, -0.0000552154, -0.0178115703, -0.0523009337, 0.0016844601, 0.0487752743, -0.0240264647, -0.0784530044, -0.0228938460, -0.0343989804, -0.0692042038, 0.0199201331, -0.0045703962, -0.0384300314, 0.0078821015, -0.0069368775, -0.0252248645, -0.0271702986, -0.0346611775, -0.0030528521, -0.0258965679, 0.0155897271, 0.0254110098, 0.0382907428, -0.0680496320, 0.0013958362, -0.0234220941, 0.0153501518, -0.0321891494, -0.0069503933, -0.0063606296, 0.0832773969, 0.0604569279, 0.0101568764, -0.0146990223, 0.0041780109, 0.0441057980, -0.0230294447, 0.0337311849, -0.1015771776, -0.0095505668, -0.0070542926, -0.0068426905, -0.0066126040, -0.0244303793, 0.0097517092, -0.0078100739, 0.0004593793, 0.0072848811, -0.0309235100, 0.0289936773, 0.0387741551, 0.0319608934, -0.0523971841, -0.0695053041, -0.0097501669, 0.0051444909, -0.0179129094, 0.0200580042, 0.0125297233, 0.0183498766, -0.0106240110, -0.0454407595, -0.0091089532, 0.0286135487, 0.0556134544, -0.0311749838, -0.0225724205, -0.0270945281, 0.0273117851, -0.0187416393, -0.0425302088, 0.0237538349, 0.0375730954, -0.0231339019, -0.0211009290, -0.0381284580, -0.0419958197, 0.0484584868, -0.0302277301, -0.0547164902, -0.0175655670, 0.0451221764, 0.0138199180, 0.0391441695, 0.0272119753, -0.0038704581, -0.0422565080, 0.0402658507, -0.0320333317, 0.0314432979, -0.1064940915, 0.0196125433, -0.0152455801, -0.0471078791, 0.0523183160, 0.0585857034, 0.0228820723, -0.0524054132, 0.0112512466, -0.0563219748, -0.0170796085, -0.0335972868, 0.0721019357, 0.0301793367, -0.0248655360, 0.0397632420, -0.0044234432, -0.0402309112, 0.0139371930, -0.0047670184, -0.0305033866, 0.0455855243, 0.0281673092, -0.0109844906, -0.0253117066, -0.0016381742, -0.0375581644, -0.0129075469, 0.0232619718, -0.0045652236, -0.0425617136, -0.0453110263, -0.0392655022, -0.0216397531, 0.0013387484, -0.0033147114, -0.0237422343, -0.0004579944, -0.0345691293, -0.0494728982, -0.0141011737, 0.0577074364, 0.0001695019, -0.0667576715, -0.0264801942, -0.0769158602, 0.0907901302, -0.1046997011, 0.0705664381, 0.0743293837, -0.0265290402, 0.0987329036, -0.0276783835, 0.0097857499, 0.0465896539, 0.0215831213, -0.0298378374, -0.0036268274, -0.0465328917, -0.0139867505, 0.0420260504, -0.0304579139, 0.1569337696, -0.0310810469, -0.1036280617, -0.0498687364, -0.0427233279, 0.0525351018, -0.0352620110, 0.0396668911, -0.0959474295, -0.1275997013, 0.0249545239, 0.0084886579, 0.0487253740, 0.0202840436, -0.0091887340, -0.0884078667, 0.0560432486, 0.0114357881, -0.0219563451, -0.0108792735, -0.0600762814, 0.0054536047, -0.1664580703, 0.0159759335, 0.0192648564, 0.0965347886, -0.0257135183, 0.0188710727, -0.0678050518, 0.0112214833, 0.0157797821, 0.0049351403, 0.0093342504, 0.0519779921, -0.0933307856, -0.0091245184, -0.0115471473, -0.1363105178, -0.0648596659, 0.0411138646, 0.0742280483, -0.0605593286, 0.0127046164, -0.0557220504, -0.0305285174, 0.0848961622, 0.0006597026, -0.0052606934, 0.0235645566, -0.0704775155, -0.0124898292, -0.1964021325, 0.0320084430, -0.0665190592, 0.0322136246, -0.0051546465, 0.1475209892, 0.0876491517, 0.1247740462, 0.0838714167, -0.0524976365, -0.0014397269, 0.1232650205, 0.0598336793, -0.0557624511, -0.0208332371, 0.0338718034, 0.0037229240, -0.0259553734, 0.0834180787, 0.0718305707, -0.0323339216, 0.0621080920, 0.0001990974, -0.0706722587, 0.0055424054, 0.0130606955, -0.0893136784, -0.0437028147, -0.0054178438, -0.0748628303, -0.0518943965, 0.0264071543, 0.0039353794, -0.0150531391, -0.0026440802, -0.0383102596, -0.0258210748, -0.0073464257, -0.0765776113, 0.0229936428, -0.1704169065, 0.0235461593, 0.0178184062, 0.0438948609, 0.0083747925, 0.0945739150, -0.0184788629, 0.0344534554, 0.1180268303, -0.0385722704, 0.0271288138, -0.0890078843, -0.0182301700, 0.0129037648, -0.0827912837, 0.0419353507, -0.0502440855, 0.0417000204, -0.0092449440, -0.0111122448, 0.0520528965, -0.0774452984, 0.1015092060, 0.0617020279, -0.0866565034, 0.0569012202, 0.0509920567, 0.0315453745, 0.0124184070, 0.0157091413, 0.0429904796, 0.0154088559, 0.0602589175, -0.0018186232, 0.0019470521, -0.0991880223, 0.0003632951, -0.0514975861, -0.0439526476, -0.0273227822, -0.0068150484, 0.0603031367, -0.0034068872, -0.0242597684, 0.0372798443, 0.0323166251, 0.0220855251, -0.0323563628, -0.0513840020, 0.0803122818, 0.0100017656, 0.0657520592, -0.0398203358, -0.0654822811, -0.0529799573, 0.0690427125, 0.0238291137, 0.0233999044, -0.0562384836, 0.0873621032, -0.1201524958, 0.0705072507, -0.0307830684, 0.0181115195, -0.0619111396, -0.0913991183, 0.1542426795, 0.0173395891, -0.0249883831, -0.0035429576, 0.0126781231, -0.0283861365, 0.0222351905, 0.0125524318, -0.0178209897, 0.0858535767, -0.0014670270, 0.0151766669, 0.0916563943, 0.0127818976, 0.0149984108, -0.0266960245, 0.0669497550, 0.1342083663, -0.0365194827, 0.0444521531, 0.0819814280, 0.0423760712, 0.0560010001, 0.0766593888, 0.0478565283, 0.0311950184, 0.1078636721, 0.0885267481, -0.0896307155, 0.0093259132, -0.0129175736, 0.0238107294, 0.0171037298, -0.0660463199, -0.0201389510, 0.0566602610, -0.1235878915, 0.0429543816, 0.0752751529, 0.1004291326, -0.0631300434, 0.0739094168, -0.0127347000, -0.0476464406, 0.0256180596, -0.0080013350, 0.0395501256, 0.0382815041, -0.0197776034, 0.0625647083, 0.0365452357, 0.0762652010, -0.1247104108, 0.0289121345, -0.0215004347, 0.0493900105, -0.0337282419, -0.0602428503, 0.0558322147, 0.0920473337, -0.0159303136, -0.0775927082, -0.0865408629, -0.0229427665, 0.0292850006, 0.0106994333, -0.0072796387, 0.0351558290, -0.0527639687, -0.1048594713, 0.0662308186, -0.0812169090, -0.0484119914, 0.0275282841, -0.1027399898, 0.0615997314, 0.0703832805, 0.0339890085, -0.0314032622, 0.0330772772, -0.0405034684, -0.1017156318, 0.0478713959, 0.0776960030, 0.0015066317, -0.0214347895, 0.0261884294, 0.0634995922, 0.0224065203, -0.0266369581, 0.0412890501, -0.0134040341, 0.1068934277, -0.0350951441, -0.0838972256, -0.0499690585, 0.0132758832, 0.0769491270, 0.0051839165, -0.0521012284, 0.0683531612, -0.0478257686, -0.0168825090, -0.0315642729, 0.0155457063, 0.0137584116, -0.0523850396, 0.1159120649, 0.0496549830, 0.0022377491, 0.0301993378, -0.0372341983, -0.0589757487, 0.0043593007, -0.0485303178, 0.0009538810, -0.0750881061, 0.0366671421, -0.0779411197, -0.0992810875, -0.0204727501, 0.0520094894, -0.0012141223, 0.0720221624, -0.0626786873, 0.0362830125, -0.0185464043, 0.0152280247, -0.0125394771, 0.0145335859, -0.0917624533, -0.0071362415, -0.0221343655, 0.0222841632, -0.0167924780, 0.0002363011, -0.0120168533, 0.0097818878, -0.0708016604, 0.0136016263, -0.0402840413, 0.0868744329, 0.0392230004, 0.0170438047, 0.0793470070, -0.0498937704, -0.0005589966, -0.0153492335, -0.0493952073, 0.0040070233, 0.0342456736, -0.0414882563, -0.1005399749, 0.0231511258, 0.0172884539, -0.1205083579, -0.0072353194, 0.0569854267, 0.0937070549, 0.0428586937, 0.0301323291, -0.0008933077, 0.0587551147, -0.0381270498, -0.0142915882, 0.0108971717, 0.0291644074, 0.0069660763, -0.0212357659, -0.0082990611, -0.0108265346, 0.1012801379, -0.0336506963, -0.0284753982, 0.0019250504, -0.0235363096, 0.0114812981, 0.0058158203, -0.0067317970, -0.0027592352, 0.0064517548, -0.0488798656, -0.0296035353, -0.0255877897, 0.0198907349, -0.0438600779, -0.1302698851, 0.0893565044, -0.0341071822, 0.0163622499, 0.0061955717, 0.0441965610, -0.0111975744, 0.0236298349, 0.0922032446, 0.0617477931, 0.0384905152, 0.0255252942, 0.0552996546, -0.0535506569, 0.0250829868, 0.0600553006, -0.0563352220, -0.0829473957, -0.0336664021, 0.0493603572, 0.0627098680, -0.0451869927, 0.0246199835, 0.0176918153, 0.1254818887, -0.0493191257, -0.0473438576, -0.0496968925, -0.0844668597, -0.0163789783, 0.0173417442, -0.0642619208, -0.0625024661, 0.0076004155, 0.0438583642, -0.0017410357, -0.0473766774, -0.0043797158, 0.0088538993, 0.0218164530, 0.0125525910, 0.0518258177, -0.0091078104, 0.0260923039, 0.0032277596, -0.1020867229, -0.1149181798, 0.0533213951, 0.1034547836, 0.0452904589, 0.0578817800, -0.0568911992, 0.0099611981, -0.0532303043, -0.0673300698, -0.1087768078, -0.0326202363, -0.0221590716, -0.0330292806, -0.0579963662, 0.0822912753, 0.0790161341, -0.0779932439, 0.0549375340, 0.0701363161, -0.0450163670, 0.0018353459, -0.0561251938, 0.1204187199, -0.0716571808, -0.0689947009, 0.0166888107, -0.0327974372, 0.0069485656, -0.1137327403, 0.0262880195, -0.1485528648, 0.0346227810, -0.0313175321, 0.0767873228, -0.0686335340, -0.0537913963, -0.0298589338, -0.0083935047, -0.0616017319, -0.0315710828, 0.0134562319, 0.0338715278, -0.0062443670, 0.0470179878, -0.0032836224, -0.0658050403, 0.0811459571, 0.0646595210, -0.0147598367, -0.0444789976, 0.0200768486, -0.0286762994, 0.0718111545, -0.0502187051, 0.0240043998, 0.0027821541, -0.1575552374, 0.0707697347, -0.0043754429, -0.0270808637, -0.1117814928, -0.0021587452, -0.0031833912, -0.0063646669, 0.0589142069, 0.0131639047, -0.0308673549, 0.0240906011, 0.0030609991, -0.0968489274, -0.0136546185, 0.0468225777, -0.0363656841, 0.0057624313, -0.0491994806, -0.0297003463, 0.0833159909, 0.0169922654, 0.0658702180, -0.0415055864, 0.0113544343, 0.0719415545, 0.0002385913, 0.0418712720, -0.0117322998, -0.0670931190, -0.1168763191, 0.0154788261, 0.0164806489, -0.0692115650, 0.1419517398, -0.0047897724, -0.0038831534, 0.0063484479, -0.1067761481, -0.0574454069, -0.0730261132, -0.0717393607, -0.0186958518, 0.0169097576, -0.0281249769, -0.0088954242, 0.0032226362, 0.0047323108, -0.0530889668, -0.0488254465, 0.0121987043, 0.0288701802, 0.0885371044, -0.0253493004, -0.0043210988, -0.0567220971, 0.0571673214, 0.0052754213, -0.0401452444, 0.0560313091, 0.0694774240, -0.0427681394, 0.0725358501, -0.0158621166, 0.0217364840, -0.0513625555, -0.0712771192, 0.0094953757, -0.0193410609, 0.0033830209, 0.0537764318, -0.0389417000, -0.0049792645, -0.0174948014, 0.0857222900, -0.0643728450, -0.0202029776, 0.0144081544, -0.0259375907, -0.0253295321, 0.0658584833, -0.0882984847, 0.0314802974, 0.0655491278, -0.0305015463, 0.1167302281, -0.0064605926, -0.0668149740, 0.0104996776, 0.0161012094, 0.0271755476, 0.0401560590, 0.0693624020, -0.0041922079, 0.0054111625, -0.0824555010, -0.0381837115, 0.0666042715, -0.0282817353, 0.0419226848, 0.0261365734, 0.0543657616, -0.0600571893, 0.0440900885, 0.0180417877, 0.0394638032, -0.0412895754, -0.0136454767, -0.0747792050, -0.0013509331, 0.0431145914, -0.0560624748, 0.0384327136, 0.1005311832, -0.0279745515, 0.0222862102, 0.0586550273, -0.0648513064, 0.0039864397, 0.0969878882, 0.0502196774, 0.0408078618, 0.0698240101, -0.0510090999, -0.0643997192, 0.0479602404, 0.0669158325, 0.0249322541, 0.0794492662, -0.0654238164, 0.0333878323, 0.0753955543, -0.0615554079, 0.0019472785, 0.0740619078, 0.0216174833, 0.0222393237, -0.0080183819, 0.0536036827, -0.1181988493, -0.0146936206, -0.0258379560, -0.0330807976, 0.0066217938, -0.0318601839, 0.0973889679, 0.0584772676, -0.0474577472, 0.0597460009, 0.1112403646, -0.1135388017, 0.1177656874, 0.0156167177, -0.1353348494, 0.0059134495, 0.0445919335, -0.0203881301, 0.0309320372, 0.0359968692, -0.0733310059, 0.0148182726, -0.0413665138, -0.0765526220, -0.0418299623, -0.0163332131, -0.1106675565, -0.0467439443, -0.1125121489, 0.0414506607, 0.0254172217, 0.0871459171, 0.0194734819, 0.0000441166, 0.0455862917, -0.0112474188, 0.0422387086, 0.1255647242, -0.1386820674, 0.0213434193, -0.0058357986, 0.0358091034, -0.0794380531, -0.0793031156, -0.0542408973, 0.0722471625, -0.1153435335, 0.0863223597, 0.0387584865, -0.1089867130, 0.0854128152, 0.0683846250, -0.0247983877, -0.1289947331, 0.0435590781, -0.0435665958, -0.0268390719, -0.1048943698, 0.0441893935, -0.0074659325, -0.0339367762, 0.1048097908, -0.0460208729, -0.1502990276, 0.0659878924, -0.0177510325, -0.1118955463, -0.0155038219, -0.1024494395, 0.0504198186, -0.0101797087, -0.0472471379, 0.0325144790, 0.0131652243, 0.0631991327, 0.0183710940, -0.0065602837, -0.0610302128, 0.0024079112, -0.0149559416, -0.1179143265, -0.0051303748, 0.0218806323, 0.0752042457, -0.0444299728, 0.0408765972, -0.0979830846, 0.0120853288, -0.1081086174, 0.0562370010, -0.0624624565, -0.0585721433, 0.0131327426, -0.0419123769, -0.0422566310, -0.0387934633, 0.0112360884, -0.0959048346, 0.0575872846, 0.1596631855, 0.0258181263, 0.0228011012, -0.0959250480, 0.0068790852, -0.0317484103, 0.0409074053, 0.0526774190, -0.0621016100, 0.0358947814, 0.0532285720, -0.0704809874, 0.1069928408, 0.0281722844, -0.0739478394, -0.0395217948, -0.0259343926, -0.0499195531, -0.2490748614, -0.0196928624, -0.0776327848, 0.0390744396, 0.0131476130, -0.1120155826, -0.0510452799, 0.0111887045, 0.0786755830, 0.0545847230, -0.1007758379, -0.0399786681, -0.0692904145, 0.0050418731, -0.0277071577, 0.0811154172, -0.0870467722, 0.1003212407, 0.0049998891, -0.0027480461, 0.0090186140, 0.0943114161, -0.0146400854, 0.0945589468, 0.1978113800, -0.0503052175, 0.1205581501, 0.0495105237, 0.1248410046, -0.0003371941, -0.0141666234, 0.0634553134, -0.0545105152, 0.0322099701, 0.0848729610, 0.0975076705, -0.0452012047, -0.0283157844, -0.0493914373, 0.0432947315, 0.0550601482, -0.0348367169, 0.0874593481, 0.0075786291, 0.0049169944, 0.1377367377, 0.0040495284, 0.0798426196, -0.0163526293, 0.0460568219, -0.0058028921, -0.0443514325, 0.0932052508, -0.0624352433, 0.0246221162, -0.1306355447, 0.0021009576, 0.0450930521, 0.0471450426, 0.0801204816, -0.0182243679, 0.0318734869, 0.0490404926, 0.0685434490, 0.0505849235, 0.0301674977, -0.0365755446, -0.1624255627, -0.0307320599, -0.0399515517, -0.0172418635, -0.0121458108, 0.0722295940, 0.0145596219, -0.0370635092, 0.0582072958, -0.0406187847, 0.0505381785, -0.1032154784, 0.0062646531, 0.0197802726, -0.1146835908, -0.0282079335, 0.0318393819, -0.0189570710, 0.0248903390, 0.0299935080, 0.0361612886, -0.0584747195, 0.0060383398, -0.0519674011, 0.0478764959, 0.1153806821, 0.0740674958, -0.0400073156, 0.0151438005, -0.1176407710, -0.0945815891, -0.0121246483, -0.0327679515, 0.0343740992, 0.0031135930, -0.0679267272, 0.0501227155, 0.0442100987, -0.0241208654, 0.0752849281, 0.0999604538, 0.0068276171, 0.0231298916, -0.0372894965, 0.0319957435, 0.0670536831, -0.0956977829, -0.0808139071, -0.0526330769, -0.1090893447, 0.0386901945, -0.0998519734, -0.0449249148, 0.0357076749, -0.0101048304, 0.0212175846, 0.0509063937, 0.0070252856, -0.0122656161, 0.0663196594, 0.0062677544, 0.0316260085, 0.0055484409, 0.0454060510, -0.0187402032, 0.0695014372, 0.0269534737, 0.0048274253, 0.0285144784, 0.0380039215, 0.0387976952, -0.0829719827, -0.0360889360, 0.0336158946, 0.1384781599, 0.0183123816, -0.0931965634, 0.0428337120, -0.1016266122, -0.0244296473, 0.0223573502, 0.1479711831, 0.0718792900, -0.1354433894, -0.0159525331, -0.1228263974, -0.0870699883, 0.0446059033, 0.1743741930, -0.0680336505, 0.0839507431, -0.0037514449, -0.0916772932, 0.0377233885, -0.0376541726, -0.0292621609, 0.1429758072, 0.0322759338, -0.0089595690, -0.0286662560, 0.0928665623, 0.0159807019, 0.0894959271, -0.0837289020, 0.0292149689, 0.1271608174, 0.0299189389, 0.1107365713, -0.0095672747, 0.0157087799, -0.0379903615, -0.0037311411, -0.0327375904, -0.0451365858, 0.0076594697, 0.0817029551, -0.0827273428, 0.0227468312, -0.0022991239, -0.0365769006, -0.0065664575, 0.0217640791, -0.0016265764, -0.1340831965, 0.0232750569, -0.0131991021, 0.0088330097, -0.0103787836, 0.0294364039, 0.0181051977, -0.0047862632, -0.1288525760, -0.1509893537, -0.0881619304, 0.0659442097, 0.0527755879, 0.1813593209, 0.0330273584, 0.0150115965, -0.0990465507, 0.0918261036, 0.0673263893, -0.0025285189, -0.0160531495, 0.0211378597, -0.0278822277, -0.0369376540, -0.0307850242, -0.0755034164, -0.0267294981, -0.1336149573, -0.0618447550, -0.1664716750, 0.0312963203, -0.1129449382, 0.0617495775, 0.0287361834, 0.1173429489, 0.0016741052, 0.0546880700, -0.0316175334, 0.1037206873, 0.1855930239, -0.0838819146, -0.0590921305, -0.0383894145, 0.0785291344, -0.0329883024, -0.0061763092, -0.0410273746, -0.0378976762, 0.0282483026, -0.0803430974, 0.0391780362, 0.0502571762, -0.0054331510, 0.0760341138, 0.0538060442, 0.0037143270, -0.0124552380, 0.0631911755, 0.0364999622, -0.0107903490, -0.0008478758, 0.0249919780, 0.0713914111, -0.0859526843, 0.0192552321, -0.1239905804, 0.0738100410, -0.0254262518, -0.0052108723, -0.0469609275, 0.0224147029, 0.0697988123, -0.0159116164, 0.0693381354, -0.0596980900, -0.1285709143, -0.0734359920, -0.0153546147, -0.1053673699, 0.0501013808, -0.0908167139, 0.0472470410, -0.0850322545, -0.0519707277, 0.0740733892, 0.1065081507, -0.0005409330, 0.0893351436, -0.0384294428, -0.0124336202, -0.0313943513, -0.0351197608, 0.0518049113, 0.0378021039, -0.1015850753, -0.0280909128, 0.0118480716, -0.0538957268, 0.0400263481, 0.0046010865, -0.0311557855, 0.0008588095, 0.0099961963, -0.0402728654, 0.1301596016, 0.0649461597, -0.1077552661, 0.0334831700, 0.0467591174, -0.0879262611, -0.0496762656, -0.0689819083, -0.0007538344, -0.1371217072, -0.0194269959, 0.0303472076, -0.0511996374, 0.0167524740, -0.0427604504, -0.0332857966, 0.0430822223, 0.0406695046, -0.0172412377, -0.0631588995, 0.0096397577, 0.0889730379, -0.0074391984, 0.0289795697, -0.0065001450, 0.0288989246, 0.0485679731, -0.0323686600, 0.0192037243, 0.1385296136, -0.0721038878, 0.0162332039, 0.0600359067, -0.1144264713, -0.0412799679, 0.0307206754, 0.0295883045, 0.0457690693, 0.0171697158, 0.0510769635, -0.0887325108, 0.1101804003, -0.0548948124, -0.0073878616, 0.0779899582, -0.0841218233, 0.0367854349, -0.0952586606, -0.0386339948, -0.0476461984, -0.0245288592, -0.0355234183, -0.0391108654, -0.0954376161, -0.0218381863, -0.0004390758, 0.0592718683, 0.0396871716, 0.0049256179, 0.0310684517, 0.0565538071, 0.0347578898, 0.1053138599, 0.0578751154, 0.0587069280, -0.0525236055, 0.0070441086, -0.0785033703, -0.0537157543, -0.0815562382, 0.0815798938, -0.0996245593, 0.1119385362, 0.0639828742, -0.0714148208, -0.0143428072, -0.0832990706, 0.0686188042, 0.0060537700, 0.0002524469, -0.0380156338, 0.0505233929, -0.1176030487, -0.0898805410, -0.0789059699, 0.0345990546, -0.1180651784, -0.0012442328, -0.0455212444, 0.0402985513, 0.0704808310, 0.0335086547, 0.0279622339, 0.0727457926, -0.0685759559, 0.1076386794, -0.0916649625, 0.0309882928, 0.0010131540, -0.0118787419, -0.0415893011, -0.0199853890, 0.0118880915, 0.0351317674, -0.0888141096, 0.0085608503, -0.0365274884, 0.0942571461, -0.0239862707, 0.0445316546, 0.0771166235, -0.0047901231, 0.0218816493, 0.0397176258, 0.0189305916, 0.0314710066, 0.0353831463, -0.1555832177, 0.0729840696, -0.0848671272, -0.0579170547, -0.0624961630, -0.0240599420, 0.0098275095, 0.0222179275, 0.0852368549, 0.0657553226, -0.1062035933, 0.0815276206, 0.0256602336, 0.0373796448, 0.0396822095, -0.0286868475, -0.0108336275, 0.0462675467, -0.0281692259, -0.0018685977, -0.0246342681, 0.1448981613, 0.0384990275, 0.0201812722, -0.0687741488, 0.0319155753, -0.0092767356, 0.0569393300, -0.0531852134, 0.0324268043, 0.0240834523, 0.0065049483, -0.0076385564, -0.0176549479, -0.1035724133, 0.0426715948, -0.0955194384, -0.0055625495, -0.0120107187, 0.0152174886, -0.0280647781, -0.0046729720, -0.0690127835, -0.0009562863, -0.0032328104, 0.0072269710, 0.0141478581, 0.1046283022, -0.0034682376, 0.0452895015, 0.0227156393, -0.0005525177, -0.0341716334, 0.0272336360, -0.0297818370, -0.0374139361, 0.0765058994, -0.0238066278, -0.0460930690, -0.0050912448, 0.0682214871, -0.0053568450, 0.0021816480, -0.0814316869, -0.0080544902, -0.0115827834, 0.0870606154, 0.0095321294, 0.0222630929, -0.0673531666, -0.0228613503, -0.0681333169, 0.0597595945, 0.0638343096, -0.0095468443, 0.0263631716, -0.0599210970, 0.0254509337, 0.0017347612, -0.0288848430, 0.0384587459, -0.0529708266, 0.0323268473, 0.0141539313, -0.0034426209, -0.0069381315, 0.0520011559, -0.0130834561, -0.0868376717, -0.0298632886, 0.0228524301, 0.0641002804, -0.0649480745, -0.0261187404, 0.0093628038, -0.0342779905, -0.0254906472, 0.0926583856, 0.0264076516, -0.1019295752, -0.0495678037, -0.0584488586, 0.0773450062, -0.1150389835, -0.0315202065, -0.0278457236, 0.0496921204, 0.0708447024, -0.0837005526, 0.1020470783, -0.0927974060, 0.0874306411, 0.0057408852, 0.0601854362, -0.0240999591, -0.0549764968, 0.0087263230, 0.0479932167, 0.0955233201, -0.0061397366, -0.0062671737, 0.0304310638, 0.0083773630, 0.0180247109, 0.0032884511, -0.0251194257, -0.0590251647, 0.0767514855, -0.0601423383, -0.0184051692, 0.0155666405, 0.0890915543, 0.0888409764, 0.0009002033, 0.0468288660, 0.0096384948, -0.0358246453, -0.0682116002, 0.0742842406, 0.0430569388, -0.0329271667, -0.0621029511, 0.0908451229, -0.0535574742, 0.0093973540, -0.0229198430, -0.0570201240, 0.0594300218, -0.1255400032, 0.0367334373, 0.0314956084, 0.1158812866, 0.0688782334, -0.1006091386, 0.0559660122, -0.0237523280, 0.0269672293, -0.0643851161, -0.0441738814, -0.0930108652, 0.0773016959, 0.0854625478, 0.0066027008, 0.0270055998, 0.0093398308, -0.0258030910, -0.0022954179, 0.0418590195, -0.0704454482, -0.0220452119, 0.0712674931, -0.0261045843, 0.0842819363, 0.0295052454, 0.0790178552, -0.0150203379, 0.0321486853, -0.0402165689, 0.0868440866, -0.0996952355, -0.0147705702, 0.0009879777, -0.1207992658, -0.0953324586, 0.0076790028, -0.1250636131, 0.0601760447, -0.0241276380, 0.0156329889, -0.0038804356, -0.0569076315, -0.0228632484, -0.0476491340, 0.0293208938, 0.0421714894, -0.0095060067, -0.0349871628, -0.0254984442, -0.0374371074, -0.0189864431, 0.0494806133, -0.0475160331, 0.0305183288, 0.0872758180, -0.0241448265, 0.0078208288, 0.0369465128, -0.0030621351, -0.0383022688, 0.0753979757, -0.0242921840, 0.0221606977, 0.0477215163, -0.0992650017, 0.0026801666, -0.0682598278, -0.0307425298, 0.0618408993, 0.1012706533, 0.0124047240, -0.1197351292, 0.0195311494, -0.0030922857, -0.0889319181, 0.0496436246, -0.0008075563, 0.0153711308, -0.0379097201, -0.0001076538, 0.0318012461, -0.0297326148, 0.0106357355, 0.1126429588, 0.0539067537, -0.0140787018, 0.0188778229, 0.0025132867, -0.0027546473, 0.0424860753, -0.0346684158, -0.0010944187, -0.0178615618, -0.0256538391, 0.1108128950, -0.0326692089, -0.1071173996, 0.0209314432, -0.0282187369, 0.0034235704, 0.0054844441, 0.0394899920, 0.0007837890, -0.0482980423, -0.0129769798, -0.0666829720, 0.0214476585, -0.0475656874, 0.0139122894, -0.0462062024, -0.0573328175, 0.0037697277, -0.0316990651, -0.0457817055, -0.0413975008, 0.0234363731, -0.0392142422, -0.0199529566, -0.0673989728, -0.0791158751, 0.0041157291, 0.0348951183, -0.1034043878, 0.0459212810, -0.0735309795, 0.0993663073, -0.0219929200, -0.0054338276, -0.0085707679, -0.0122668939, -0.0337496065, -0.0121694151, -0.1245247275, 0.0212060381, -0.0190077312, -0.1748556197, -0.0514165014, 0.0010511948, -0.0267530363, 0.0249968935, -0.0185757168, 0.0015759653, -0.1298615038, -0.0135333808, 0.0091388244, -0.0819519162, 0.0727337748, -0.0900230780, 0.0316960327, 0.0238729957, 0.1094800308, -0.0024492957, 0.0373739041, 0.0969456658, 0.0253807902, -0.0293880608, 0.0487758256, -0.0733948797, 0.0546588898, 0.1448515207, -0.0333271883, -0.0542036332, 0.0030806190, -0.0447295308, 0.0108494749, 0.1376815438, 0.0189648531, -0.1388025433, 0.1071539596, -0.0734883994, -0.0278366450, -0.0477196351, -0.0500596426, -0.1166073531, -0.0118811233, -0.0371974446, -0.0673404038, 0.0608176850, -0.0156206237, -0.0076289792, 0.0646249726, -0.0053170584, 0.0399640724, 0.0855018198, 0.0673204586, 0.0150901349, -0.0732974038, 0.0022255548, 0.0665639341, -0.0526746698, 0.0813977569, 0.0190431625, -0.0608031154, -0.0194271524, -0.0803631246, -0.0193206258, -0.0568462610, 0.0403281562, 0.0527414270, 0.0911779255, 0.1195166782, 0.0733482987, -0.0650983453, 0.0868822634, -0.0248373523, -0.0540690757, -0.0122834370, -0.0270177200, -0.0372360870, -0.0536710508, 0.0033169242, -0.0266662221, -0.0677842125, -0.0021844599, -0.0885331035, 0.0539292358, 0.0774192289, 0.0290138908, 0.0464628376, 0.0133450683, 0.0596041419, -0.0295691211, 0.1075329930, 0.0542832687, -0.0423573367, 0.0021412170, 0.1778304428, 0.0641763136, 0.0729090944, -0.0892024413, -0.0191819221, -0.0019068697, -0.0516324043, 0.0422640033, 0.0508893430, -0.0011223892, -0.0899662003, -0.0348589569, -0.0575941876, 0.0799025744, -0.0609438717, 0.1094035506, 0.2030678988, 0.0027675598, -0.0095087625, -0.0782631636, -0.0298244972, 0.1253642142, 0.0135541949, -0.0716180354, -0.0072981580, -0.0577601828, -0.0613784306, -0.0173394792, -0.0285665225, -0.0831730217, 0.0874519423, 0.0782375708, 0.0170506649, 0.0101854876, -0.0548720136, -0.0584608056, 0.0644687936, -0.0011602243, 0.1066622064, -0.0567419305, 0.0513775721, 0.0149520943, 0.1246308535, 0.1069021598, -0.0031476687, -0.0219382718, -0.0362565964, 0.0433827192, -0.0051596351, 0.0585424751, -0.0216900818, -0.0401572026, -0.0061588506, 0.0601197742, 0.0139575638, -0.0362317301, -0.0667716488, 0.0112582846, -0.1268843263, -0.0765436143, -0.0540068522, -0.0119816605, 0.0079923449, 0.1123669297, 0.0269477293, -0.0299710725, 0.1153298318, -0.1005395949, 0.0228427909, -0.0569508448, -0.0429928117, 0.0105466861, 0.0173651073, -0.0834227204, 0.0309154782, -0.0967481956, -0.0037091235, -0.0249652341, -0.0167428050, -0.0353252180, 0.1135318652, -0.0839286149, -0.0933881849, 0.0115771508, -0.0535650998, 0.0597208552, 0.1662771553, 0.0211592391, -0.1034920663, 0.0150867486, 0.0679509491, -0.0505536385, -0.0441070646, 0.0664632246, -0.0299660135, -0.0867243633, -0.1272920966, -0.0363588594, -0.1459794343, 0.0568308830, -0.0272064917, -0.0261582807, 0.0277895741, -0.0746751726, 0.0538438112, 0.0504258983, -0.0998850837, 0.0202920288, -0.0206442475, -0.0047795172, -0.0212422088, 0.0383856855, 0.0628134534, 0.0500710979, -0.0425477996, -0.0211820696, -0.0057284390, 0.0194240436, -0.0716852918, -0.0028833176, 0.0610275120, -0.1018711925, -0.0742081553, 0.0149522759, -0.0274383221, 0.0257282685, 0.0866556689, 0.0684887767, -0.0258516464, 0.0582837835, 0.0298518408, -0.0671045408, -0.0273730997, 0.0034569025, -0.0151683614, -0.0064682942, 0.0441515185, 0.0127246892, -0.0188049953, 0.0158742089, 0.0465880968, -0.0124681946, -0.0366440229, 0.0182171278, -0.0493497401, 0.0165692568, 0.0471876562, 0.1709440351, -0.0578603148, 0.0102204960, 0.0216350388, -0.0246093683, 0.0300639514, 0.0344811603, -0.0246367790, 0.0719254017, -0.0191379078, -0.0237340759, 0.0494766235, -0.0813443512, -0.0636234805, -0.0103404401, -0.0699759275, -0.0545705780, -0.0660354272, 0.0106821340, 0.1045027375, -0.0362167247, 0.0296533406, 0.1184575036, -0.0379509255, 0.0653291792, 0.0244003385, -0.0688565895, -0.0081791263, 0.0700016320, -0.0272799470, -0.0367707536, 0.0975665003, -0.0026436234, -0.0435243063, -0.0434800871, 0.0045028557, -0.0334234796, -0.0507738739, -0.0075532314, -0.0568901412, 0.0521176755, 0.0478863604, 0.0056685093, 0.1127522066, -0.0063662459, 0.0659666583, 0.0166169200, 0.0171176456, 0.0730007887, 0.0645113736, -0.0316636786, 0.0159841999, 0.0067233229, -0.0588823333, -0.1069701537, 0.0165290218, 0.0007775995, 0.0666493028, -0.0359540284, -0.0078448355, -0.1119351834, 0.0437068008, 0.1375496835, 0.0904337168, 0.0622007810, -0.0758511946, 0.0553166457, 0.1043779999, 0.0392475203, -0.0436421260, 0.0324154384, 0.0965429172, -0.0781723037, -0.0107137663, 0.0459623672, -0.0209038313, -0.0623621605, -0.0063343137, 0.1187196821, -0.0173330922, 0.0594060794, -0.0385478623, 0.0379277430, 0.0605445765, -0.0209188871, 0.0148312422, 0.0568488687, 0.0149463853, 0.0268645138, 0.0144131258, 0.0520127155, -0.0722109675, 0.1642311662, -0.0769855455, -0.0981497914, -0.0640147030, 0.0588890836, -0.0723853186, 0.0919243842, -0.0945535526, -0.0519928411, -0.0262824912, 0.0566467866, 0.0155046936, 0.0322152004, -0.0751204640, 0.0236820113, 0.0113570252, -0.0222770218, 0.1401998252, 0.1609116495, 0.0892349854, 0.0548702627, -0.0357115194, -0.0811518729, -0.0418329015, -0.0777639225, 0.0436264388, 0.1214643717, 0.0043485556, -0.0100844335, -0.0233761482, 0.0134859961, -0.0169430971, 0.0138706760, -0.0225680880, -0.1777780950, -0.1293237805, -0.0404352807, -0.0393958874, 0.0051055467, 0.0060912855, -0.0043648169, -0.0975148007, 0.0621301495, -0.0221535154, 0.1044479087, -0.1304769367, -0.0269829202, 0.0398100130, 0.0376962051, -0.0220811050, -0.0989470035, -0.0187122803, 0.0582869761, -0.0032298116, 0.0310421996, -0.0361375213, 0.0353854895, 0.0621635988, -0.0285564288, -0.0396200530, 0.0811259001, 0.0058857594, 0.0000300284, 0.1586630046, 0.1311966330, 0.0513071753, -0.0202542599, -0.0644955486, 0.0784808472, 0.0226741564, 0.0099206585, 0.0079906909, -0.0114121735, 0.0396804921, 0.0429454781, -0.0066121002, 0.0288708527, -0.0423277281, -0.0061705229, 0.0247149747, 0.0557580888, -0.0247167852, 0.0031538571, -0.1131249368, -0.0458793417, 0.0496561788, 0.0687369928, 0.0813458189, 0.0164109357, -0.0617109686, -0.0518611558, 0.0400619805, -0.1464368105, 0.0793196782, 0.0263948161, 0.0424524844, 0.0701325759, 0.0981938764, -0.0069424794, 0.0114750518, -0.0691851079, 0.0721210688, 0.0608708002, 0.0174728278, -0.0615794547, 0.0073817149, 0.0794615820, 0.0407971218, 0.1200145707, -0.0660661682, -0.0336992666, 0.1411789656, -0.0540814139, 0.0974488482, -0.0545965359, -0.0479734987, 0.0579761155, 0.0135212857, -0.0424262397, -0.0920739323, 0.0017392534, -0.0453068130, 0.0370258875, -0.0440099798, -0.1087544784, 0.0927064121, 0.0709837526, -0.1356823295, 0.0632845387, -0.0312663689, -0.1247582212, 0.0491213687, -0.0382415876, 0.0276221428, 0.0011474208, 0.0581038631, -0.0052360310, -0.0094432961, -0.0267962590, -0.0246598851, 0.0106642842, -0.0028690859, -0.0002737408, -0.0080565112, -0.0025136424, 0.0042584026, 0.0178533029, 0.0449129157, -0.1032857895, 0.0436216109, -0.0975139663, 0.0375410691, 0.0069258977, 0.1228334904, -0.0255098604, 0.1015623361, -0.0598198473, -0.0894745737, -0.0073329625, 0.0174502283, -0.1024128497, 0.0001350989, -0.0487421043, -0.0137356706, -0.0400814861, -0.0043565356, 0.0536368862, 0.0031943917, 0.0699937642, -0.0011509508, 0.0845742449, -0.0293333121, 0.0149616813, -0.0000665683, 0.0362827294, 0.0074981679, -0.0564897880, 0.0782154128, -0.1066867113, -0.0200388208, -0.0166920424, -0.0326899961, 0.0947904959, -0.0442417823, -0.0727246255, -0.0667970702, 0.1337801963, 0.0053048353, 0.0876432881, -0.0145999398, 0.0148623018, 0.0492342860, -0.0282948874, 0.0091084354, 0.0834558532, 0.0514198542, -0.0173935723, 0.0447561592, -0.0311175101, -0.0915739313, -0.1135918051, 0.0373396054, 0.0268822983, -0.1001484394, 0.0678898543, 0.0705912933, -0.0922483280, 0.0116437953, -0.0882035717, -0.0492134243, 0.0178635065, 0.0027590413, -0.0169994943, 0.0027830773, -0.1297283322, 0.0969375446, -0.0344337672, 0.0473763719, 0.0241494756, -0.0523135625, -0.0059317695, 0.0283462666, 0.1167463064, 0.0462181233, -0.1354836673, 0.1319729537, -0.0364441201, 0.1097157747, -0.0505719632, 0.0002783399, -0.0765752271, 0.0472423881, -0.0679392591, -0.0555514246, 0.0160111822, -0.0563198589, 0.0270810276, 0.0098874746, 0.0930335522, 0.0564463474, -0.0906966105, 0.0575064756, -0.0404635929, 0.0339912958, -0.1589638293, -0.0720825344, 0.0074164951, -0.0191311836, -0.0301104803, -0.1017218828, 0.0069002891, -0.0401333943, 0.1338557154, 0.0218242183, 0.0964215398, -0.0703064725, 0.0209397860, -0.0566456839, 0.0659777969, 0.0344127864, -0.0407350212, 0.0498737320, -0.0305946711, -0.0631006509, -0.0211451985, -0.0156893395, 0.0231774636, 0.0399511606, -0.1115952805, 0.0885376111, 0.0043727830, -0.0630164370, 0.0297609344, 0.0779598355, -0.0352402255, -0.0495533235, 0.0000753324, 0.0928250253, 0.0034238060, 0.0467782281, 0.0530784875, 0.0715679228, -0.0686535314, -0.0197424013, 0.0583927408, -0.0154761914, 0.0928895250, 0.1240013912, 0.0399581268, 0.0088391742, 0.0084775044, 0.0007197236, -0.0820198357, -0.0057395143, -0.0262678955, -0.0809174702, -0.0048193326, 0.0486004837, -0.0433303379, -0.0406735875, 0.0040366976, 0.1071010679, 0.0082705859, -0.0943727046, 0.0195665006, 0.0090984693, 0.0116019687, 0.0425139070, 0.0681112781, -0.0994213074, -0.0445666686, 0.0348292328, 0.0298216157, 0.0569094345, 0.0127414986, -0.0059255473, 0.0596984290, 0.0593460128, -0.1054904610, 0.0672524944, 0.0643459857, -0.0835447237, -0.0356891155, -0.0543281212, -0.0461072065, 0.0319661349, 0.0581418127, 0.0866960436, -0.0267320871, 0.0104229031, 0.0233733859, -0.0311021544, -0.0253250282, 0.0008788884, -0.0949873924, -0.0214833636, 0.0311937165, -0.0831390917, 0.1100372002, 0.0147260791, -0.0669403076, -0.0191843584, 0.0050029857, -0.0074712210, -0.0480612293, 0.0086021321, -0.0197443869, -0.0828871503, -0.0491645411, 0.0871623904, 0.0361153185, -0.0175103601, -0.0718023330, -0.0045149392, -0.1112305000, -0.0808665156, 0.1748105139, 0.0515408404, 0.0691074654, -0.0664603859, 0.0229465067, 0.0605245717, -0.0138595095, 0.0232849307, -0.0301762186, 0.0703633428, 0.0405886509, 0.0458254963, -0.0008967019, -0.0363189913, -0.0064827339, 0.0516345464, 0.0147475330, 0.0304284617, 0.0404773690, -0.0586051308, -0.0505447946, -0.0278032329, -0.0796686709, 0.0261788275, -0.0236559734, 0.0620131865, 0.0228166021, -0.0807370394, -0.0154131362, -0.0088280207, 0.0522963330, -0.0193862338, 0.0881681964, -0.0461352430, -0.0169968493, 0.0084708398, -0.0395678952, 0.0290069580, -0.0108247735, -0.0501906574, -0.0542832427, -0.0223938879, -0.0433971360, -0.2220053673, 0.0142070726, -0.0229270905, -0.0536132753, -0.1767826229, -0.0457744189, 0.0532626957, 0.0728064850, 0.0125443870, -0.0321231298, 0.0249870215, -0.0193356778, -0.0111537632, 0.0049455962, 0.0977345854, -0.0374983884, -0.0531918779, 0.1002241373, 0.0984003022, 0.0608192608, 0.0411074124, -0.0396638364, 0.1007332802, 0.1577644199, 0.0513783135, -0.0204573255, 0.0182293151, -0.0094096120, -0.0586231612, 0.0590888746, 0.0436355285, 0.0367124304, 0.0485903807, 0.0050519933, -0.1911983341, -0.1062397063, 0.0302972682, 0.0577339903, -0.0799675435, 0.0854862034, 0.0327046961, 0.0247095115, 0.0639059842, 0.0849381760, -0.0400478318, -0.0043284339, 0.0496986844, -0.0581539385, 0.0021969667, -0.0350733250, 0.0105367247, 0.0000028861, 0.0811924338, -0.0545839258, 0.0787055716, 0.0865548775, -0.0493009239, -0.0269202869, 0.0512955673, 0.0394463763, -0.0081859138, -0.1697023064, -0.1574967504, -0.1136564836, 0.0649428964, -0.0318605788, 0.0998292565, -0.0488443896, -0.0000069535, -0.0507865921, 0.0990532488, 0.0835768953, -0.0204401668, -0.0054199272, -0.0266361944, 0.0124167725, 0.0518298373, 0.0556369871, 0.0199968591, -0.0433782563, -0.1142281294, -0.1188271120, 0.0183943342, 0.0425240695, 0.0492279157, 0.0164120495, 0.0151013732, -0.0625124574, 0.0025939660, -0.0806220621, 0.0809050351, 0.0093836375, 0.1313538998, 0.0806758776, 0.1214177236, 0.0239230338, -0.0975548625, 0.0077766045, -0.0301818028, 0.0483177863, 0.0360243469, -0.0099003213, -0.1328862906, -0.0058148941, -0.0259520058, 0.0351377316, -0.0584729537, -0.0649247840, -0.0285218898, 0.0034663307, -0.0493933894, -0.0078521241, 0.0277519897, 0.1019583866, -0.0193877351, 0.0573733784, 0.1129974499, -0.0242989212, 0.0077166152, -0.0598958880, 0.0106440987, 0.0163952112, -0.0670563579, -0.0419529341, 0.0893588364, -0.0515718199, 0.0632695928, 0.0428717956, -0.0211731009, 0.0150634283, -0.1255674511, 0.0638526604, 0.0445361957, -0.0915098861, 0.0212462749, -0.0990735888, -0.0277007055, 0.0014864604, 0.0120995613, 0.0371087193, 0.0817344785, 0.0148232821, 0.0092332019, 0.0813197196, 0.0053188014, 0.0296887606, 0.0112974094, -0.0207721256, 0.0587419830, 0.1202371418, 0.0049959249, 0.0127682164, 0.0401973836, -0.0450176150, 0.1174216941, -0.0403302051, -0.0793402195, 0.0389952697, -0.0571019650, 0.0426513180, -0.1190398857, 0.0028682761, 0.1114557162, -0.1099166274, -0.0132225072, -0.0444651246, -0.0115242284, -0.0427246429, -0.0288043059, 0.0504798256, -0.0226664487, -0.0123013221, -0.0043220948, -0.1035765857, -0.0641933307, 0.0657116696, -0.0090891244, 0.0159721300, 0.0492440574, -0.0228105988, -0.0824189708, -0.0374174230, 0.1021677703, -0.0367136151, -0.0447026789, 0.0067722579, -0.0661478788, 0.0662564114, -0.0086552240, -0.0200961251, -0.0724380165, 0.0102664949, 0.0992980525, 0.0439772196, 0.0198720489, -0.0577430204, 0.0123191522, 0.0158632640, 0.0109878117, -0.0962681770, -0.0402913019, -0.0398615263, -0.0733311698, -0.0166322216, -0.0820412263, 0.0104429666, 0.0239161756, 0.0426094234, 0.0161969662, -0.0364512056, 0.0674514174, 0.0607206747, 0.1547734588, 0.0101546273, -0.1128565073, 0.1112148911, -0.0732201040, -0.0022156844, -0.1055561528, 0.1460466832, -0.0024963499, 0.0676490888, -0.0019277019, 0.0180243831, 0.0248242822, -0.0176757928, -0.0656964928, 0.0458578877, -0.0862746462, -0.0654280931, -0.0181284826, 0.0236491244, -0.0062505514, -0.1008080170, 0.0403533354, 0.0147680594, 0.0151397297, 0.0354884863, 0.0546517372, 0.0469459444, 0.0329181589, -0.0700922385, -0.0386425294, -0.0079374639, -0.0590625443, -0.0303556584, 0.0688716620, 0.1091494262, -0.0116400374, 0.0664549172, -0.0411593691, 0.0327055305, 0.0395114608, 0.0628998801, -0.0136725921, -0.0066155801, 0.0255242214, 0.0736506060, -0.0713419542, 0.2006228566, 0.0214091614, 0.0640008301, -0.1544952095, -0.0426953100, 0.0273065306, 0.0499988794, -0.0628427118, 0.1420036554, -0.0342098325, -0.0444951616, 0.0375134535, -0.0572011210, 0.0810178593, -0.0185361784, -0.0131365210, -0.0391365439, -0.0151176360, -0.0161171164, 0.0588153116, -0.0328645334, -0.0905228630, -0.0065378011, -0.0945875868, 0.0583549030, -0.0542706549, 0.0525387377, 0.0001218213, -0.0466567688, 0.0876162648, 0.0057203788, -0.0068875197, 0.0616371855, 0.0384985097, 0.0122991307, -0.1207199097, -0.0002078191, -0.0514433756, -0.0090512121, 0.0018793163, -0.0259049609, 0.0212435704, -0.1409229040, -0.0269095190, -0.0525415055, 0.0202809349, -0.0170277003, -0.0240208991, -0.0677015632, -0.0048366520, -0.0043901205, 0.0034608815, -0.0202454459, -0.0126638077, -0.0342823081, -0.0628316030, 0.0601041429, 0.0121184662, 0.0130533678, 0.0238051284, -0.0408565328, -0.0689003095, 0.1277158558, -0.0683705434, 0.0266358461, -0.0510082021, -0.0294291079, 0.0032537740, -0.0074347924, -0.0074726045, -0.0078835683, 0.0397362523, -0.0105586369, -0.1221152395, 0.0497782826, -0.0170184541, -0.1139087379, 0.0004978721, 0.0340639576, 0.1070114225, -0.1471107304, 0.0140809035, -0.1288184971, -0.0354212411, 0.1293335557, -0.0101244571, -0.0134844603, 0.0861624852, -0.0677220225, 0.1040177196, 0.1285541952, 0.0257529169, -0.0784803107, 0.0263211410, 0.0009816834, 0.0739511997, -0.0432357192, 0.0082075708, -0.0471989252, 0.0291849151, -0.0480735451, 0.0213059112, 0.0358227715, 0.0191446692, -0.0762648135, 0.0287369955, 0.0838891566, -0.0594932921, 0.0166372135, -0.0153476698, -0.1152002737, -0.0286120959, 0.0719302595, 0.0536904894, -0.0204538349, -0.0352685452, 0.0054238364, -0.0362157039, -0.0400804617, 0.0090929754, 0.1396563649, 0.0632065088, 0.0901982337, 0.0358668901, 0.0260036606, 0.0775445998, 0.0781508833, 0.0781829432, 0.0695765615, 0.0368389077, -0.0218455885, 0.0983938575, -0.0301548988, 0.0393218137, 0.0474476516, -0.0685144067, -0.0639923513, 0.0161960479, -0.0329691656, -0.0569868609, -0.0121087097, 0.0081492364, -0.0229465961, -0.0410092287, 0.0779014230, 0.0903577730, -0.0545496941, 0.0937469825, 0.0833878592, -0.0004214975, -0.0745493397, -0.0715333894, -0.0169197284, -0.0480886847, -0.0418821461, -0.0428314433, 0.0022420089, -0.0251391158, -0.0103824986, -0.0056831818, 0.0419745408, 0.0148736192, 0.0208223537, -0.0210430175, -0.1042813584, 0.0085967751, 0.0265336856, 0.0055551776, -0.0824842900, -0.0584653579, -0.1216185391, -0.0212286189, 0.0107294181, 0.0170798879, -0.1589623541, -0.0922590718, -0.1286222041, -0.0292041134, -0.0027795839, -0.0289003216, 0.0225334018, 0.0344222747, 0.0795417652, 0.0592296310, -0.0013385991, 0.0633028746, -0.0064760405, 0.0441375077, 0.0989052355, -0.0030401035, 0.0261338204, -0.0123228934, -0.0311979037, -0.0230948180, -0.0932083651, 0.0203325506, -0.0493339784, 0.0015835771, -0.0079802349, 0.0048230677, 0.0754338130, -0.0779525787, 0.0875319615, -0.0639527217, 0.0587310381, -0.0506553277, 0.0295061693, 0.0078074788, 0.0549851991, -0.0755413324, 0.0362330005, -0.0322452113, -0.0824392587, 0.0746364743, -0.0507723577, -0.0177586544, 0.0701787025, 0.0330344364, -0.0593208075, -0.0894972980, -0.0406699888, -0.0012949182, -0.0471150652, 0.0304988641, -0.0018752192, 0.0273296684, -0.0182918292, -0.0093778726, -0.0604367182, 0.0386194214, 0.0806298107, 0.0186355747, 0.0105305882, 0.0157193504, 0.0224571321, -0.0270369481, -0.0138198491, 0.0383140519, -0.0632367283, -0.0612956882, -0.0743725747, -0.0254193433, 0.0694884658, -0.0006089766, -0.0508999676, -0.0322928317, 0.0013493410, 0.0115474835, -0.0215150751, 0.0974010676, 0.0298821013, 0.0098297931, -0.0225637034, -0.0375418589, 0.0622597747, -0.0138683580, -0.0822198391, -0.0514057279, 0.0517915078, -0.0454512127, -0.0069875079, 0.0373192281, 0.0127294436, -0.0011963513, -0.0524977334, -0.0159969106, -0.0188647565, -0.0279985778, -0.1832011640, 0.0215258282, 0.0266698766, 0.0853860676, 0.0405016355, -0.0631835908, -0.0337195024, 0.0103090815, -0.0550036393, 0.0573519543, 0.0497234687, -0.0370414220, -0.0197894052, -0.0409445204, 0.0546062291, 0.0363171063, -0.0336569473, 0.0049433336, 0.0981263742, 0.0111002456, -0.0175895635, 0.1106561869, 0.0436236672, 0.0081393793, 0.0778207108, -0.0133921793, 0.0042989082, 0.0506880954, 0.0691594779, 0.1223604828, 0.0051262318, 0.0523792319, -0.0088092694, -0.0329148695, 0.0402628705, -0.0493481234, 0.0375309885, -0.0201347563, 0.0231143422, -0.0759196281, -0.0318038203, -0.0397825614, -0.1244482547, 0.0287875254, -0.0105467895, 0.0863683596, 0.1165982708, 0.0405445695, -0.0541563630, -0.0519882664, -0.0239642188, -0.0285270475, 0.0077736955, 0.0351716392, 0.0142601999, 0.0156983007, -0.0062289885, -0.0085688829, -0.0673609376, -0.0423641279, -0.0784232244, 0.0488492697, 0.0575596057, -0.0495943055, 0.0275895726, 0.0963262245, 0.0421882868, 0.0278637465, 0.0220610164, -0.0278431308, -0.1026579663, 0.0358679295, 0.0484862961, -0.0231730007, -0.0630684495, 0.0957059637, 0.0113071799, 0.0009872146, 0.0251012053, -0.1772019565, 0.0306458455, 0.0323592201, 0.0953386649, -0.0162503794, -0.0322312154, 0.0921173319, 0.0316188298, 0.0068696537, 0.1046948954, -0.0130338864, -0.0707382932, 0.0108162463, 0.0008688557, -0.0475987941, -0.0665601939, 0.0059042703, -0.0708472803, -0.0414671935, -0.0077508134, -0.0843444243, -0.0165599417, -0.0323219709, -0.0325277187, -0.0674499571, -0.1670763195, -0.0587925911, -0.0311369020, 0.0766213834, 0.0214898903, -0.0380715840, 0.0357734337, -0.0463242158, -0.1730474085, 0.1054423079, 0.0267557949, -0.0856804848, -0.0634680167, 0.1348578483, 0.0473996773, 0.0064641419, -0.0321420208, -0.1262795478, -0.0273116902, 0.0265983734, 0.0445982777, -0.0363296159, -0.0143505121, 0.0898740962, -0.0370395295, -0.0050410866, 0.0602922365, -0.0240588840, 0.0094022285, -0.0315831564, -0.0358997732, 0.0180298481, -0.0256545264, 0.0190249905, 0.0159074049, 0.0385797620, 0.0928960666, -0.0483271740, 0.0319335423, 0.0098826829, -0.0565077327, 0.0339416675, 0.0087177586, -0.0541778728, -0.0405100770, -0.0670504421, 0.1017675549, 0.0501379147, -0.0714659318, 0.0237373579, -0.0212473553, -0.0637495071, -0.0216259398, 0.1366194785, 0.0704856664, -0.0370127521, -0.0254183374, -0.0165936239, -0.0062857545, -0.0722978041, -0.0014073659, -0.0202810187, 0.0261639860, -0.0220521167, -0.0592423677, 0.0594857521, -0.1475621611, -0.0084493747, -0.0070101270, 0.0081357304, 0.0327782147, 0.0141671468, -0.0054679164, -0.0182027817, 0.0220185202, -0.0181122534, -0.0478873886, -0.0074485769, 0.0596577115, -0.0157730784, 0.0391693227, -0.0075986204, -0.0633427948, 0.0472320169, 0.0293524489, 0.0338872410, -0.0350037664, -0.0672146007, -0.0033764774, -0.0226520151, -0.0358964615, 0.0267271195, -0.0596535280, -0.0155990645, -0.0061122230, -0.0299329050, -0.0326621905, -0.0011881578, 0.0533216409, 0.0413489193, 0.0917428434, 0.0161016341, -0.0655860528, 0.0573801994, 0.0474624075, 0.0004484166, 0.0273147840, 0.0016262741, -0.0289935451, -0.0678204894, -0.0129617602, 0.0496366434, -0.1226583123, 0.0103514632, 0.0901541635, 0.1277724504, -0.0101688066, -0.0178245511, 0.0210667904, -0.0072641247, -0.0180754643, -0.0113096042, 0.1041105315, 0.0813726187, 0.0972237289, 0.0640557930, 0.1399050951, 0.0170251839, -0.0005529508, -0.0275125094, 0.0091456631, -0.0371971391, 0.0092388997, -0.0405596457, -0.0834773034, -0.0589700378, -0.0506316163, -0.0173618533, -0.0799142942, -0.0128796306, -0.0476704277, -0.0591296069, 0.0610230267, 0.0015021764, -0.0309441052, -0.0140163638, -0.0629500225, 0.0380396508, -0.0367530771, 0.0032542525, 0.0446483754, 0.0472091585, 0.1097984836, 0.0109072123, -0.0515158847, 0.1152875572, -0.0674136132, 0.0552539639, -0.0827735141, 0.0220161267, -0.0886002406, 0.0909926742, -0.0247632880, 0.0265529491, -0.0014901524, 0.0204730183, 0.0205067918, 0.0532895923, 0.0740947723, -0.0823459178, -0.0342947245, -0.0360742137, 0.0247474071, 0.0294917561, 0.0188944917, -0.0736468360, -0.0042530731, 0.0030096630, 0.0300137028, 0.0363421030, 0.0827486217, -0.0655410960, 0.0266507436, -0.0028954663, 0.0063764667, -0.0236386135, -0.0182698742, -0.0855336413, 0.0316507146, 0.0389935188, 0.0251288917, 0.0787014514, -0.0398708470, -0.0436640568, 0.0500768311, 0.0277198181, -0.0418617725, 0.0194955822, 0.0830431432, 0.0765028670, 0.0077601168, -0.1328972131, 0.0869290307, -0.0764304698, 0.0089058932, 0.1217503101, 0.1210609078, 0.0243506804, -0.0085892435, -0.0470645875, 0.0343628861, -0.0277437549, 0.0063849110, -0.1135112792, -0.0094054416, 0.0632332191, 0.0443099365, -0.0107489368, -0.0034091377, 0.0046457015, -0.0297172349, -0.0483970456, -0.0083416458, 0.0226204544, 0.1037874967, 0.0137771238, -0.0022168441, -0.0978044942, 0.1452675164, 0.0204223115, -0.0222287346, -0.0270677935, 0.0042749336, -0.0303168129, 0.0084817437, 0.0576528460, 0.0356969386, 0.0970357060, -0.0617668554, 0.0380505808, -0.0726467893, -0.0250878204, 0.0166109838, 0.0571977347, -0.0571307391, 0.0323558711, 0.0354120471, -0.0716664940, 0.0060479506, -0.0472850837, 0.0439917557, 0.0391571596, 0.0462719500, 0.0684330016, 0.0398559980, -0.0381017886, 0.0181969330, 0.0937381685, -0.0601168871, 0.0352453329, 0.0008934129, -0.0607115068, -0.0462420210, 0.0137654506, -0.0023839169, -0.1007582918, -0.0467610359, 0.0258355234, 0.1002601907, 0.0091264239, 0.0354858153, -0.0801795200, 0.0557184219, -0.0055471668, -0.0052946429, -0.0593167916, -0.0280679371, -0.0028153053, 0.0018936052, 0.0941134170, -0.0249909740, 0.0745904669, -0.0180370305, 0.0854504555, 0.0633329377, 0.0215221755, 0.0105969347, 0.0849510953, -0.0936325416, -0.0728167966, 0.1268752217, 0.0558862984, -0.0223712530, 0.0526714474, 0.1041822061, -0.0444162004, 0.0445834957, 0.0844076425, -0.1061964482, 0.0674883053, -0.0163389947, 0.0335419327, 0.0143504767, -0.0436219200, 0.0169479754, 0.0497924536, 0.0399088860, -0.0201303195, -0.0455889292, -0.0073096473, -0.1282568276, -0.0561710894, 0.0770630985, 0.0206566397, -0.0912608132, 0.0710154921, 0.0757631212, 0.0929487497, -0.0760565698, -0.0299917106, -0.0875793025, 0.0085090101, 0.0001648307, 0.0186369028, -0.0153941019, -0.0702564269, -0.0812965855, -0.0694968104, -0.1540418118, -0.1388049126, 0.0291627776, -0.0107043190, -0.1432260126, -0.0779538080, -0.0468999371, -0.0672905520, 0.0270210374, 0.0491998345, 0.0424555577, -0.0167074390, -0.0425802544, 0.0094722696, -0.1428990960, 0.0060538133, 0.0234352238, 0.0747827366, 0.0457600094, 0.0697391480, -0.0749183595, 0.0005254620, -0.0006825419, 0.0089484928, 0.0641230643, -0.0253477190, -0.0020309757, 0.0053503001, 0.0386560112, -0.0237327237, 0.1462192386, 0.0587307960, 0.0562068261, 0.1004675478, -0.0412605144, 0.0421329886, 0.0539813675, 0.0106708566, 0.0316868164, -0.0589033030, 0.1003034413, -0.0469144136, 0.0352759510, -0.1434618384, -0.0159358643, 0.0663684532, -0.0999329910, -0.0212020073, 0.1192298383, 0.0506215952, 0.0795528963, -0.0283769649, 0.0287344158, 0.0763691142, -0.1131207868, -0.0370692126, -0.0313115604, 0.0139842760, -0.0280274451, -0.0150334444, -0.0137235606, -0.0952597111, 0.0343991853, 0.0118345926, -0.0155265946, -0.1392690092, -0.0555225275, -0.0188167933, 0.0169318691, 0.0428352803, 0.0047903908, -0.0527497903, -0.0020052050, 0.1840883195, 0.0051697558, 0.0428056829, 0.0071750246, 0.0261938591, -0.0798910260, 0.0318940766, -0.0551031046, 0.0156500787, -0.0573752597, 0.0154558821, -0.0923333839, 0.0505787395, -0.0949244276, -0.0305881146, 0.0180314966, 0.0140842414, 0.0645700991, -0.0838821456, 0.0496454500, 0.0552062839, 0.0488346592, -0.0327063873, -0.0897722170, 0.0927697420, 0.0130756479, -0.0285521168, -0.0765990242, 0.0101141436, 0.0701119304, 0.0127621526, -0.0324317105, -0.0402416177, 0.0001611733, -0.0633100048, -0.0144656375, -0.0011628148, -0.0373864397, 0.0095727500, 0.0171051417, 0.0026134187, -0.0195660256, -0.0359625034, -0.0143269887, 0.0700662881, 0.0397246517, -0.0137286941, 0.0138268275, -0.0728814900, 0.0347906910, 0.0211382937, 0.0133440318, -0.0479088090, -0.0451363996, 0.0011869549, -0.0482868291, -0.1289786249, 0.0727599636, 0.0541944429, -0.1267438531, 0.0545644164, 0.0313710123, -0.0334812365, 0.0786944777, -0.0524808131, 0.0174679011, 0.0043586446, -0.0529489405, -0.0066972948, -0.0119366525, -0.0169031937, -0.0029665800, -0.0388737172, 0.0343036875, 0.0411431752, 0.0028318032, -0.0036112959, 0.0241472907, 0.0557235852, 0.0614638403, 0.0214579143, -0.0017707230, 0.0344997346, 0.0864596367, -0.0369532742, -0.0203634631, 0.0960106179, 0.0276976693, -0.0544925481, 0.0961814970, 0.0959146991, 0.0063098967, -0.1121977121, -0.0185950026, -0.0616735741, -0.0079037566, 0.0130549381, 0.0171635374, -0.0209884010, -0.0159449652, -0.0235969741, 0.0390616991, 0.0922305584, -0.0147359818, 0.0046253516, -0.0376161076, -0.0757973641, 0.0818859190, 0.1027540863, 0.0650206134, -0.0650152564, 0.1114014089, 0.0526404344, -0.1050391123, -0.0644156560, 0.0379829928, -0.0840613097, 0.0882582143, 0.0531396270, -0.0097462684, -0.0375332572, -0.0043689548, 0.0068271682, -0.0785702467, -0.0196319744, 0.0155565292, 0.0256457515, 0.0600202419, 0.0071991514, 0.1218585894, -0.0965113193, 0.0987628475, -0.0460169315, -0.0325577185, 0.0297054667, 0.0753206909, -0.0312980674, -0.0480787940, -0.1511273682, 0.2190300822, 0.0678151250, 0.0567895472, -0.1130926087, 0.0059145964, -0.0024296055, -0.0685713291, -0.0664456859, -0.0486752875, 0.0235897209, 0.0531114154, -0.0667613819, -0.0000588421, 0.0689975321, 0.0396937020, 0.0032045178, 0.0685388371, -0.0454514101, 0.0842959657, -0.0896790028, 0.0824195668, 0.0312014371, -0.0346565507, -0.1530078351, 0.0417091288, 0.0102091497, -0.0147920642, 0.0659680292, -0.1095387936, 0.0931650102, 0.0491400324, -0.0221515149, -0.1055607647, -0.0559784211, 0.1525352150, 0.0346354023, -0.0319951996, 0.0890672132, -0.0273236502, -0.0068548336, 0.0230390597, -0.0208780468, 0.0835362524, -0.0514050685, 0.0162345897, -0.0603937060, 0.0134327570, 0.0436790176, 0.0494678169, -0.0648676082, 0.0619597249, -0.1000227556, 0.0813126937, -0.0161100887, -0.0220306590, -0.0917670950, 0.0036308591, 0.0275849104, -0.0377433002, -0.0174783189, 0.2607093155, -0.1035783961, -0.0076785809, -0.0136702675, -0.0515073314, 0.0103993518, -0.0414246581, 0.0786772594, 0.0303485859, 0.0111868568, -0.1245575473, -0.0604266152, -0.0062130457, -0.0292210076, -0.0003759815, -0.0619987622, -0.0592039973, -0.1227500513, -0.0070623374, -0.0436002202, 0.0200443994, -0.0927363858, -0.0532218851, 0.0356378555, -0.0130312983, -0.0269019809, -0.0337371454, -0.0438879617, -0.0670543239, 0.0217061583, 0.0695353448, 0.0819654241, -0.0203454252, -0.1186205000, 0.0475938395, -0.0042157131, 0.1131055057, 0.1349567026, -0.0991422236, -0.0110746976, -0.0459836014, 0.0083918590, -0.0545563512, 0.0217372794, -0.0415817834, -0.0244640652, -0.1385938525, -0.0195115376, 0.0262673199, -0.0119165685, 0.0942071378, -0.0660193488, -0.0352981575, -0.0679917336, 0.0747102499, -0.0632933453, -0.0456466340, -0.0280452501, -0.0667753667, -0.0080394186, -0.0716806725, 0.0368364975, 0.0976739898, -0.0880879089, 0.0148288440, 0.0301275756, -0.0249262564, 0.0225548483, 0.0564595871, -0.1003022939, 0.0290998779, -0.0147938831, -0.0646012500, -0.0415777713, -0.0619894490, -0.0251848027, 0.0363318548, -0.0445494056, 0.0524405539, -0.0489122123, 0.0423801541, -0.0956794322, 0.0755020902, 0.0241863243, 0.0591930375, -0.0865335688, 0.0253671631, -0.0051117647, -0.0775893331, 0.0083501730, -0.0657686368, -0.0156903192, -0.1102714539, -0.1337598264, 0.0595655888, 0.1325425059, 0.0141994162, 0.1052177176, -0.0532109849, -0.0290761180, -0.0033487158, 0.0168090630, 0.0750646219, 0.0543938987, -0.0529954694, 0.0288382638, 0.0009833304, -0.0299377870, 0.0898236707, 0.0883786678, -0.0097711226, 0.0507443324, 0.1116023585, 0.0779855251, -0.0189201161, 0.0723296925, -0.0811888427, 0.0291741583, -0.0366949216, 0.0674661770, -0.0052845012, 0.0851171687, 0.0524816699, 0.0777193457, -0.0303908214, -0.0328774899, 0.0088582579, 0.0126349805, -0.0781716406, 0.0283754542, -0.0849519819, 0.0839856640, 0.0199681520, -0.0562987216, -0.0773242563, 0.0236117207, -0.0187368039, -0.0662022829, -0.0045326296, 0.0892400965, 0.0609206334, 0.0704094917, 0.0108836768, -0.0191750024, 0.0522372462, -0.1347088516, -0.0183316153, 0.0542495139, -0.0630965605, 0.0212212224, -0.0525601469, 0.1750190407, -0.0457994826, 0.0171891525, -0.0808392763, -0.0163240209, -0.0500580706, -0.0562362485, 0.0654486567, -0.1035054326, -0.0086589772, 0.1447826922, 0.0579225197, 0.0860422477, 0.0651269257, -0.0764669925, 0.0187131446, -0.0021477288, -0.0731452703, 0.0273970068, -0.0163742602, 0.0556743182, 0.0183881465, -0.0518939309, -0.0813018903, -0.0104409708, 0.0588792302, -0.0767466500, -0.0006508498, -0.1005768999, -0.0529711880, 0.1278906465, -0.0250680614, -0.0077975746, 0.0278389417, -0.0214761030, 0.0007696529, -0.0047472259, -0.0432162397, -0.0238275956, -0.0119413957, -0.0721821412, -0.0841848850, 0.0613070279, 0.0637653694, 0.0371762253, -0.0491191931, -0.0326837823, 0.0408358946, 0.1100984737, -0.0304449350, 0.0626100972, 0.0277536213, 0.0225919764, 0.0232812185, -0.0481267422, 0.0478661023, 0.0297763795, -0.0763317719, 0.0219310243, -0.1206187159, 0.0505885594, -0.0421774313, 0.1218024716, 0.0330764242, -0.0177821238, -0.0296358168, -0.0601026639, -0.1224250570, 0.0740404353, 0.0240675043, -0.0011554047, 0.0505067818, 0.0810977817, -0.0514938869, 0.0085362010, 0.0565114394, -0.0504050143, -0.0055599655, -0.1136517227, 0.0989556462, 0.0212981049, 0.0492243133, 0.0081418622, -0.0646622255, 0.0517565086, -0.0441825241, 0.0876999721, 0.1856479645, 0.1048685163, 0.0169921517, 0.0840983987, -0.0499209240, -0.0296152718, 0.0777544305, -0.0199239608, -0.0186769646, -0.0839072615, -0.1022723690, -0.0065956064, 0.0317974687, 0.0335153267, -0.0556247644, -0.0098440135, -0.0206361655, -0.1160023734, 0.0528805926, 0.0682108551, -0.0931534171, 0.0184910744, -0.0044928687, 0.0762706324, -0.0339948460, 0.0242497846, -0.0407825410, -0.0371226147, 0.0483308397, 0.0358469263, -0.0418463312, 0.0137752471, 0.0151787763, -0.1016917676, 0.0706109852, 0.0511004440, -0.0172256790, 0.0301095638, 0.0396798849, 0.0548772626, 0.0122936154, -0.0330741815, 0.0405256376, 0.0654333010, 0.0136725223, -0.0300906990, 0.0321789943, 0.0718269795, -0.0210875645, 0.0548115857, 0.0635442436, -0.0893480107, 0.0026812919, -0.0398155041, -0.0672038347, 0.0270561762, -0.0199614465, 0.0667199120, 0.1159661636, 0.1096476763, 0.0590916798, -0.0439013205, 0.0719854385, 0.0393269658, 0.0257652998, -0.0426182784, 0.0046472116, 0.0067432090, -0.0885139182, 0.0879032761, 0.0274211168, 0.0045946483, -0.1114235297, -0.1029665172, -0.0313928612, 0.0079284832, 0.0062278463, 0.0189950000, -0.0394507721, 0.0347680151, 0.0169808753, 0.0528191216, 0.0525528453, -0.0989799723, 0.0155427596, -0.0620645769, 0.1148688868, -0.0584466010, 0.0249923114, 0.1200006828, 0.0434877500, -0.1701025665, -0.0552009195, 0.0585455820, 0.0380451493, -0.0185209941, -0.0646629035, -0.0765767992, 0.0239432044, -0.0578466915, -0.0175749697, -0.0003592829, 0.1449941099, -0.0566996671, -0.0142358486, 0.0284020472, -0.0348624513, 0.0220598914, -0.0105644912, -0.0712348372, 0.0695886016, -0.0677684471, -0.0461076200, 0.0140776234, -0.1165848821, 0.0502983369, 0.0326779932, 0.0647982806, -0.0698957071, 0.0816935077, 0.1015122756, 0.0398272574, -0.0627780035, -0.2489782870, 0.0405097082, 0.0725457370, 0.0427113995, -0.0742633715, -0.0481735319, -0.0480336547, 0.0175364595, -0.1242189780, 0.0040173326, 0.0132402396, -0.0095563298, -0.0411266237, -0.0537563302, -0.0471568070, 0.0438626781, 0.0077835419, -0.0834482834, 0.0194376782, -0.0618833937, 0.0143532567, 0.0057932045, -0.0137247667, 0.0690157861, -0.0471612029, -0.0506271422, -0.0599743612, 0.0268352181, 0.0521330312, 0.0377709307, -0.0398135073, 0.0232114047, -0.0539657772, -0.0488975570, -0.0353621282, -0.0254168734, 0.0404136032, -0.0266386997, 0.0350234658, 0.0078895241, -0.0655614510, 0.0324167833, 0.0306662433, -0.0135951107, 0.0257824324, 0.0295108706, -0.0789564997, 0.0019584668, -0.0038468686, -0.0830497071, -0.0175102297, -0.0396843143, 0.0965459943, 0.0223821532, 0.0211310610, 0.0178232808, 0.0848593339, 0.0163577087, 0.0822621584, 0.0108814677, -0.0462010279, -0.0259144306, 0.0851196498, 0.0461160615, 0.0253587160, 0.0015074990, -0.0128300358, 0.0164885875, 0.0002586016, -0.0037697703, 0.0011242875, -0.0216385424, 0.0341711305, 0.0631322190, 0.0265146196, 0.0018613647, -0.0855565742, 0.0101213958, 0.0690829605, -0.0059825978, -0.0187965352, -0.0169922858, 0.0334428959, 0.0110509200, -0.0059233243, -0.0504340231, -0.0011679137, -0.0384651907, -0.0235991888, -0.1230815575, 0.0236656442, -0.0109902238, -0.1159999892, 0.0246084388, -0.0172525365, -0.0470313728, 0.0598501377, -0.0485151857, 0.0419829078, 0.0609841384, 0.0190662853, -0.0339473933, -0.0165587794, -0.0304161813, -0.0828357488, 0.0247366875, -0.0012866874, 0.0275720078, -0.0582614802, 0.0047492981, -0.0185148958, 0.0392414667, 0.0195097215, -0.0329243466, -0.0307800993, 0.0164549779, 0.0696090981, 0.1033781767, -0.0403491706, 0.0548780039, 0.0629888102, 0.0335273147, -0.0612450317, -0.0287909135, -0.0304795764, 0.0273580700, 0.0402640812, 0.0207195934, -0.1239032820, -0.0446201786, -0.0850416496, 0.0347898118, -0.0192214847, 0.0153910406, 0.0006605729, 0.0285095219, -0.0051016728, 0.0508301333, 0.0167286415, 0.0098746791, -0.0231806040, -0.0693507418, 0.0716512352, -0.0177025516, 0.0154157840, -0.0455286019, 0.0261482205, -0.0020118074, 0.0691822618, 0.0166669711, -0.0147541016, -0.1134774089, -0.0800178647, -0.0187588073, 0.0321218967, 0.0334937572, 0.0271849204, 0.1669202596, -0.0083995722, -0.0289704762, -0.1544600129, -0.0553244203, -0.0734215677, -0.0152863245, -0.0108530289, 0.0216937698, 0.0061277943, -0.1198906153, 0.0111386031, -0.0023280196, -0.1094331294, 0.0426573977, 0.0332252122, 0.0833449289, 0.0294431970, -0.0283044018, -0.0140371872, 0.0417793691, 0.0649224818, 0.0085762404, -0.0333860964, 0.0125976689, 0.0225513596, 0.0214304253, 0.0427221693, -0.1109072790, -0.0355033167, 0.0166632645, -0.0544648431, 0.0149406157, 0.0063949134, -0.0686556473, 0.0055161049, 0.0669373348, 0.1373300552, 0.0475392379, -0.0928756073, -0.0262894779, 0.0429922380, 0.0133111347, -0.0741789937, 0.0748230740, 0.0127735715, -0.0757366717, -0.0057446137, 0.0309931729, -0.0558542907, -0.0332366750, -0.0503713489, -0.0799244717, 0.0461693853, -0.1030095741, -0.0131943524, -0.0199420955, -0.0538463220, 0.0667691082, 0.0460860059, 0.0653450713, -0.0681375116, -0.0105801979, -0.0162808709, 0.0534560420, -0.0002522277, 0.0028279952, 0.0116598327, 0.0989216790, 0.0913090631, 0.0487805530, -0.0263296477, -0.0625472888, 0.0079816859, -0.0265272781, -0.0748757571, 0.0316573977, 0.1185056865, -0.0718809962, -0.0032195032, 0.0018492199, 0.0132437162, 0.0121540707, -0.0774540007, -0.0624691546, -0.0335075185, 0.1046959236, 0.0224145111, -0.0063511049, -0.0346474349, 0.0183286034, -0.0160535630, -0.0815783441, -0.0688320696, -0.1274073273, -0.0319164507, -0.1103975847, -0.0456781685, -0.0237376560, 0.0503285304, 0.1092215106, 0.0463102460, -0.0912108198, -0.0446222275, -0.0309614260, -0.0272726193, 0.0164852813, 0.0160042588, 0.0121521577, 0.0327885374, -0.0030896098, -0.0378422067, -0.0408284217, 0.0198402926, 0.0520539060, 0.0387866646, 0.0306430869, 0.0378570147, -0.0537406951, -0.0693142563, 0.0698416382, -0.0143308593, 0.0078112879, -0.0344382562, 0.0207334179, -0.1356004626, 0.0273114834, 0.0623698607, 0.0596304685, -0.0324213542, -0.0304705743, 0.0725060999, 0.0148417577, 0.1055105254, 0.0367524661, -0.0021890013, -0.0405909494, -0.0587195344, 0.0437705256, -0.0746314600, 0.1199722439, -0.1086939722, -0.0369716398, 0.0361231454, -0.0235392842, -0.0653766990, 0.0016204513, -0.0976577550, -0.0658028573, -0.0274088029, 0.0881298929, 0.0654203743, 0.0571118183, -0.0415964797, -0.0921197310, -0.0356412977, -0.0280863363, 0.0148572251, 0.0916794166, 0.0129634785, 0.0879004523, 0.0182205010, -0.0171845723, -0.0646860451, 0.1189289689, 0.0895824805, -0.0588038191, 0.0393206105, -0.0977979079, 0.0200243350, -0.0609733090, -0.1066742465, 0.0076507404, 0.0191346742, 0.1225353405, 0.0448385030, 0.0110107381, 0.1496693790, 0.0874045715, -0.1022742540, 0.0109078540, 0.0647495762, -0.0575164929, 0.1381575763, -0.0381672606, 0.0324319005, 0.0399435870, 0.0362579040, -0.0171271041, 0.0679300427, -0.0709750578, -0.0348581262, -0.0089632887, 0.0628027022, -0.0184633881, 0.0163742825, 0.0861650854, 0.0529283397, -0.0175893623, -0.0812774524, -0.0041003390, -0.0494032204, -0.0119374236, -0.0144446371, -0.0628777072, 0.0046734647, 0.0593400188, -0.0104628596, 0.0248947274, -0.1218830645, -0.0438684784, 0.0158231258, 0.0985627025, 0.0434684083, 0.0051591396, -0.0600315854, 0.0371217728, 0.0321748070, 0.0595601350, -0.0421607867, -0.0247251298, -0.0659628361, -0.0138498005, -0.0562093742, 0.0298672169, -0.0087869717, 0.0752126649, -0.0375352502, -0.0813679546, 0.0420691594, 0.0612548776, -0.0360728316, 0.0017391092, 0.0441218540, -0.0519069806, 0.0897932798, -0.0117437551, 0.0286001805, 0.0727238208, -0.0653078780, -0.0515234806, 0.0630453974, 0.0420295633, -0.0071322364, -0.0040933215, -0.0637393817, 0.0309192408, 0.0497356132, 0.0071987147, -0.0693173185, 0.0248553697, 0.0156767797, 0.0712414011, -0.0147628374, 0.0558806136, -0.0571797006, -0.0581295602, -0.0194473304, 0.0454601869, 0.0127479406, 0.1036884040, -0.0612382852, -0.1010828093, 0.0778354928, 0.0527059101, 0.0260977708, 0.1282249093, -0.0881725550, -0.0407597944, 0.0343436711, 0.0322179385, 0.0162826888, -0.0186431315, 0.0302760378, -0.0160605088, 0.0645761937, -0.0851415917, -0.0850081444, 0.0369661190, 0.0519219488, 0.1019178852, -0.0430451967, -0.0327226557, 0.0280052312, 0.1032563746, -0.0486927554, -0.0406675562, -0.0399922915, 0.1385999173, -0.0567874983, -0.0694216415, -0.1022532433, 0.0957605541, 0.0293732751, -0.0420315117, 0.0430020057, -0.0241241623, -0.0158477984, 0.0027941307, -0.0469392873, -0.0686091036, 0.0047153719, 0.0031010760, -0.0339703448, 0.1196525618, -0.0455080830, 0.0222514812, -0.1385314763, 0.0244555864, -0.0198203083, -0.0050226995, 0.0392954424, 0.0789287090, 0.0878674760, -0.1000853553, -0.0321822874, 0.0167658385, 0.0533422530, -0.1083021164, -0.0433635302, -0.1518304348, 0.0034355931, 0.0241186265, 0.1242921501, 0.0132192932, -0.0249171779, 0.0320178792, 0.0532512702, 0.1669809967, -0.1149956286, -0.0887529030, 0.0674487427, -0.0460074171, -0.0323896483, 0.0991235226, -0.0392671190, 0.0233157203, -0.0505882427, -0.0856033489, 0.0052911094, 0.0332636349, -0.0155997826, -0.0309878346, 0.1067856774, 0.0043962202, -0.0233774409, -0.0117378607, 0.0979080796, 0.0385904275, 0.0812625811, 0.0611930043, -0.0128883068, 0.0168505162, -0.0619830415, -0.0129590277, -0.0926006958, -0.0141439671, 0.1025601700, -0.0194320027, 0.0612124689, 0.0523591749, -0.0275079906, 0.0691569075, 0.0210187454, -0.0973254442, -0.1194384247, 0.0837050080, -0.0718113184, -0.0321708918, -0.1147287190, -0.0095238546, 0.0023926664, 0.0569263324, 0.0019864910, -0.0277608819, 0.0386030339, 0.0337607898, -0.0093405088, 0.1319535971, -0.0899389088, -0.0961621627, 0.0521236844, 0.1017183289, 0.0310619622, -0.0485716239, -0.1176748201, -0.1036542654, -0.0945477784, -0.1900007278, -0.0450218841, -0.0149063841, 0.1183185205, -0.0555163994, -0.1231468767, -0.0112589858, 