//Numpy array shape [3, 3, 64, 64]
//Min -0.163955926895
//Max 0.171308487654
//Number of zeros 0

#ifndef W22_H_
#define W22_H_

#ifndef __SYNTHESIS__
model_default_t w22[36864];
#else
model_default_t w22[36864] = {0.0045971205, 0.0189370308, 0.0023243108, 0.0253402703, 0.0499582440, 0.0862289816, 0.0142105902, 0.0478983931, -0.0112031130, -0.0649502128, -0.0125950482, -0.0177113563, -0.0121370777, -0.0122753531, -0.0049392763, 0.0039141043, -0.0053226459, 0.0877049267, -0.0668329895, 0.0430026129, -0.0181241278, -0.0072868983, -0.0207436755, -0.1031459644, 0.0338572711, 0.1275515407, -0.0070829424, -0.0699521303, 0.0091795493, -0.0235612746, 0.0339158364, -0.0631113127, -0.0122309551, -0.0157096982, -0.0129841100, 0.1102775261, -0.0457783751, -0.0044136709, 0.0259808432, -0.0144580575, -0.0889437050, 0.1353209913, -0.0576788411, -0.0152792167, -0.0049702311, -0.0370069742, 0.0441569053, -0.0177703854, 0.0471383780, 0.0659017786, -0.0202418938, -0.0394669063, -0.0654664189, -0.0851157159, -0.0113197593, -0.0273096096, 0.0595869943, 0.0124358535, 0.0134319011, -0.0878874362, -0.0040379292, 0.0242521018, -0.0449200012, 0.0456919596, -0.0625082329, 0.1185506061, 0.0022469270, -0.0428144298, -0.0342829898, 0.0607537106, -0.0315413512, -0.0072658821, -0.0632340834, -0.0125965038, -0.0448529087, 0.0051333732, 0.0374335125, -0.1060372740, -0.0158186480, -0.0628550500, -0.0230620466, 0.0622061901, -0.0615209229, 0.0514355339, -0.0122289676, 0.0090008564, -0.0589942150, 0.0609311350, -0.0386365652, 0.0631040186, 0.0804874152, 0.0244128127, -0.0807553232, 0.0485422239, -0.0938832834, 0.0530645810, -0.0300849006, -0.0483587794, -0.0213650782, 0.0009030976, -0.0692662373, 0.0947133452, 0.0040204525, 0.0183388367, 0.0119754039, 0.0316923745, -0.0081392117, -0.0931301042, 0.0104882140, -0.0387166776, -0.0057570268, 0.0457224362, 0.0425404496, 0.0096730376, -0.0120894304, -0.1027908251, 0.0567498989, 0.0406040438, 0.0139781982, 0.0131006977, -0.0637340918, -0.0403765254, 0.0197301786, -0.0003818440, 0.0712675750, -0.0478555523, -0.0557505041, 0.0599218532, 0.0124988006, -0.0560861528, -0.0498916022, -0.0084741721, -0.0227159243, -0.0219455734, 0.0419077910, 0.0985784382, -0.0571233593, -0.0690918863, 0.0362467691, -0.0164813343, 0.0507198013, -0.0302708186, -0.0029175042, 0.0469383895, 0.0062763169, 0.0235963650, -0.0444350690, 0.0264150146, -0.0169576444, -0.0690382421, 0.0498424210, 0.0566500649, 0.0312513970, -0.0168190487, -0.0262739975, 0.0986819789, 0.0572751388, 0.0502420999, 0.0465546288, -0.0169389695, 0.0578259379, 0.0084941993, 0.0766037628, 0.0551855266, 0.0602079071, -0.1343362033, -0.0343552120, 0.0620933622, -0.0693916753, -0.0068233712, -0.0057834596, 0.0580202192, 0.0531969331, 0.0539059639, 0.0002820070, 0.0023317544, 0.0307381116, -0.0009855797, 0.0227815360, 0.0239393748, 0.0400364101, 0.0279990770, -0.0338597372, 0.0231245141, -0.0037853897, 0.0882255882, -0.0118688475, 0.0172457397, 0.0678240359, -0.0036631667, -0.0943834931, -0.0166702364, 0.0007484310, 0.0500712842, -0.0791613981, 0.0407750420, 0.0374923497, -0.0298036672, 0.0515608378, -0.0171437208, 0.0843809545, 0.0081183780, 0.0238201767, 0.0419889092, -0.0404200330, -0.0195462741, -0.0548550449, 0.0162037890, -0.0189023875, 0.0576465949, 0.0109162601, -0.0087629696, 0.0415184274, 0.0750096142, -0.0133554554, 0.0485666357, -0.0429276191, 0.0751894116, 0.0202487111, 0.0396538153, -0.0227097627, 0.0058357706, 0.0404173099, -0.0001198575, 0.0558801964, -0.0164915603, -0.0782738551, -0.0642015710, -0.0158615913, -0.1054438949, 0.0837426260, 0.0551534221, -0.0015819939, 0.0107431244, -0.0607607812, 0.0222257655, -0.1210053414, 0.0017978357, 0.0067732283, 0.0148138572, 0.0664607510, 0.0314971320, -0.0263690092, 0.0654984266, -0.0585412718, 0.0466226302, 0.0673472136, 0.0201757085, -0.0451535508, -0.0070800637, 0.0707265884, 0.0312104654, -0.0592436939, 0.1086468473, 0.0223252159, -0.0042499490, -0.0018260815, -0.0177718848, -0.0936172903, -0.0120353084, -0.0539237037, -0.0149623854, -0.0345269926, -0.0358704515, -0.0082372567, 0.0223516747, 0.0203972198, -0.0101910112, -0.0353094600, 0.0402002074, -0.0296703726, 0.0328390449, -0.0380309448, 0.0397187769, -0.0390484221, -0.0414513387, -0.0518281758, 0.0710298717, 0.0606177114, -0.0589345321, -0.0075478363, 0.0385202914, 0.0571258701, -0.0429559313, -0.0664087683, 0.0486174859, -0.0701346546, 0.0106138680, -0.0591151938, 0.0383957773, 0.0251156762, 0.0208353531, 0.0263624899, 0.0383684486, -0.0720704719, 0.0447482690, -0.0365404263, -0.0408055596, -0.0732011348, 0.0724127591, -0.0135690663, 0.0034723266, 0.0579750501, 0.0003840694, 0.0345109999, 0.0199023597, 0.0106658293, -0.0408269465, 0.0469084568, -0.0558032915, -0.0370164476, 0.0377259627, -0.0143741528, -0.0164434649, -0.0602267347, -0.0150279012, 0.0255134720, 0.0095646791, 0.0082191257, 0.0304201506, -0.0350077637, 0.0078424206, 0.0397901423, -0.0739983022, -0.0226206034, 0.0256764367, -0.0434371009, -0.0499442071, -0.0376072712, -0.0874681845, 0.0117515204, 0.0385682546, -0.0182061605, -0.0287248734, 0.0389709212, 0.0285105612, 0.0020087436, 0.0154029364, -0.0594366603, 0.0874086767, -0.0064834477, -0.0432229526, -0.0285911690, -0.0327184312, -0.0139250020, 0.0139944870, 0.0392228663, 0.0183818508, -0.0327262394, -0.0192982033, -0.0149800181, -0.0533800498, -0.0035707457, -0.0587822646, 0.0139037836, -0.0885617733, 0.0809198990, -0.0353239700, -0.0290290583, 0.0424114279, 0.0198818948, 0.0725211427, 0.0120189898, -0.0068291416, -0.0165972020, -0.0743231401, -0.0121673010, -0.0361406691, 0.0224812534, -0.0116821062, -0.0011693063, 0.0040421006, -0.0010037650, -0.0034264477, -0.0099353446, -0.0659063682, 0.0606669560, -0.0423432998, 0.0163337998, 0.0501060784, -0.0531128459, 0.0829975605, 0.0648283139, -0.0077321106, 0.0273088813, 0.0620987676, -0.0226299483, 0.0343520567, 0.0108138239, -0.0394977815, 0.0295547750, -0.0116781564, -0.0803515315, 0.0229112711, -0.0007116563, -0.0114634940, -0.0400871634, 0.0224840585, 0.0167256314, -0.0474202000, -0.0145711740, 0.0242858510, 0.0154944984, 0.0161584821, -0.0250897165, -0.0062381141, 0.0236941539, 0.0365116633, -0.0015218265, -0.0392012261, 0.0035917875, 0.0263524018, 0.0182603151, -0.0201466661, -0.0025264865, 0.0291793272, -0.0629823059, 0.0061605670, 0.0500678346, 0.0403096154, 0.0327121131, -0.0647315681, -0.0403993763, 0.0226363242, 0.0058190739, -0.0373109579, -0.0632391796, 0.0378711149, -0.0355489179, 0.0414122492, -0.0560628437, -0.0101373326, -0.0328990370, -0.0375158116, 0.0243316144, -0.0110036200, 0.0034411766, -0.0395157114, 0.0153605081, -0.0189294871, -0.0017182862, -0.0579448380, -0.0117217069, 0.0087389322, -0.0243338607, 0.0411385968, 0.1047438905, -0.0148895178, 0.0894847810, -0.0611619875, 0.0349238366, 0.0177706443, -0.0359367803, 0.0782377720, -0.0520828590, 0.0024647545, -0.0096768951, -0.0023187122, -0.1153116450, -0.0528642423, -0.0091273990, -0.0323480591, -0.0305717662, 0.1029780880, -0.0074163992, -0.0076846764, -0.0589179397, -0.0015173960, 0.0061701573, 0.0211669467, 0.0055246390, 0.0087775318, -0.0252914485, -0.0534197725, 0.0164155271, -0.0756014287, -0.0372885577, 0.0790720135, -0.0343604125, -0.0479493029, 0.0552331619, 0.0095640235, -0.0486194380, 0.0093382886, 0.0357533991, -0.0428654626, 0.0321093835, 0.0140941124, -0.0399149135, 0.0468591377, 0.0799179450, 0.0041615120, 0.0710689649, -0.0163599141, 0.0247258842, -0.0068228752, 0.0004434606, 0.0069498564, 0.0503848754, -0.0282982104, 0.0488880090, -0.0371433012, 0.0087341880, -0.0113218669, -0.0452571958, 0.0158041716, -0.0340315737, -0.0553390682, -0.0018548860, 0.0210680552, 0.0008115976, -0.0046908865, -0.0446813442, -0.0526510514, 0.0105157616, -0.0758564472, -0.0062714010, -0.0388538428, -0.0310357139, 0.0790072083, 0.0898422152, 0.0647859499, -0.0651280060, -0.0283239223, -0.0279272832, 0.0287826769, 0.0670087636, -0.0042690756, -0.0102690281, -0.0611018017, -0.0292558856, -0.0086877914, 0.0510687120, -0.0036060791, -0.0223070662, -0.0137466844, 0.0223888233, -0.0420756340, -0.0780656636, -0.0595710911, -0.0160721224, 0.0466797464, -0.0468653515, 0.0193572734, -0.0160055999, -0.0621537901, 0.0426646993, 0.0346428417, 0.0099259717, -0.0432913341, 0.0437799916, -0.0109875742, 0.0387749560, 0.0284738168, 0.0300566200, -0.0313241482, 0.0099413991, -0.0603430644, -0.0166199431, -0.0203508921, 0.0954961777, 0.0006529614, 0.0071563404, 0.0326186195, -0.0598087870, 0.0209019855, 0.0206144825, 0.0315234251, -0.0533313639, 0.0018591546, -0.0685279891, 0.0194133762, 0.0695277601, -0.0070686261, -0.0011905073, -0.0183531865, -0.0688341632, 0.0020858876, -0.0047221193, 0.0050989930, 0.0004352338, -0.0063545927, 0.0015567755, 0.0387628563, 0.0605366826, -0.0036803745, 0.0779950768, 0.0317066498, 0.0234587546, -0.0061903838, -0.0783489645, 0.0206228178, -0.0091603175, -0.0608626381, 0.0059129931, 0.0011547121, 0.0109643182, 0.0155892903, 0.0099803424, -0.0134573402, 0.0745441020, 0.0839484334, -0.0589981265, -0.0255538784, -0.0165958665, 0.0380452387, -0.0213455483, 0.0347097293, -0.0911192447, -0.0027524105, -0.0586719960, -0.0360475108, 0.0223671589, 0.0428722836, -0.0644280389, -0.0751769990, -0.0195166711, 0.0566569865, 0.0187320169, 0.0187973473, 0.0518024713, 0.1395303756, 0.0004555331, 0.0262075085, 0.0411846600, 0.0746103376, -0.0207779109, -0.0331677757, -0.0699239150, -0.0282416586, -0.0840634108, 0.0454379655, -0.0654044673, 0.1209386289, 0.0371919572, -0.0043749916, 0.0534009896, -0.0083260797, -0.0457230881, -0.0130504966, 0.0093106814, 0.0703669935, 0.0079936199, -0.0020493893, -0.0773152485, -0.0269827470, 0.0123639172, 0.0037626666, -0.0203963649, -0.0141273597, 0.0078532351, 0.0005292948, -0.0030811552, -0.0009044359, -0.0732729211, -0.0117558679, 0.0014414561, -0.0051754694, -0.0141160069, -0.0589417554, 0.0444047749, -0.0748366937, 0.0721013770, -0.0066272719, 0.0460962877, -0.0201060381, 0.0325082466, 0.1322981417, -0.0018854528, -0.0108581576, 0.0292341225, -0.0708893314, 0.0727416947, 0.0602250099, 0.0464975126, -0.0309800338, 0.0504077896, 0.0471610799, -0.0284274779, -0.0733135045, -0.0433268845, 0.0305957589, -0.0271543246, -0.0074467729, -0.0447049364, -0.0420245603, -0.0830796137, 0.0507702604, 0.0430967771, 0.0118149882, 0.0319410935, 0.0169440601, -0.0082954448, -0.1532905549, -0.0437095761, -0.0248594750, -0.0193406325, -0.0697236061, -0.0677253529, -0.0483518466, -0.0383461863, 0.0127996793, -0.0886720046, -0.0036132145, -0.0183988903, 0.0654381588, 0.0260246545, 0.0291606206, -0.0725319386, -0.0883053690, -0.0053332555, -0.0565409623, -0.0224471968, -0.0107442532, 0.0070658284, 0.0166134816, 0.0585185997, -0.0087148296, -0.1093947440, -0.0233125966, 0.0374176912, 0.0236577764, -0.0144591024, -0.0433158539, -0.0365310311, -0.0515589640, 0.0613807477, 0.0141262077, 0.0452440679, -0.0013826552, 0.0610058755, 0.0103449421, 0.0555626936, 0.0440254211, 0.0321273245, -0.0303399302, 0.0019348771, -0.0606416129, -0.0031004343, -0.0432447419, 0.0263158102, 0.0043574106, -0.0145462165, -0.0479667038, 0.0143061420, 0.0613992997, 0.0341095813, 0.0833398998, 0.0317045748, -0.0228876192, -0.0019479670, 0.0507298894, -0.0073603187, 0.0466569364, -0.0702446550, -0.0639723837, -0.0977877751, -0.0277776066, 0.0918504968, -0.0132271964, -0.0057083624, -0.0323743410, 0.0072397045, -0.0641660467, 0.1214770600, -0.0890601650, -0.0059341537, 0.0189878792, -0.0373313688, -0.0354587510, -0.0281202365, 0.0141767999, 0.0916236192, -0.0028298099, -0.0358769596, 0.0162300803, -0.0646796823, -0.0531202964, -0.0070553245, 0.0038222948, -0.0182627607, 0.0268683210, 0.0415031724, 0.0041845730, 0.0187171903, 0.0276060663, 0.0038405026, 0.0164432786, 0.0416751951, -0.0102496175, 0.0354056172, -0.0558426790, 0.0416452177, -0.0416828059, -0.0527168773, -0.0101631070, -0.0211410858, 0.0516330115, -0.0080021555, 0.0275095906, -0.0348000862, -0.0067040785, -0.0009805000, 0.0225150380, 0.0016015415, 0.0357041620, -0.0089396099, -0.0903023407, -0.0078698769, -0.0313842520, -0.0454782173, 0.0075085992, 0.0813545957, 0.0184406694, 0.0122577483, -0.0409526043, 0.0305125117, -0.0576923899, 0.0581071265, 0.0011565057, -0.0279538874, 0.0164166950, 0.0320178457, -0.1283840835, 0.0081491601, -0.0746158063, 0.0318846032, -0.0104398392, -0.0223149844, 0.0293880794, -0.0803317949, -0.0109670796, 0.0297931992, 0.0181566086, -0.0387152992, -0.0536289774, 0.0625717267, 0.0109697860, 0.0462527871, 0.0753352195, -0.0613371953, -0.0297926553, -0.0221259482, 0.0297912750, 0.0212546121, -0.0299483761, -0.0219580848, -0.0069606733, 0.0216130838, 0.0041444707, -0.0574808605, -0.0505221300, -0.0377324112, -0.0167804975, 0.0045928848, 0.0220066290, -0.0283407662, 0.0249139443, -0.0011357522, -0.0545947514, -0.0921193734, 0.0764423907, 0.0419582091, -0.0136615848, -0.0331003256, -0.0327268690, 0.0159556624, 0.0370630734, 0.0843511075, 0.0422324240, 0.0285256468, -0.0173836760, -0.0684464648, 0.0587775297, -0.0583270900, 0.0082080448, 0.0223254096, -0.0404812805, 0.0106261829, -0.0527263768, -0.0012475518, -0.0220631212, -0.0404408984, -0.0648630485, 0.0147333108, -0.0029540858, 0.0310964864, -0.0431436785, 0.0873406529, -0.0088723674, -0.0239036102, 0.0358052254, -0.0193544049, 0.0355385467, 0.0336322524, -0.0027538401, 0.0452893674, -0.0453805625, -0.0628800765, 0.0208357442, -0.0385848805, -0.0472260565, -0.0601362027, -0.0543674901, -0.0219611116, -0.0399418436, 0.0767648369, -0.0065526022, 0.0123935221, 0.0264121015, -0.0117107537, 0.0543892197, -0.0197092332, 0.0312268324, 0.0433376469, -0.0067218379, 0.0258919708, 0.0035153490, -0.0338448063, 0.0413659438, 0.0157272387, 0.0965172127, -0.0723346844, -0.0287847240, 0.0445504971, -0.0012451396, -0.0313237086, -0.0264567155, -0.0313272662, 0.0424296409, -0.0242787655, 0.0405884683, -0.0331734493, 0.0476665981, 0.0133688068, -0.0258002840, -0.0271173511, 0.0384316556, -0.0724196061, -0.0725208074, -0.0436664857, -0.0250905883, -0.0151089001, 0.0548253171, -0.0131040076, 0.0745506212, 0.0522182956, -0.0173266996, 0.0166104473, 0.0831968188, 0.0660601109, -0.0258829538, -0.0426455364, -0.0328515954, -0.0448329598, -0.0451682694, 0.0252977386, 0.0814971253, 0.0109430319, -0.0243060943, -0.0607264414, -0.0242733061, -0.0305752661, 0.0140404198, -0.0695310086, -0.0872722194, -0.0117913792, 0.0398379266, 0.0262622219, -0.0042531104, -0.0329115242, 0.0465691686, -0.0711010173, 0.0239049233, -0.0569222346, -0.0216502808, 0.0495949872, 0.0466602556, 0.0443000905, 0.0349481218, -0.0573912933, -0.0872398987, -0.0154131064, -0.0440604910, 0.0162829626, 0.0267413147, 0.0096219191, -0.0671594739, -0.0301276110, 0.0807558745, 0.0035757357, -0.0520506203, -0.0572336428, -0.0029037357, -0.0451680869, 0.0731234327, 0.0069735860, -0.0016533596, 0.0491830260, -0.0490416922, 0.0614476167, 0.0068895384, -0.0114211794, -0.0695435405, -0.0588539056, -0.0328843184, -0.0296723209, 0.0059718802, -0.1154758185, 0.0249968283, 0.0138922976, -0.0069289161, -0.0045981975, -0.0593608245, -0.1706041098, -0.0041935337, 0.0753076226, -0.0472152457, 0.0500672720, -0.0117054228, -0.0663025454, -0.0795757547, -0.0298627689, -0.0345697701, 0.0161474049, 0.0264584925, -0.0035759942, 0.0391312055, 0.0022868055, 0.0082501452, 0.0042119450, 0.0156788323, 0.0230755396, 0.0616330914, -0.0045840787, -0.0387821458, -0.0052918782, 0.0263096523, -0.0301872194, -0.0020843497, 0.1269556284, 0.0325047560, -0.0444893502, 0.0131413685, 0.1123809069, -0.0014462603, -0.0203555226, 0.0160723999, 0.0424496680, 0.0286796056, -0.0042874492, -0.0268905051, -0.0280809775, -0.0338628143, 0.0064046872, 0.0111275511, 0.0449867584, -0.0505016260, 0.1099110395, 0.0546218753, -0.1054520234, -0.0483829975, 0.0579545982, 0.0217400510, 0.0224660095, -0.0248852819, 0.0102335261, 0.0344447717, 0.0134399673, 0.1081821397, 0.0145623786, -0.0140726687, -0.0694576502, -0.0511527769, -0.0027149296, -0.0579421893, 0.0316716656, 0.0588669926, -0.0333864205, -0.0109971184, -0.0195013471, 0.0687267706, 0.0375095010, 0.0473960340, 0.0809796453, 0.0145584792, 0.0367465429, 0.0004824079, 0.0295787994, -0.0179908648, -0.0792110637, 0.0152722895, 0.0482181422, -0.0311703216, 0.0031615063, 0.0533600077, -0.0041251890, -0.0491658002, -0.0246783588, -0.0459518842, -0.0240677278, -0.0078849774, 0.0584161319, -0.0369426794, 0.0499836877, -0.0253864434, 0.0174392052, 0.0663993880, -0.0388265438, 0.0007639502, 0.0240897927, -0.0039077108, -0.0332944915, 0.0886230096, 0.0229610484, -0.0017090130, 0.0735435411, 0.0764604956, 0.0568351299, 0.0034647777, -0.0207322333, -0.0008012475, -0.0459751748, -0.0826734677, -0.0676559657, 0.0007230698, -0.0290353298, 0.0192479882, -0.0705435425, -0.0393700935, 0.0324564055, -0.0414058715, -0.0587331690, -0.0302820243, 0.0144297583, -0.0546433665, 0.0557554215, 0.0200784542, -0.0175320394, -0.0209560320, 0.0132661453, 0.0611107387, 0.0130864130, 0.0272071827, -0.1391280442, -0.1147884279, 0.0197375845, -0.0171030127, 0.0286475867, 0.0113264667, 0.0042101406, -0.0435785130, 0.0482884347, -0.0039244550, 0.0101616923, 0.0166514944, 0.0035165008, 0.0419990793, -0.0355134420, 0.0430520736, 0.0116210962, 0.0209097583, -0.0497973710, -0.0504724458, 0.0075119962, -0.0316965766, 0.0020180426, 0.0032557750, 0.0312441383, -0.0470413193, 0.0020605261, 0.0093523767, 0.0235985201, 0.0178089198, -0.0275107045, -0.0776709840, 0.0134833911, 0.0148667051, 0.0076984651, 0.0109657189, -0.0071516172, 0.0523164012, 0.0184478685, 0.0136150056, -0.0129916295, -0.0166645367, 0.0421769135, 0.0224206317, -0.0654799268, -0.0454406068, 0.0246225651, 0.0203800984, 0.0379674509, -0.0148160569, 0.0248809978, 0.0606886037, -0.0208988152, 0.0087890318, -0.0015561868, -0.0503043383, 0.0723161548, 0.0193712041, 0.0859588087, -0.0081700599, 0.0593206696, -0.0343112051, 0.0439757146, 0.0082717156, 0.0173662547, 0.0477490649, -0.0275617894, 0.0277868658, -0.0096334005, -0.0235191938, 0.0761647448, 0.0768594518, 0.0117698554, -0.0260963179, 0.0350030027, -0.0096989004, -0.0239368510, 0.0304192156, -0.0711346492, -0.0635087639, -0.0544762909, -0.0043746745, -0.0446069725, -0.0366168432, -0.0976842046, 0.0055440087, 0.0120320637, -0.0689126775, -0.0233096983, 0.0323701315, -0.0478913002, -0.0601269454, -0.0246185958, 0.0028757791, 0.0930977389, 0.0282609388, 0.0439901985, -0.0004995472, -0.0131040988, 0.0616564341, -0.0743108019, -0.0362727232, 0.0329628102, -0.0336075425, 0.0923943296, -0.0046297633, 0.0028387469, 0.0213071946, -0.0153478440, -0.0331025310, -0.0400299579, 0.0276856683, 0.0466287285, -0.0108351372, -0.0517514087, -0.0598190725, 0.0200578719, 0.0107781803, -0.0255734846, 0.0131002693, -0.0783094391, 0.0327349864, -0.0091807144, -0.0357890949, 0.0427243486, 0.0397746973, 0.0271123871, 0.0145183485, 0.0015859830, 0.0206204932, -0.0248294529, 0.0308124330, 0.0331880189, -0.0483224913, -0.0008868171, 0.0313336216, -0.0473890789, 0.1094875261, -0.0326992460, -0.0294968206, 0.0102243517, -0.0569684654, -0.0289809238, 0.0633154809, -0.0277937297, 0.0349459536, -0.1318728030, 0.0005792932, -0.0524499752, 0.0035672218, 0.0181122012, 0.0189522095, 0.0368700437, -0.0504729040, 0.0338813588, -0.0018727123, 0.0148835536, -0.0055001588, -0.0280060135, 0.0718129203, -0.0647808611, 0.0033117607, -0.0508304574, 0.0108150654, -0.0476833135, 0.1103671417, -0.0799475312, 0.0129192974, 0.0510064512, 0.0468022898, -0.0202277880, 0.0128511516, -0.0217631813, -0.0092780404, -0.0656563640, -0.0786610767, -0.0220616907, -0.0651690215, -0.0302558281, -0.0422926955, 0.0249541719, 0.0245801806, 0.0252024643, 0.0901781693, -0.0642336383, 0.0006319869, 0.0508622341, 0.0570807569, -0.0220561083, 0.0765233189, -0.0011896613, -0.0001344383, -0.0579026416, 0.0129095428, 0.0288208146, 0.0112359673, 0.0476011597, 0.0170103107, -0.0084679127, -0.0005390363, -0.0179178361, 0.0477805808, 0.0343805663, 0.0552308522, 0.0120795611, 0.0502890460, -0.0095879966, 0.0054052901, 0.0291735753, 0.0478096679, -0.0271133017, 0.0639630854, -0.0001385096, 0.0240626726, -0.0185843036, 0.0257182214, -0.0193607062, -0.0656164140, 0.0172877628, 0.0333826244, -0.0504050739, -0.0355307907, -0.0109400703, 0.0553461351, 0.0748782307, -0.0400880091, -0.0630940571, 0.0381988436, -0.0400073491, -0.0081657702, 0.0635719374, -0.0540876240, -0.0133185331, 0.0125926668, -0.0659043416, 0.0777816623, 0.0856602490, 0.0291391443, -0.0781800300, 0.0249452759, -0.0084844809, 0.0053959000, 0.0016013916, 0.0584591329, -0.0359183252, -0.0438164845, 0.0081721991, -0.0159453545, 0.0044317297, -0.0645740032, 0.0373774916, -0.0384717807, -0.1184252277, -0.0154436044, 0.0178605951, -0.0280752163, -0.0503363907, 0.0196134038, 0.0108348997, -0.0336793177, 0.0851339996, -0.0216432586, 0.0249464810, -0.0692820400, 0.0001038111, 0.0267688148, 0.0837233737, -0.0190327018, 0.0567520037, 0.0015016061, 0.1084598005, -0.0057600238, 0.0400603078, 0.0347257704, 0.0882595927, 0.1005829126, -0.0561771169, 0.0398836434, -0.0073950458, -0.0030150353, -0.0010036008, 0.0298839211, -0.0490633622, -0.0151312323, 0.0174662098, 0.0637988672, -0.0773059502, -0.0033213280, 0.0153723275, -0.0441584475, 0.0534116440, -0.1054848135, 0.0595360510, -0.0037330408, 0.0062420121, -0.0632998645, -0.0183679704, -0.0201199502, 0.0197115578, -0.0618276484, 0.0520916693, 0.0017037665, 0.0512463562, 0.0001107761, 0.0257732198, 0.0249785390, 0.0562457219, 0.0542464592, 0.0115184411, 0.0206064880, 0.0176592134, 0.0332646742, -0.0033210544, -0.0438371450, 0.0665006116, 0.0218203980, 0.1158483326, -0.0136107747, -0.0046927705, 0.0115366923, 0.0238814186, -0.0088784816, -0.0407972932, 0.0619063303, 0.0116731003, 0.0285294838, -0.0456202105, -0.0221893899, -0.0682713315, -0.0060043405, -0.0134232035, -0.0091681425, -0.0053650429, -0.0272211917, 0.0291348808, -0.1267405599, -0.0027565558, 0.0473722667, -0.0385450721, -0.0564859584, 0.0118775303, 0.0544113368, 0.0285960175, 0.0641115680, -0.0491531938, 0.0343494602, -0.0605264679, -0.0308319051, -0.0371598266, -0.0055453535, 0.0177707933, 0.0180380009, -0.0394581780, -0.0348021165, -0.0348031260, 0.0408163704, 0.0187012143, -0.0191462692, -0.0092901150, 0.0191771276, 0.0141720474, 0.0710702688, -0.0830016807, -0.0015225387, 0.0189340003, 0.0023623782, -0.0093537867, 0.0687974542, -0.0085468236, -0.0468706563, -0.0512490757, -0.0622969083, 0.0003953045, 0.0434636176, -0.0121103963, 0.0136421826, -0.0122789582, 0.0352616645, -0.0178178903, -0.0156654697, 0.0140119381, -0.0178951714, -0.0207080394, -0.0791103095, 0.0274153687, 0.0080273058, -0.0033757477, 0.0013264418, 0.0230345093, -0.0210298020, 0.1002387106, -0.0526073240, -0.0522298105, -0.0012209342, -0.0165087823, 0.0344789512, 0.0018687120, -0.0234328583, -0.0131352143, -0.0861007273, -0.0019923882, -0.0118396124, 0.0059578195, 0.0383951105, -0.0031203004, -0.0837163851, -0.0453293286, 0.0100743715, -0.0584151670, 0.0584785342, -0.0251176190, -0.0295529924, -0.0878943354, 0.0904485807, -0.0091326265, -0.1030009463, 0.0100745587, -0.0020716595, 0.0105780074, 0.0623338558, 0.0016103867, -0.0935427025, -0.0238051470, -0.0927392766, 0.0254295655, -0.0258307382, 0.0315948799, -0.0247639678, 0.0342246145, -0.0071775932, -0.0098291012, 0.0389141701, 0.0265447553, -0.1002260149, 0.0541349240, 0.0693987682, 0.0288891122, -0.0282142684, 0.0300195049, 0.0014538842, 0.0115267653, 0.0162827596, -0.0445664115, -0.0272037704, 0.0101636080, -0.0783724785, 0.0923124999, 0.0111346468, 0.0396191142, -0.0170505121, 0.0881391093, -0.0252053589, -0.0117482049, 0.0775396526, 0.0046893009, 0.0435520075, -0.0308977067, 0.0259447098, -0.0244663227, 0.0132595561, 0.0578535981, -0.0068912129, 0.0701597333, 0.0134252636, -0.0577671751, -0.0166361015, 0.0567599833, -0.0179214701, 0.0312109161, 0.0980533734, -0.0379807241, 0.0127029596, 0.0390305184, 0.0458937883, -0.0403258428, -0.0116276825, 0.0734401494, -0.0622509457, -0.0705795065, 0.0032006402, 0.0018649199, -0.0013403525, -0.0879280567, -0.0230789930, 0.0562930740, 0.0244706944, 0.0594593734, 0.0393178426, -0.0747338757, -0.0738334805, 0.0581453443, -0.0141462181, 0.0520263538, 0.0205360167, -0.0153412269, -0.0299526416, 0.0693846047, -0.0024593261, 0.0227521136, -0.0114581203, 0.1141193435, 0.0191326831, -0.0096632177, 0.0129532637, 0.0122303618, 0.0355802551, 0.0048666382, -0.0323025919, 0.0799651816, -0.0392758809, 0.0508870110, 0.0650725961, 0.0311687030, -0.0250753686, -0.0478056185, -0.0660574511, 0.0803295374, 0.1416508555, 0.0152230915, -0.0553033017, -0.0079444880, 0.0469214953, -0.0125396308, 0.0077422638, -0.0195240080, -0.0628008172, -0.1548345387, 0.0499512777, 0.0187612772, 0.0401693806, -0.0353348739, 0.0880956575, -0.0501758158, -0.0137809385, -0.1232480109, 0.0648286939, -0.0176060349, -0.0287128929, 0.0148098869, 0.0541046001, -0.1154200435, 0.0391742364, 0.0347102992, -0.0027314848, -0.0284114126, 0.0150884707, -0.0209075771, 0.0519657619, -0.0911016241, -0.0344196074, 0.0199929904, 0.0113888402, 0.0184860714, 0.0751444995, 0.0666831285, -0.0820448771, -0.1423947811, -0.0316812322, 0.0143099325, -0.0004621436, 0.0565329678, 0.0443915427, -0.0373028331, -0.0152749280, -0.0195961893, 0.0542055890, 0.0408723056, 0.0137685705, 0.0335501544, -0.0418828577, 0.0324313901, 0.0018704672, -0.0157004874, 0.0532018021, -0.0378732570, -0.0075556007, -0.0158650223, 0.0195239335, 0.0333562344, 0.0827498138, -0.0240473300, 0.0265720095, 0.0232179388, 0.0519732572, -0.0121078389, 0.0326165482, -0.0250347164, 0.0171869565, 0.0697108656, -0.0399292111, 0.0486719087, 0.0863331184, 0.0292322338, 0.0245935638, 0.0142272841, -0.0706270114, -0.0280108135, 0.0658970922, -0.0059476243, 0.0435511768, -0.0404393412, -0.0203344915, 0.0481527299, 0.0407835729, 0.0317088775, -0.0384853184, -0.0720901713, -0.0901434198, -0.0273253322, -0.1064958274, 0.0370175615, 0.0644541904, -0.0279372688, 0.0151732890, -0.0343104303, 0.0011879484, 0.0934617519, -0.0076161749, -0.0491735116, -0.0464450568, 0.0326174647, -0.0041616294, 0.0607151836, -0.0603049695, 0.0654485598, -0.0744370073, 0.0552407168, 0.0225808229, -0.0035169639, 0.0125218770, -0.0056303302, 0.0512491353, -0.0516645089, -0.0076974682, 0.0876133367, 0.0249855202, 0.0341088064, -0.0781026110, -0.0037179568, -0.0603388473, 0.0730276182, 0.0189039279, 0.0477749221, -0.0741442144, -0.0314758904, 0.0011567737, -0.0538627580, -0.0226747319, -0.0641821474, -0.0128858248, 0.0821963847, -0.0142258611, 0.0294240247, 0.0589681044, -0.0009184516, 0.0737014562, 0.0142262299, 0.0047164699, -0.0285783689, 0.0112667494, 0.0111478614, 0.0288150683, 0.0324768797, 0.0315956585, 0.0375616290, 0.0426685549, 0.0225322451, 0.0935302973, -0.1371911615, -0.0132288858, 0.0829746425, -0.0080628600, -0.1076406464, -0.1070445776, -0.0142211607, -0.0062887529, -0.0062679928, -0.0498198085, 0.0594692193, -0.0745051205, 0.0501395576, -0.0242384393, -0.0362542272, -0.0079642246, -0.0113180559, -0.1152025312, 0.0295547210, 0.0674891770, -0.0351460353, -0.0396645814, 0.0496134125, -0.0023296119, 0.0810790733, -0.0122306934, -0.0303250197, 0.0305317212, 0.0261818003, -0.0730164275, 0.0141437994, 0.0207726005, -0.0299085733, 0.0270183515, -0.0434714295, 0.0441102423, 0.0186393540, 0.0574221276, 0.0555449463, -0.0953247249, 0.0403470807, -0.0211645849, -0.0311412774, 0.0426532291, -0.0575125925, -0.0655556545, -0.0234225411, -0.0381482318, -0.0370376632, 0.0121456888, 0.0031970099, 0.0129251005, -0.0093838740, 0.0024570799, -0.0589461140, 0.0379914716, 0.0174523424, 0.0285693891, 0.0399717242, -0.0777933821, 0.0396320857, -0.0006674703, 0.0077292928, 0.0781093985, 0.0556536242, -0.0618418418, 0.0518445149, -0.0034527848, -0.0181941781, -0.0508044474, 0.0115778334, -0.0315348022, 0.0675820187, 0.0379415452, 0.0160991941, -0.0114974417, 0.0545887761, -0.0830634609, -0.0164989233, -0.0590139404, 0.0315446481, 0.0323684849, -0.0421041250, -0.0561940856, 0.0142521532, 0.0071902075, -0.0159919225, -0.0065365843, -0.0377100557, 0.0591074750, -0.0568218306, 0.0497788191, -0.0083339987, -0.0467457026, -0.0636216775, -0.0794579983, -0.0188342743, 0.1069087982, -0.0614290237, 0.0913626775, 0.0093269739, 0.0386340655, -0.0251526963, 0.0079687238, 0.0033328447, 0.0957379043, 0.0261960756, 0.0420937315, 0.0462008454, -0.0132446522, -0.0185471904, -0.0700230598, 0.0218407828, -0.0407501720, 0.0878082290, 0.0152356159, -0.0341815129, -0.0462750196, -0.0212009251, -0.0198451858, -0.0328287445, 0.0273374170, 0.0417894386, 0.0262763165, -0.0031459611, 0.0048399130, -0.0095332945, 0.0410243459, -0.0340339467, -0.0278391913, 0.0008202026, -0.0223906692, -0.0003411531, -0.0087279258, 0.0056784656, -0.0342213474, 0.0140140411, 0.0144298505, 0.0063613434, -0.0547940880, -0.0438164957, -0.0030122360, 0.0568947457, 0.0919071063, -0.0348067135, -0.0496478938, 0.0024934064, 0.0497489162, 0.0437956862, -0.0109005915, -0.0083139054, 0.0075700525, 0.0338839740, 0.0445363261, -0.0079652574, 0.0219890047, -0.0108951516, 0.0162089672, 0.0427469276, -0.0392001495, 0.0448412523, 0.0288548376, 0.0308209173, 0.0137652718, 0.0260457993, 0.0425196961, -0.0605693683, -0.0336694829, 0.0037547590, 0.0072176610, -0.0147623513, -0.0065103169, -0.0099793207, 0.0506094880, -0.0213881135, -0.0190147236, 0.0062664822, 0.0222558845, -0.0042720833, 0.0145677384, -0.0707909539, 0.0400238968, 0.0341276675, 0.0073166178, -0.0118511245, 0.0267082397, -0.0215795189, 0.0566664524, 0.0242427215, -0.0663784891, 0.0749034211, -0.0410998538, -0.0697584227, -0.0478243195, -0.0002053680, -0.0356614664, 0.0333739892, -0.0980534106, 0.0179781672, -0.0542741306, -0.0575825796, -0.0411571115, 0.0038488414, 0.0284753460, 0.0001511325, -0.0029201983, -0.0648111030, -0.0344383977, 0.0227595940, -0.0199964587, -0.0877311826, 0.0400164835, -0.0017524417, -0.0327604525, -0.0359330289, 0.0610984005, -0.0038153157, 0.0349471755, 0.0475740433, -0.0188174918, -0.0196681507, 0.0060103545, 0.0342402421, -0.0641209558, -0.0425711572, -0.0631838962, 0.0633911565, -0.0946752504, -0.0400108248, 0.0621036515, 0.0005795785, 0.0113638788, -0.0150468899, 0.0303420722, 0.0616102554, -0.0395339616, 0.0238740873, -0.0667393357, 0.0350469686, -0.0606834628, -0.0409243889, -0.0030760104, 0.0069038640, 0.0456015430, -0.0536961779, -0.0189406592, 0.0210822672, -0.0034570794, 0.0007172289, -0.0940812454, -0.0005735694, -0.0201395806, 0.0333069079, -0.0593446195, -0.0091716591, 0.0303105414, 0.0357641168, -0.0670645609, -0.0014390270, 0.0477028117, 0.0383532606, 0.0133712282, 0.0518796816, 0.0250004679, 0.0668491423, -0.1197260693, -0.0359603353, -0.0743123814, -0.0735769644, -0.0308790505, -0.0537448563, 0.0437839702, -0.0636074841, -0.0445505083, 0.0284642633, 0.0196017064, 0.0068364539, 0.0686616376, 0.0252353717, -0.0335426554, -0.0346612111, 0.0290141907, 0.0443505943, 0.0295812637, -0.0654239878, 0.0487270430, -0.0004620697, -0.0833599865, -0.1119174287, 0.0173928328, -0.0857204199, 0.0920947492, 0.0159905627, -0.0364228413, 0.0396224447, 0.0327215157, 0.0832426399, 0.0328824185, 0.0297478903, -0.0540687852, 0.0273366570, -0.0165592600, -0.0093758889, 0.0307692420, -0.0096391989, -0.0499217100, -0.0542612150, -0.0971859694, 0.0454575792, -0.0770789236, 0.0458668172, 0.0033853280, 0.0424971096, -0.0631266162, -0.0014311936, 0.0092811501, 0.0030656678, 0.0227393117, 0.0981910676, 0.0600776188, 0.0443605632, -0.0427204184, -0.0214327201, -0.0431007221, -0.0370378010, -0.0295281578, 0.0042095226, 0.0375191048, 0.0605766103, 0.0434451774, -0.0901183635, 0.0021004681, 0.0024073091, 0.0265185796, 0.0309989508, 0.0834639594, -0.0455003120, 0.0689983666, 0.0064574699, 0.0065854602, -0.0150705269, -0.0281014349, -0.0104591157, 0.1258073747, 0.0609210059, -0.0297903679, 0.0145756071, -0.0080157546, -0.0949767828, -0.0580381192, 0.0175063852, 0.0164836217, 0.0339373164, -0.0538103580, 0.0025166702, -0.0405705199, -0.0848545209, -0.0108530568, 0.0242214762, 0.0078788977, -0.0529152974, 0.0055564702, -0.0596599653, 0.0195859391, -0.0523990691, -0.0882220492, 0.0072246138, 0.0225317515, 0.0871133134, -0.0249896012, -0.0389841311, 0.0357192792, -0.0301537272, 0.0846305639, 0.0056613530, -0.0073902179, -0.0157239288, 0.0619302914, -0.0416460671, 0.0344603360, -0.0049385028, 0.1036998630, -0.0221578944, 0.1001279429, -0.0244352315, -0.0359618254, -0.0157578271, 0.0302848388, -0.0445057973, -0.0621358193, 0.0281858724, 0.0257200338, 0.0518850572, 0.0854337886, 0.0089331213, -0.0142326560, 0.0289174058, 0.0345563777, -0.0087622264, -0.0048511960, -0.0713162944, 0.0654113293, 0.0336374454, 0.0250604898, 0.0390363932, -0.0423114821, 0.0165207442, 0.0715846717, -0.0794690102, 0.0048638131, -0.0010453436, -0.0293649007, -0.0249347463, 0.0076358025, 0.0186706688, -0.0871205851, -0.0516183227, 0.0434997603, 0.0074798353, 0.0142831448, 0.0094648907, -0.0478311516, -0.0373012796, 0.0506426543, -0.0319667086, -0.0562256314, -0.0304604713, -0.0960971341, -0.0288935788, -0.0837677047, -0.0295061506, -0.0661858395, 0.0030211287, -0.0420243852, -0.0297496617, 0.0323208831, -0.0388065577, -0.0063332738, -0.0722600967, 0.0510343574, -0.0105906390, 0.0119812824, 0.0418768339, 0.0356018245, -0.0076027811, -0.0166230034, 0.0396077521, -0.0048474907, -0.0439210571, -0.0491571836, -0.0823854506, -0.0503373034, 0.0348452553, -0.0062998817, -0.0178355239, -0.0270255692, 0.0487504415, 0.0540117323, 0.0047607534, -0.0107692089, -0.0180217996, 0.0191077832, 0.0571880341, 0.0735566989, 0.0446499288, -0.0454035960, 0.0171295628, -0.0065145167, 0.0211738311, -0.0112879034, -0.0533680990, -0.0231144410, 0.0027817085, 0.0178298391, -0.1187537685, -0.0040141875, 0.0227117948, 0.0715472028, -0.0020588280, 0.0158804487, -0.0317590907, -0.0410538614, -0.0172998421, -0.0371663943, -0.0085725635, 0.0312228557, 0.0187334660, 0.0135610914, 0.0316205285, -0.0064454465, 0.0584472679, -0.0055320631, -0.0568846539, 0.0599868372, 0.0410332568, -0.0147880493, -0.0927697495, -0.0439547002, -0.0054847631, 0.0245220065, 0.0612374023, -0.0574661605, -0.0319099389, -0.0419813022, 0.0359583199, 0.0526940078, -0.0411004312, -0.0124105709, 0.0406471901, 0.0639950931, 0.0331234001, 0.0395115502, 0.0313478634, -0.0575248078, -0.0406430326, -0.1328188479, -0.0972150043, 0.0091582630, 0.0428980067, 0.0035803108, 0.0247505531, -0.0471075624, 0.0317302458, -0.0079215486, -0.0058790278, 0.0243964698, 0.0100995498, 0.0411678292, 0.0678046048, 0.0348059759, 0.0454460420, 0.0413668267, 0.0424364693, 0.0664923340, -0.0649214610, -0.0752565339, 0.0423111506, -0.0724966377, 0.0476065576, 0.0173478927, -0.0435704775, -0.0255539678, 0.0428366661, 0.1090844274, -0.0105333412, 0.0442994274, 0.0043126340, 0.0207229462, 0.0251073875, -0.0012581848, 0.0054138605, -0.0234129094, 0.0117819998, -0.0343152583, -0.0408213586, 0.0346143618, 0.0690322667, 0.0168466493, 0.0295454152, 0.0052524842, -0.0004814717, -0.0745240748, -0.0856552571, -0.0217723977, 0.0055479459, -0.0093026394, 0.0316826962, 0.0532334186, -0.0581679270, 0.0451047793, 0.0040799482, 0.0413936712, -0.0427395515, 0.0071878056, 0.0713825002, 0.0095192567, -0.0296260100, 0.0220346730, -0.0810001716, 0.0275103170, -0.1022953689, 0.0746395662, 0.0233525001, 0.0550342202, -0.0143151684, 0.0299354978, -0.0375846699, 0.0204916764, -0.0190850850, -0.0290870089, -0.0301513150, 0.0072602835, 0.0466165543, -0.0288021397, -0.0525990687, 0.0162575226, -0.0498502180, -0.0470958501, -0.0103470013, -0.0280494466, -0.0048032929, -0.0734635592, 0.0034809888, 0.0922623351, -0.0255244393, 0.0011999209, 0.0066865971, 0.0854891315, -0.0221376959, -0.0168535970, -0.0208339542, -0.0600959547, 0.0030396695, 0.0491147786, 0.0973613039, -0.0560604781, 0.0323169231, 0.0509552173, -0.0215465482, 0.0381685048, -0.1001186147, -0.0180847384, 0.0240057986, 0.0088040922, 0.0519409254, 0.0009781880, -0.1239209101, 0.0151493913, -0.0851369053, -0.0224010032, 0.0420979038, 0.0669960678, -0.0096136294, 0.0036203582, 0.0381305814, 0.0363479145, 0.0034032750, -0.0006020993, 0.0491437502, -0.0549927577, -0.1345351785, 0.0025072827, 0.0778198466, -0.0153703233, 0.0337399058, -0.0503060855, -0.0034075591, -0.0654759258, 0.0149454344, 0.0222921465, 0.0303565469, -0.0287150107, -0.0783761069, 0.0385100581, 0.0487809628, 0.0473670140, 0.0607917346, 0.0296171103, 0.0264809653, 0.0631376803, 0.0133553622, -0.0206330214, 0.0034774726, 0.0196869131, 0.1021320298, -0.0344525501, -0.0377111286, -0.0508216359, 0.0840748772, -0.0312393084, 0.0083011342, -0.0558148660, -0.1168083474, 0.0687794313, -0.0228492841, -0.0968333185, 0.0104455352, 0.0146601582, 0.0394654945, 0.0580248311, -0.0144636948, 0.0275684092, -0.0065207775, -0.0510370508, 0.0013769527, -0.0465514101, 0.0245041456, -0.0354828946, -0.0288782828, -0.0155757926, -0.0925214961, 0.0534387901, -0.0797819495, -0.0329936333, 0.0261643603, 0.0363347419, 0.0332283787, 0.0460136011, 0.0215852298, -0.0137925949, 0.0199264456, 0.0129925497, -0.0313847773, 0.0123423850, 0.0127559444, -0.0163932964, 0.0726497546, 0.0197453890, 0.0335769504, -0.0333905667, -0.0324555524, -0.0272714589, -0.0975712612, 0.0186593812, -0.0300176460, 0.0283066686, 0.0322659500, 0.0152773065, 0.0385469422, 0.0865613818, 0.0094677899, 0.0148653593, -0.0225463752, -0.0166003089, -0.0533514507, 0.0359080099, 0.0074264025, -0.0446652137, -0.0299942400, 0.0842504948, -0.0289659426, -0.0940109491, -0.0605815612, -0.0912796408, 0.0707592741, -0.0478839427, 0.0527051538, 0.0485265777, 0.0274997894, 0.0645835027, -0.1041749418, -0.0170749389, -0.0652995482, -0.0626830459, 0.0226977486, -0.0083012851, -0.0236519631, 0.0312497094, -0.0245797615, 0.0136169586, -0.0217456277, 0.0198012535, -0.0052379211, -0.0098024551, 0.0504594818, 0.0044770855, 0.0335921161, 0.0498501994, 0.0262088161, -0.0149301123, 0.0361978151, 0.0170566440, -0.0333667360, 0.0380103365, -0.0064728945, 0.0413571335, 0.0183777139, 0.0540515259, 0.0211766884, -0.0373837613, -0.1066148430, 0.0646739602, 0.0056863693, 0.0054797595, -0.0082175434, 0.0065591177, 0.0183183178, -0.0343823694, 0.0311236754, -0.0299019963, -0.0562161207, -0.0685834065, 0.0111314207, -0.0301454850, -0.0214246884, 0.0008666778, 0.0187347438, -0.0383268036, 0.0070172483, 0.0703220144, -0.0501307026, 0.0046435711, -0.0525531508, 0.0272176974, 0.0528339408, -0.0760958269, -0.0487297811, -0.0505269654, 0.0516072325, 0.0375334434, 0.0224025436, 0.0225702245, -0.0098155299, 0.0550966859, 0.0157206841, 0.1041398346, -0.0222824384, 0.0202889722, 0.0819554105, -0.0063787005, -0.0208450947, 0.0340659805, -0.0766274482, -0.0347603559, -0.0691489279, 0.0617088415, -0.0723046213, 0.0105141737, -0.0312564038, -0.0747023448, -0.0180180091, -0.0052638487, -0.0194055643, -0.0695760399, -0.0049796766, 0.0315902941, 0.0010079588, -0.0062573529, -0.0058501577, -0.0060785771, 0.0514667369, -0.0621616058, 0.1063686460, -0.0273819324, 0.0280024353, 0.0045246636, -0.0245197397, -0.0486832894, 0.0403889380, -0.0303003881, 0.0260874443, -0.0432307608, 0.0134934699, 0.0476387404, -0.0014193589, 0.0896111429, 0.0525207706, -0.0530205928, 0.0398645066, 0.0187729448, -0.0247316081, -0.0093870349, 0.0153803509, -0.0216520391, 0.0208032876, 0.0872784555, 0.0136675471, -0.0182174109, -0.0454866178, 0.0511712842, 0.0070254225, -0.0049932520, 0.0079967119, -0.0558441654, -0.0404229760, 0.0447710566, 0.0820108876, -0.0088909753, -0.0195523668, 0.0304883551, -0.0374118276, 0.0405742191, -0.0721333623, -0.0141448854, -0.0429339260, -0.0182717796, -0.0028679385, 0.0181814544, 0.0343217179, -0.0457810834, 0.0095412033, -0.0147192013, -0.0062804851, 0.0086670471, 0.0205077548, -0.0380234532, 0.0060547446, 0.0155614940, -0.0339851566, 0.0913357735, -0.0421766713, -0.0460829735, -0.0482832491, -0.0578632317, 0.1058638021, 0.0053943996, 0.0279651750, 0.0240735579, 0.0908035412, 0.0261917468, -0.0723076612, 0.0285521224, -0.1099323705, 0.0271298867, -0.0078404872, -0.0603522286, -0.0519460030, 0.0579809584, 0.0271214843, 0.0148131764, -0.0140983742, 0.0421063602, -0.0177958049, -0.0211479571, 0.0749014914, -0.0361964777, 0.0439341851, 0.0588597655, 0.0001684629, -0.0369319171, 0.0614705682, 0.0602179877, 0.0121642398, -0.1505054384, -0.1084612533, 0.0225419775, 0.0051501193, 0.0466494486, -0.0232029743, -0.0222240910, -0.0195348766, -0.1107101589, 0.0248827189, -0.0363170840, -0.0414812043, 0.0241777487, 0.0880421549, -0.0318695083, 0.0339341573, -0.0425691381, 0.0341497734, -0.0391198806, 0.0674223229, -0.0096907513, -0.0637572855, 0.0489733703, -0.0625475049, -0.0268502813, -0.0784432516, -0.0936941803, 0.0175855309, -0.0267916899, -0.0446739309, -0.0325809568, 0.0945890322, -0.0405971110, -0.0750997812, 0.0585002601, -0.0082198894, 0.0711244568, -0.0176199079, 0.0172967296, -0.0158584174, 0.0085866330, 0.0181214381, -0.0521824323, 0.0119306054, -0.0512003116, -0.0610457025, -0.0467888489, 0.0018381604, 0.0679136664, -0.0127534801, -0.0174120087, 0.0073314202, 0.0200470686, 0.0145698739, 0.0136694890, -0.0043959282, -0.0031445550, -0.0080696484, -0.0025972852, -0.0285448544, 0.0343434699, 0.0306847859, 0.0019791475, 0.0398609452, 0.0111983670, 0.0239404477, -0.0382194147, 0.0062909368, -0.0010189210, 0.0904114693, -0.0076764557, -0.0654447675, 0.0177729949, -0.0371109284, -0.0501992963, 0.0668205544, -0.0865027979, -0.0703714788, -0.0164758079, 0.0756618083, -0.0355578065, -0.0111314440, -0.0453009494, 0.0968401209, -0.0074020522, -0.0231507532, 0.0713050067, -0.0360954441, 0.0609609075, 0.0027463401, -0.0516077168, -0.0708242655, 0.0620360300, -0.1125453860, 0.0083316769, -0.0176117457, 0.0404527560, -0.0251237210, 0.0047448748, 0.0781259164, 0.0105058318, 0.0261002965, -0.0752001628, 0.0154701434, 0.0918026641, 0.0668713897, 0.0583159700, -0.0529822893, 0.0049866289, 0.0088740569, -0.0013774802, 0.0708809197, -0.0167332552, -0.0056401016, 0.0257049035, -0.0143500771, 0.0190658681, -0.0576838143, 0.0388606526, 0.0523633063, 0.0352060124, 0.0933962166, 0.0712089092, 0.1040228903, -0.0628712475, 0.0436208211, 0.0185337495, 0.0373861045, 0.0553052835, -0.0171262268, -0.0661406517, -0.0381278060, -0.1026767716, 0.0213654377, 0.0065144058, 0.0005371940, -0.0266204253, 0.0477258377, -0.0563675836, -0.0424847752, 0.0487904474, 0.0540154651, 0.0923227295, 0.0288371276, 0.0226869378, -0.0129013080, 0.0163345095, -0.0024414905, 0.0274870433, 0.0129906759, 0.1528156847, 0.0135784419, -0.0531834997, -0.0314411297, 0.0673051327, 0.0223341081, 0.0078837918, -0.0013495061, -0.0928674713, 0.0492009185, 0.1069838256, 0.0342765376, 0.0010830711, -0.0346589275, -0.0574706607, 0.0554127246, -0.0012255713, 0.0112367673, 0.0719179437, 0.0552725121, 0.0453565419, 0.0018630020, -0.0123174135, -0.0160910636, 0.1011787802, -0.0039924192, 0.0215104558, 0.0648771152, 0.0390607603, 0.0028621266, 0.0045374082, -0.0544686243, -0.0217574760, 0.1148635745, -0.0771784633, -0.0187047776, -0.0265197791, -0.0552166738, -0.0739777461, 0.0178980567, 0.0528033674, -0.0192080289, -0.0159031395, 0.0141840382, 0.0723008662, 0.1078778729, 0.0538229570, -0.0052756611, -0.0037297935, -0.0691746175, 0.0217835475, -0.0424308628, 0.0855437294, 0.0164299551, 0.0631356984, -0.0315036215, -0.0168611389, 0.0140238861, -0.0003598064, 0.0056146933, 0.0129289459, 0.0160342809, -0.0371132754, 0.0179942790, -0.0913834274, 0.0318127647, 0.0045302170, 0.0332748704, -0.0007225471, 0.0261555053, -0.0578808039, -0.0258424450, -0.0978907123, 0.0811276063, -0.0347319953, 0.0677327290, -0.0323368460, -0.0338496119, 0.0638055578, 0.0453230701, -0.0122006470, -0.0833575875, -0.0097878939, 0.0112629784, -0.0310444534, 0.0007347537, -0.0432899222, -0.0695759133, -0.0230571721, 0.1065587997, 0.0345963053, 0.0639465526, 0.0232346319, -0.0677187070, -0.0281982403, 0.0110168448, 0.0213653017, 0.0467786007, 0.0216671675, 0.0240763165, 0.0183303654, 0.0286161508, 0.0137668885, -0.0254109949, 0.0263764821, -0.0541533008, -0.0041882433, -0.0497159511, -0.0367754363, -0.0650632605, 0.0334146135, -0.0810114890, -0.0240724329, -0.0635438412, 0.0760458410, 0.0122687956, 0.0255479384, -0.0352352001, 0.0344244353, 0.0692553371, -0.0220802464, -0.0142488237, -0.0130614024, -0.0738878027, -0.0180380251, -0.0486895107, -0.0068406244, -0.0427340828, -0.0025000963, -0.0358993001, 0.0207753256, 0.0034561863, -0.0023226708, 0.0281752963, -0.0436582565, -0.0716270208, -0.0502541550, -0.0200987868, 0.0101232594, -0.0511815585, -0.0596393198, -0.0327428356, 0.1015788317, -0.0008691053, -0.0181110110, 0.0293425731, -0.0074416548, 0.0312385801, -0.0532283112, -0.0638332739, -0.0157350730, 0.0412976854, 0.0058596288, 0.0523985513, 0.0180667359, 0.0177449975, -0.0104282117, 0.0340111181, -0.0195186175, -0.0113021638, 0.0657489598, 0.0074347556, -0.0621031262, -0.0059555862, -0.0076498264, -0.0217730626, 0.0008304186, 0.0052740751, 0.0340072624, 0.0148354406, -0.1275947690, 0.0561290085, -0.0094060507, -0.0543989688, -0.0021412661, -0.0340007655, 0.0014102492, -0.0190678649, 0.0474620834, -0.0207790677, 0.0308727715, 0.0405042544, 0.0008228809, 0.0541200042, 0.0207171589, 0.0036023897, 0.0059526553, -0.0225722399, -0.0926984623, 0.0458165519, 0.0099159647, -0.0710603446, -0.0222952515, 0.0461138748, -0.0255322699, 0.0529550128, 0.0331671946, -0.0109989326, -0.0540225431, -0.0173768830, -0.0044374913, -0.0036748888, 0.0877908319, 0.0011140937, -0.0759508610, 0.0325646996, 0.0529239327, 0.0248259585, 0.0441100672, -0.0140705928, -0.0671957582, 0.0145881800, -0.0671453699, 0.0552970693, -0.0441632904, 0.0353046320, -0.0636233538, -0.0128327683, -0.0603727847, -0.0243004300, 0.0288466718, -0.0896664560, 0.0075508393, 0.0298758149, -0.0649290159, 0.0644345284, 0.0216503795, -0.0728565976, 0.0547904558, -0.0105310325, 0.0508382283, -0.0236903485, -0.0045628385, 0.0960863531, 0.0307858828, -0.0214288663, 0.0034642967, 0.0916597843, 0.0432179645, 0.0078299064, -0.0302007180, -0.0552893430, -0.0103417058, -0.0274013225, 0.0469584912, -0.0133399926, 0.0533287898, 0.0112953223, -0.0348500200, 0.0387041830, 0.0345351212, -0.0395519286, -0.0045429133, -0.0739275590, 0.0313227102, 0.0217157602, -0.0254697800, 0.0662652850, -0.0185445417, 0.0187100656, -0.0978007913, 0.0141649861, -0.0354315042, -0.0012560013, -0.0746915787, 0.0007889067, -0.0762267038, -0.0221732240, -0.0221509915, 0.0615399145, -0.0214630514, 0.0901658833, 0.0041912841, 0.0751647726, 0.0119892387, 0.0652856752, 0.0263743680, -0.0122272940, -0.0047261720, 0.0578385554, -0.0237810723, -0.0398558602, 0.0705822781, 0.0290049594, 0.0431191251, -0.0118413782, -0.0225520134, 0.0378935821, 0.0572963916, -0.0859147832, -0.0424502604, -0.0588426553, -0.0214021858, -0.0150006181, 0.0556256697, 0.0410872549, 0.0785634071, 0.0514563583, 0.0011280598, 0.1167698130, 0.0200675596, -0.0044231829, 0.0503127426, -0.0115866913, -0.0399972610, -0.0061587272, -0.0837516710, -0.0669475868, -0.0562067591, -0.0148709100, -0.1065081432, -0.0466557294, -0.0280391220, -0.0824339241, -0.0262137260, 0.0368344523, 0.0522700995, 0.0270115081, 0.0909367651, -0.0043965806, -0.0285318326, 0.0779852420, -0.0450073108, -0.0129110888, -0.0213019811, -0.0756537393, 0.0073791379, -0.0431777537, 0.0724996924, 0.0032158985, 0.0869528502, -0.0006295376, 0.0018323759, 0.0093608452, 0.0224129818, 0.0452655889, -0.0047529670, 0.0277073402, -0.0179573689, -0.0564104915, 0.0388448201, -0.0187811162, -0.0023493466, -0.0027920536, 0.0331823342, -0.0147934398, -0.0535374321, 0.0482957475, 0.0594465397, -0.0061352253, 0.0120907342, -0.0138176605, 0.0217193216, -0.0325184651, -0.0784098282, 0.0157020018, -0.0040776036, -0.0485893078, 0.0874420553, -0.0250053853, 0.0675697029, -0.0397927947, 0.0233977325, -0.0279380046, -0.0122496244, -0.0165771767, 0.0248562135, 0.0245019626, -0.0653195605, 0.0412242897, -0.0200664885, -0.0647030026, -0.0276619960, -0.0165305380, 0.0166833401, 0.0334321633, 0.0391499177, 0.0081634186, -0.0155843105, 0.0243931767, -0.0122307846, -0.0347447768, -0.0559813008, 0.0886157453, 0.0101512875, 0.0033765219, 0.0276506711, 0.0743445829, -0.0687446594, -0.0864600539, -0.0162678231, -0.0034447680, 0.0379574560, -0.0622326992, 0.0613899715, 0.0139861768, 0.0592831522, 0.0670087263, 0.0327080674, -0.0000440829, -0.0173582919, 0.0011117174, -0.0272411741, -0.0041144132, -0.0267804544, 0.0673750713, 0.0105002401, -0.0083655296, -0.0443480350, 0.0454351529, 0.0878393427, 0.0300235935, -0.0486084521, -0.0146580320, 0.0610276312, 0.0647816136, 0.0493789054, 0.0419608094, -0.0975058749, -0.0288520847, 0.0192343965, 0.0376505703, -0.0171531644, 0.0205069054, 0.0526001006, -0.0704632178, -0.0043275650, 0.0433838516, -0.0249311104, 0.0730903223, 0.0437112786, -0.0343787409, 0.0617874041, 0.0419497006, -0.1182922795, -0.0151840774, -0.0115869651, -0.0232526846, 0.0315057673, -0.0645888075, -0.1461328864, 0.0473588891, 0.0298057292, 0.0731521547, 0.0081975991, 0.0626449063, -0.0080574416, -0.0172897559, 0.0473553948, 0.0814496949, -0.0233162716, 0.0511368848, 0.0088118929, 0.0352611728, -0.0343432985, -0.1109780744, -0.0372136906, 0.0160134733, -0.0319791771, -0.0144444751, -0.0194324236, 0.0284071844, -0.0272121523, -0.0349707268, -0.0232157074, 0.0486672595, 0.0466043465, -0.0459171198, 0.0256347563, -0.0270768348, -0.1225000843, 0.0436897874, -0.0005082717, 0.0539923757, 0.1292187870, -0.0586453527, -0.0742954910, 0.0162731167, -0.0346259773, 0.0402218401, 0.0344014056, 0.0099759884, 0.0034305379, -0.0015508743, 0.0494382046, -0.0655110031, -0.0547350422, -0.0556730442, -0.0573744886, 0.0040158546, -0.0603651442, -0.0703130141, 0.0324349850, 0.0049287556, -0.0309551321, 0.0560505614, -0.0137787890, -0.0388266407, -0.0782613307, 0.0621754937, 0.0318662450, 0.0258367192, -0.0106078014, -0.0524291582, 0.0188949686, 0.0472545214, -0.0762692690, -0.0768183246, -0.0632427111, 0.0391439162, 0.0559136420, 0.0303145647, -0.0532750152, -0.0029093160, 0.0059321607, -0.0561969765, -0.0860313252, -0.0738901868, -0.0517104492, 0.0043939236, 0.0017086043, 0.0019981884, 0.0055357013, -0.0712247342, -0.0476371385, 0.0125270700, -0.0241112635, 0.0341913514, -0.0162097421, -0.0040474734, -0.0319178253, -0.0963847786, 0.0198945086, 0.0139443949, 0.0116169620, -0.0208617020, -0.0256273430, 0.0219318438, -0.0141542908, -0.0207854286, 0.0345504098, 0.0215182491, -0.0899458379, 0.0262886398, 0.0440139323, -0.0250823628, 0.0806034580, 0.0611666031, -0.0438065231, 0.0189110637, -0.0551738255, -0.0211624410, -0.0383306406, -0.0340057276, 0.0603103004, -0.0039788773, 0.0628178641, 0.0015086551, -0.0469715670, 0.0046434985, -0.0090041170, -0.0395571552, -0.0194076002, -0.0191213340, -0.0392903723, -0.0083201025, 0.0409332626, -0.0182123072, -0.0203662682, 0.0623778701, 0.0096552745, 0.0120696090, -0.0211161189, -0.0331881940, -0.0501441471, -0.0736073256, 0.0010804648, -0.0070076212, -0.0535526201, -0.0557118282, -0.0033624202, 0.0534770116, 0.0674596950, -0.0077759959, -0.0328150615, -0.0114254896, 0.0107482253, 0.0025404752, -0.0626007766, 0.0269217398, -0.0378487632, -0.0191599801, 0.0829694048, -0.0158696417, -0.0538784936, 0.0332147926, 0.0404034443, 0.0533712171, -0.0212860219, 0.0043708831, -0.0376152992, -0.0016699459, 0.0373709239, 0.0089384718, 0.0017542297, 0.0858695731, 0.0334440768, 0.0283808000, 0.0294471271, -0.0569610074, 0.0036078156, 0.0142753534, -0.0444785208, 0.0467730165, -0.0095374379, -0.0528730713, 0.0448763482, 0.0173079241, -0.0028663827, 0.0085092057, 0.0010079390, 0.0271667540, 0.0583248362, 0.0052776067, 0.0202050917, -0.0052628517, 0.0262844842, 0.0146798017, 0.0518577248, 0.0157577898, 0.0232137814, -0.0104496628, 0.0608660989, -0.0190148223, 0.0294606388, -0.0055046449, 0.0342520289, -0.0074939025, -0.0995515883, -0.0479846112, 0.0000741230, 0.0847274736, -0.0070977123, 0.0031789944, -0.0712605417, -0.0743842199, -0.0129448129, -0.0113060959, -0.0232345406, 0.0174883287, -0.0549001619, 0.0242539104, -0.0114138639, 0.0052892086, 0.0059634587, -0.0313245915, -0.0442583188, 0.0276889447, -0.0130983815, -0.0545738563, 0.0170813166, 0.0310562272, 0.0587537885, -0.0659767985, 0.0730508938, -0.0523100719, 0.0666278154, 0.0003671988, 0.0347290859, 0.0446797982, 0.0280262716, 0.0740232319, -0.0658723116, -0.0237102807, 0.0417944267, -0.0675472766, 0.0461333618, -0.0359087437, -0.0065073604, 0.0456035696, -0.0405231118, 0.0488573089, -0.0180860329, 0.0240968484, 0.0141334971, 0.0407761000, 0.0543388426, -0.0352235213, 0.0462639779, -0.0515920818, -0.0417078771, -0.0822072998, -0.0753782168, 0.0474103726, -0.0752296075, 0.0141825397, -0.0127366083, 0.0469587594, 0.0508533344, 0.0051502553, -0.0790830180, 0.0864349455, -0.0622738674, 0.0094133904, 0.0149922948, 0.0169120859, -0.0354544707, -0.0859126970, 0.0372022018, 0.0143200094, 0.0301821064, -0.0498133861, 0.0135574471, 0.0179785080, -0.0410635173, 0.0145048862, 0.0678904504, -0.0191751681, 0.0151155042, -0.0305866245, 0.0467511378, 0.0127155511, -0.0070950128, 0.0431192294, -0.0842173547, -0.0470780469, 0.0274115112, 0.0026554589, -0.0107752150, 0.0433415659, 0.0053930930, 0.0310075488, 0.0093538817, 0.0567030162, 0.0001115348, 0.0458313823, -0.0474744402, 0.0267287400, 0.0218996126, 0.0157380830, 0.0219769999, 0.0155040268, -0.0274622701, -0.0561277270, 0.0304777455, 0.0302355178, 0.0158710573, -0.0505106896, -0.0555093959, 0.0210296065, -0.0182532333, 0.0179044511, 0.0328313410, -0.0401254296, 0.0018959818, 0.0223956760, -0.0185739584, 0.0471081883, -0.0528632924, 0.0184729565, -0.0227838811, 0.0439959839, 0.0025476161, 0.0037427431, 0.0244299229, 0.0199581552, 0.0096598109, 0.0340236686, -0.0400129333, 0.0242520832, -0.0029882656, -0.0351892710, -0.0377811678, -0.0795220062, -0.0245790090, 0.0736098513, -0.0029733831, -0.0808383152, -0.0509899035, -0.0766529515, -0.0517340228, 0.0238820072, 0.0071617928, -0.0435365178, -0.0472643934, -0.0230811648, 0.0590024479, 0.0873628482, -0.0544752367, 0.0282103699, -0.0587568022, 0.0210256316, -0.0500303023, -0.0179814175, 0.0043257363, -0.0252316631, 0.0458422303, -0.0137218321, -0.0492050350, 0.0300441030, -0.0458511151, -0.0062049497, 0.0667444542, 0.0050622607, 0.0412405245, 0.0551659055, -0.0386087969, 0.0213463511, 0.0276194718, -0.0115429750, 0.0276284665, -0.0332206115, 0.0000255764, 0.0556299947, -0.0094746295, 0.0257910322, -0.0256240983, -0.0035158177, 0.1165117994, -0.0344212949, -0.0312972181, -0.0250596963, 0.0337654576, -0.0195270218, -0.0534185953, 0.0557877198, -0.0271753371, 0.0786487162, -0.0417687111, 0.0012442091, -0.0316786282, -0.0194942486, 0.0022487959, 0.0107040079, -0.0096352808, -0.0228920300, 0.0275011361, 0.0046551316, -0.0216942951, -0.0378436148, 0.0545025319, -0.0247342885, -0.0076202033, 0.0185056869, -0.0050600599, -0.0226184558, -0.0042568604, -0.0005705594, 0.0082280552, 0.0006637144, 0.0178592857, -0.0494228005, 0.0054250294, -0.0195792783, 0.0801015645, -0.0327397287, -0.0263399985, -0.0090060690, 0.0255618524, -0.0540614650, 0.0293657463, 0.0191479810, 0.0168276988, -0.0006254188, 0.0128411697, 0.0271079093, -0.0032937375, -0.0257203579, 0.0577028356, 0.0027217863, 0.0110323960, 0.0104479007, -0.0319124758, -0.0433299579, -0.0279776827, 0.0307207033, 0.0428541414, 0.0283298939, -0.0109169567, 0.0500367768, -0.0309121758, -0.0104175173, -0.0411308035, -0.0315722935, 0.0068669524, 0.0832410157, -0.0092592807, 0.0182936788, 0.0158503652, -0.0259382688, -0.0397380628, -0.0334164910, 0.0088736787, 0.0477362275, 0.0233817156, -0.0155409770, 0.0550069958, 0.0211940873, -0.0179950744, 0.0329721756, 0.0995832756, 0.0565384254, 0.0543801412, -0.0743189007, -0.0358800925, 0.0065374216, 0.0133344186, 0.0194944218, -0.0211167280, -0.0615126006, 0.0036105337, -0.0315563343, -0.0460459217, -0.0538178459, 0.0428959541, 0.0776689872, 0.0445955284, 0.0205308720, 0.0024016893, -0.0136742676, 0.0107460432, 0.0224701855, -0.0544360094, 0.0154731376, 0.0017900348, -0.0024203521, 0.0624234527, -0.0387160107, -0.0421357714, 0.0044971770, 0.0375370756, 0.0152557781, 0.0187511221, -0.0782333985, -0.0661480576, 0.0429991893, -0.0456723087, 0.0220370684, -0.0353040285, 0.0320333168, 0.0182713866, -0.0007492636, -0.0169278085, 0.0037332673, 0.0234548170, 0.0244651344, -0.0529954769, -0.0548057519, -0.0205347277, -0.0143668195, 0.0693617538, -0.0083849244, 0.0039637731, 0.0332509875, 0.0187686849, -0.0009778646, -0.0986368358, 0.0207499918, -0.0953472629, -0.0049018036, 0.0085468423, -0.0403556153, -0.0714979619, 0.0386591740, 0.0450839624, -0.0221411642, 0.0187505018, 0.0200681426, -0.0147876181, -0.0602422468, 0.0277841557, 0.0059065041, -0.0173587576, -0.0664400384, -0.0114146974, -0.0142364642, -0.0059150900, -0.0395629108, -0.0157719553, 0.0797455907, -0.0343362764, -0.0324177369, 0.0461821519, -0.0230599213, 0.0167756397, 0.0259947218, -0.0583205521, -0.0351328067, -0.0380450711, 0.0341517814, -0.0107298139, -0.0142835332, 0.0314724669, 0.0677947626, 0.0082720742, 0.0296362434, -0.0138118109, -0.0066165742, 0.0182653647, -0.0060022706, -0.0316093750, -0.0083039133, -0.0189321488, 0.0355696864, 0.0136383725, -0.0108169140, -0.0287755299, 0.0393544473, 0.0627686754, 0.0281805675, 0.0198232010, -0.0137179913, 0.0313710906, -0.0241137203, 0.0031401238, 0.0481471829, 0.0471246205, -0.0484810360, 0.0600108616, 0.0152392266, 0.0468786359, 0.0288850926, -0.0460655987, -0.0080520753, -0.0384306051, 0.0409767553, 0.0261812136, -0.0221859515, -0.0789643973, -0.0479931124, -0.0439303853, 0.0091185691, 0.0609345213, -0.0168417282, -0.0162198078, -0.0326026902, -0.0415456146, -0.0312831961, -0.0162079502, 0.0044147149, -0.0244870130, -0.0257695392, 0.0067991330, 0.0307554472, 0.0256842636, 0.0393004641, -0.0248032864, -0.0225983206, -0.0249727536, -0.0723709241, 0.0665830970, 0.0310751572, -0.0435149558, 0.0304747671, 0.0026361113, 0.1041419581, -0.0851184353, -0.0064581791, 0.0405920632, 0.0060714241, 0.0037601052, -0.0313857980, -0.0023244096, 0.0036602770, 0.0467220284, 0.0943262801, -0.0454128310, -0.0345578156, 0.0127098933, -0.0167666916, -0.0374186598, -0.0422204137, 0.0193377007, 0.0396782719, -0.0036867659, 0.0658848062, 0.0188265182, 0.0651094541, 0.0416710004, -0.0617190339, -0.0228578430, 0.0550118089, -0.0031648981, -0.0089350296, 0.0006508977, 0.0518342257, -0.0935125053, -0.0058535994, 0.0428960398, 0.0202235747, 0.0139208995, -0.0001211930, -0.0429342315, -0.0309891757, -0.0079022404, -0.0102561368, 0.0018355249, -0.0138794053, 0.0418370813, -0.0028499281, 0.0263510365, 0.0077542686, 0.0470518433, 0.1024967283, -0.0823578089, -0.0056310417, 0.0184757076, 0.0218501091, -0.0229931325, 0.0960107073, -0.0285399463, 0.0096076494, 0.0011459048, -0.0304601714, 0.0026254563, 0.0335975364, 0.0013448254, 0.0643930063, -0.0243115444, -0.0353955962, -0.0033290256, -0.0462992862, -0.0288176276, -0.0917510688, 0.0252286326, -0.0719172210, 0.0096518677, 0.0401439816, -0.0065099918, 0.0471646488, -0.0053611570, 0.0522002727, 0.0036218583, -0.0435011759, -0.0127873002, -0.0488743149, -0.0122858072, -0.0053351899, 0.0324610658, -0.0600511096, 0.0095100962, 0.0206293166, -0.0496935807, 0.0432734005, 0.0258417130, 0.0305416137, 0.0075256834, -0.0192232523, 0.0664410070, 0.0291128270, 0.0158677641, 0.0360565744, -0.0560631081, 0.0889718980, -0.0284606479, 0.0196804777, -0.0421404056, -0.0611546449, 0.0071485713, 0.0548358187, -0.0840299353, -0.0251478981, -0.0118269613, -0.0383939557, 0.0031602280, -0.0200054534, -0.0215102024, -0.0948359892, 0.0399047695, 0.0467614643, -0.1320894808, -0.0923227146, -0.0388014913, -0.0132841766, 0.0596425794, -0.0288476963, 0.0123857176, 0.0039061459, 0.0363435671, 0.0899255872, 0.0084522059, 0.0271239746, -0.0279647354, -0.0598412789, 0.0846518874, 0.0135173574, -0.0349494405, -0.0440253615, -0.1049283519, -0.0640416294, -0.0015369783, 0.0064935614, 0.0203684010, 0.1068508998, 0.0092031946, -0.0088685788, -0.0604423061, -0.0808023512, -0.0732495859, 0.0048159542, -0.0052313381, 0.0175679550, -0.0063740877, 0.0113210799, 0.0489717834, -0.0178393107, -0.0351666547, 0.0306404755, 0.0642318502, 0.0821463391, 0.0332204178, 0.0570774749, 0.0302709974, 0.0664592013, 0.0865449309, -0.0368168913, 0.0474397540, -0.0330407172, -0.0253820345, -0.0128058773, -0.0661880597, 0.0964065865, 0.0250118095, -0.0426556505, 0.0673162714, -0.1646571308, -0.0087393783, -0.0741736293, -0.0414056666, -0.0046985215, 0.0054349853, -0.0449644811, 0.0800955817, -0.0227640383, -0.0329732373, -0.0117279654, 0.0295640845, 0.0601034984, 0.0188839808, -0.0333238430, -0.0896375999, -0.0023211921, -0.0242964998, -0.0033443642, 0.0111007737, 0.0615570955, 0.0078140423, -0.0089873299, -0.0529376455, -0.0528468639, 0.0030997330, -0.0584865846, 0.0131836142, -0.0376114063, -0.0091052176, -0.0021223577, 0.0568723716, -0.0132953236, -0.0002275800, -0.0116246780, 0.0085537843, -0.0832977518, -0.0272520948, -0.0363204740, -0.0120665748, 0.0235109851, 0.0076726768, 0.0169471223, 0.0054490739, -0.0205235071, 0.0354098007, -0.0423981622, -0.0394738838, -0.0616591536, 0.1371764392, -0.0015911344, -0.0469264574, -0.0460195132, 0.0415088125, -0.0204350296, -0.0259522144, -0.0625115260, -0.0409374982, -0.0127309794, -0.0279450435, 0.0338353664, 0.0196652897, -0.0333423018, -0.0251225214, -0.0637322739, 0.0186243486, -0.0297528747, -0.0273045786, 0.0777519420, -0.0047830441, 0.0313845426, 0.0823883489, -0.0608415492, 0.0399391130, 0.0254157111, -0.0256484523, 0.0288012121, -0.0210030694, -0.0854348391, 0.0237805489, -0.0537413917, 0.0300192181, 0.0385334492, -0.0333738700, 0.0480703600, -0.0016537872, -0.0658749118, -0.0256658718, -0.0025251084, -0.0376226604, 0.0367845856, -0.0503112338, 0.0482021458, -0.0084397634, -0.0256370045, -0.0337417983, -0.0483975559, -0.0645200089, -0.0653517097, 0.0195216779, -0.0675119981, 0.0699891970, -0.0336762890, -0.0607578754, -0.0081557836, -0.0003870371, -0.0015938942, 0.0407551527, -0.0302401334, -0.0023760125, -0.0102187898, 0.0164182391, -0.0370351933, 0.0519627817, 0.0251606572, -0.0326315835, 0.0020284313, -0.0261957031, -0.0209535472, 0.0100526977, 0.0087191248, -0.0155462455, -0.0301648770, -0.0016663556, -0.0100416746, 0.0355852693, -0.0174086168, 0.0017522970, -0.1225124821, 0.0054216329, 0.0816507861, -0.0714949742, 0.0363905467, -0.0400364250, -0.0510431901, -0.0030162281, -0.0458971597, 0.0136457272, 0.0078221904, 0.0860720202, -0.0105490452, 0.0094024809, 0.0355386771, 0.0572315045, 0.0565645881, 0.0034629542, 0.0519847386, 0.0526747108, 0.0783880353, 0.0122933406, -0.0739679709, 0.0197429825, 0.0085864393, 0.0633652732, -0.0174671169, -0.0431121066, -0.0203627180, 0.0837146267, 0.0586320609, 0.0487769172, -0.0622326247, -0.0169499610, -0.0378664881, -0.0087479930, -0.1122664139, -0.0213889200, -0.0820339546, -0.0017003255, 0.0086610746, 0.0391825363, -0.0225972328, 0.0219117310, -0.0164610222, 0.0534536205, 0.0125488816, -0.0156408567, -0.0450293310, 0.0027350853, -0.0352766104, -0.0249724332, 0.0239492618, -0.0752848983, -0.0005480537, -0.0433781892, 0.0299665648, 0.0382266007, 0.0242186766, 0.0087559335, 0.0138496580, -0.0387223288, 0.0033019683, 0.0432744250, 0.1134344339, 0.0032235344, -0.0248999577, 0.0515651777, 0.0083229709, 0.0051672179, 0.1017499045, 0.0341200158, -0.0670269728, 0.0283585489, 0.0524641909, -0.0321706422, -0.0496128015, -0.0622527972, -0.0170374401, -0.0346894413, 0.0051089842, 0.0381078459, -0.0548643433, -0.0695750713, 0.0611248016, 0.0048587332, 0.0407643169, 0.0258881301, -0.0029394818, 0.0740052611, -0.0194763355, 0.0271264948, -0.0485823341, 0.0914496481, 0.0567581430, 0.0694938526, 0.0232896972, 0.0143719185, 0.0268309228, 0.0187172070, 0.0066384063, 0.0714065582, 0.0325327814, -0.0079927770, 0.0114538623, 0.0311599225, 0.0060292385, 0.0447894186, 0.0665330812, -0.0671300218, -0.0649035722, 0.0115070650, -0.0017166123, 0.0556931160, -0.0468444750, 0.0487335548, 0.0177674983, -0.1066714302, -0.0067733037, 0.0709012970, 0.0821650773, 0.0229619071, -0.0378073342, 0.0200340673, 0.0106462911, 0.0088328347, -0.0104895812, 0.0569807105, 0.0167202055, 0.0039276383, 0.0146067012, 0.0332499892, -0.0160289537, 0.0057661207, 0.0038695484, 0.0080467574, -0.0039879302, 0.0344044827, -0.0064752535, -0.0150845395, 0.0724731013, 0.0215498861, 0.0042267949, 0.0312266834, -0.0147254830, 0.0030649428, 0.0352419913, 0.0286242347, 0.0002280612, 0.0552360341, -0.0142305195, -0.0626407862, 0.0255519431, -0.1321900934, -0.0221257992, 0.0114398720, -0.0197691191, -0.0203028228, -0.0070453174, -0.0146229044, 0.0386863090, 0.0500095226, 0.0175589044, 0.0144627718, -0.0480266400, -0.0248037763, 0.0284534730, -0.0405699089, 0.0118268719, 0.0442037843, -0.0365426652, -0.0157467928, -0.0195965003, -0.0374303870, 0.0208880957, 0.0113194110, -0.0078637339, 0.0483505838, -0.0121337036, -0.1031792983, -0.0577447973, -0.0914191231, -0.0141878668, -0.0321317390, 0.0280740689, 0.0223464686, 0.0538936369, -0.0000313315, 0.0225673951, -0.0459554866, 0.0371725671, 0.0690017641, 0.0037523950, 0.0208748076, 0.0206544045, -0.0044590966, 0.0933694541, 0.0946605429, 0.0484553277, -0.0132403057, 0.0447828695, 0.0201185532, 0.0429263376, -0.0009191281, 0.0833353773, 0.0950221047, -0.0315437280, 0.0117015615, -0.0173412487, 0.0061292048, 0.0364267640, -0.0414223075, 0.0791797638, 0.0336009562, -0.0168442633, 0.0267496146, 0.0540405847, 0.0320125818, -0.0243073255, 0.0592128411, -0.0486329757, -0.0279800184, 0.0000642013, 0.0220630895, -0.0024284679, 0.0440790318, 0.0186504014, -0.0132128000, 0.0531251170, -0.0052378043, 0.0039866818, -0.0479924269, -0.0265217461, 0.0544962920, 0.0004306555, 0.0097256256, 0.0231763590, -0.0139044523, -0.0338911228, -0.0150007540, 0.0188912936, -0.0132664209, 0.0388133377, -0.0267030969, -0.0297021605, 0.0315448828, -0.0026919651, 0.0535463989, -0.0184567086, 0.0276842006, 0.0788150504, 0.0481211878, 0.0312374793, -0.0097967386, -0.0063413843, 0.0232607909, -0.0345124379, -0.0356344506, 0.0095083099, -0.0565111265, 0.0035649519, 0.0560162105, 0.0464548245, -0.0072631300, -0.0108714942, -0.0156766847, -0.0639249682, 0.0102278376, -0.0159172285, -0.0410884060, 0.0213821921, -0.0079828566, -0.0254117921, -0.1050048545, -0.0992814377, 0.0090195620, -0.0025868332, -0.0123130716, 0.0498403236, -0.0705641359, -0.0045958203, -0.0063102697, 0.0347121656, 0.0298610423, 0.0554668196, 0.0631971210, 0.0346400999, -0.0132813295, 0.0236117356, 0.0146644991, -0.0170945898, 0.0180954169, 0.0845535398, -0.0360085629, 0.0385731645, 0.0568187647, -0.0145446472, 0.0849723220, 0.0148845864, -0.0765030459, -0.0610778369, -0.0093135778, 0.0624636337, 0.0978354365, -0.0058766515, 0.0304748844, 0.0124801248, -0.0846719965, 0.1031828150, -0.0285661239, 0.0196564719, 0.0137284044, 0.0707835555, 0.0245137364, -0.0228067823, -0.0894645303, 0.1050177291, -0.0289968196, 0.0542221516, -0.0508782379, 0.0339351743, -0.0803391412, -0.0129270628, 0.0450294279, -0.0552525222, 0.0719161704, 0.0899935663, -0.0100308377, 0.0200289134, 0.0295465440, 0.0905749351, -0.0421277285, 0.0111498367, 0.0138684567, 0.0170812532, 0.0226271469, -0.0367414951, -0.0514570884, -0.0947858542, 0.0071992041, -0.0414470807, -0.0272080675, 0.0031602117, 0.0134936729, -0.0852761716, 0.0502985194, -0.0014991618, 0.0664843619, -0.0242850669, 0.0422610976, 0.0191605557, -0.0315604284, 0.0451134220, 0.0295967422, -0.0143789798, 0.0993711501, -0.0854220614, 0.0081152506, 0.0091390051, -0.0047988039, -0.0581092797, 0.0041572070, -0.0533611439, 0.1205695868, -0.1003147960, 0.0214543045, 0.0534903742, 0.0021686538, -0.0915804133, -0.0828566402, -0.0530662052, 0.0053884746, -0.0262558032, -0.0806523487, -0.0158714056, 0.0374705046, 0.0395555869, 0.0729646534, 0.0541960672, 0.0102180382, -0.0299091432, 0.0072650039, -0.0150850173, 0.0801240951, -0.0230386797, -0.0568872578, -0.0308390502, 0.0432752967, -0.0079863500, -0.0640636757, 0.0228067115, -0.0410543419, -0.0098792762, -0.0784950480, 0.0217633955, -0.0505116284, -0.0489738211, -0.0414017290, 0.0258632824, 0.0177660212, -0.0342672765, -0.0301624872, -0.0157874525, -0.0428497717, 0.0236707963, -0.0645974353, 0.0242799502, -0.0143487565, -0.0328125842, -0.0491693430, -0.0947890058, -0.0247123260, -0.0007272643, -0.0709467158, 0.0139671694, 0.0682341680, -0.0147965960, -0.0396956094, 0.0486448668, 0.0269710496, -0.0211055093, 0.0299625359, -0.0511045717, -0.0504096299, -0.0734272376, -0.0203534812, -0.0192073602, -0.0720219463, -0.0929782614, -0.0291378573, -0.0539331511, -0.0338581204, 0.0806319788, -0.0224664919, 0.0334298722, -0.0473582558, 0.0726782233, -0.0008787943, -0.0221744254, -0.0165092554, 0.0250517298, -0.0093480973, -0.0164261945, -0.0785103440, 0.0190936904, -0.0413493961, -0.1045197994, -0.0178666841, -0.0010540693, -0.0307237804, 0.0561313182, 0.0223430581, 0.0170422886, 0.0494063385, -0.0870100856, -0.0434747003, 0.0443260632, 0.0232071038, 0.0556824021, 0.0231474750, 0.0312129650, 0.0046901633, -0.0421997830, 0.0252581406, 0.0134803075, -0.1279477924, 0.0264503695, -0.0065104435, -0.0135030132, 0.0478291251, 0.0948945656, 0.0762990341, -0.0527363159, 0.0011068952, -0.0589663275, -0.0061354931, 0.0079136016, -0.0199355371, 0.0775090605, 0.0394037068, 0.0217951555, 0.0172167439, -0.0439663529, 0.0455733500, -0.0034467473, -0.0414427146, -0.0378464386, 0.0062015727, -0.1279006153, 0.0082204770, -0.0758670568, -0.0314404555, 0.0449516140, 0.0028810923, 0.0168414544, -0.0727324933, 0.0053626741, 0.0196092669, 0.0279740933, 0.0686203539, 0.0000303887, -0.0321834199, -0.0624407157, 0.0670872107, -0.0846445337, -0.0309302900, 0.1005537510, 0.0513163060, -0.0328704081, 0.1011402160, 0.0412730835, 0.0480488986, 0.0563559234, -0.0124861486, 0.0550070852, 0.0055221249, -0.0097185979, -0.0015562245, -0.0409198329, 0.1056882367, 0.0094573768, 0.0096023930, -0.0148856072, -0.0293008480, -0.0887552947, 0.0674190372, -0.0060741212, 0.0728228018, 0.0259951651, -0.0266534407, 0.0481973439, -0.0244546197, -0.0253219437, 0.0453185327, 0.0220686179, -0.0064082397, 0.1287565678, 0.0618967824, 0.0026291057, -0.0322092883, -0.0456460565, -0.0098978020, -0.0074034710, -0.0160636473, 0.0486162938, 0.0144539885, 0.0166653041, -0.0058519491, 0.0267228466, -0.0307116173, 0.0500951260, 0.0385448597, -0.0759170204, 0.0405130424, 0.0710016787, 0.0540332310, -0.0641962886, -0.0672295913, -0.0076775742, -0.0103362203, -0.0217549391, 0.0107178865, 0.0911340937, -0.0148752369, 0.0627419949, 0.0248526465, -0.0229347590, 0.0269026924, 0.1029351577, -0.0116736991, -0.0082593914, 0.0372631401, 0.0663412586, 0.0228561610, -0.0473622605, 0.0110674370, -0.0192615781, -0.0411279500, 0.0946894586, 0.0394519530, -0.0066159004, -0.0478122756, 0.0197507516, 0.0341647640, 0.0032889249, 0.0126611656, 0.0145366527, 0.0780774206, -0.0451683514, 0.0165142287, 0.0838909298, -0.0232041609, -0.0480823703, -0.0119126597, -0.0123706041, 0.0727065802, 0.0709180087, 0.0014752629, -0.0033203352, 0.0373068750, 0.0787499547, -0.0474015810, 0.0856970400, 0.0708940625, -0.0001619915, 0.0453651920, 0.0186294280, -0.0102678146, -0.0129514048, 0.0016327257, -0.0320955552, -0.0127007151, 0.0154910125, -0.0057336772, 0.0857916996, -0.0298267063, -0.0575894304, -0.0154545940, 0.0889185295, -0.0165802687, 0.0596189350, 0.0097048115, 0.0332871340, 0.0573172644, -0.0715928003, 0.1276616305, -0.0219059661, -0.0603298247, 0.1291091293, -0.0336883403, 0.0564443693, 0.0040075714, 0.0273700785, -0.1227927655, -0.0411499999, -0.0288137887, 0.0762263685, 0.0610230938, 0.0308885984, -0.0016394219, -0.0259495713, 0.0355600491, -0.1036872640, 0.0352541730, -0.0003013602, 0.0245445967, 0.0256636851, 0.0581750982, 0.0721961483, 0.0019262248, -0.0195048489, 0.0607587025, -0.0079198852, 0.0762533322, 0.0641403422, 0.0548161641, -0.0598893203, 0.0304535478, 0.1047973409, 0.0059156688, 0.0436673127, -0.0474109873, 0.0568599142, -0.1121383458, -0.0482798330, 0.0364206471, 0.0436238050, 0.0628415570, 0.0047300351, -0.0383666940, -0.0139439860, 0.0248309020, 0.0103125079, -0.0288948268, -0.0013608363, 0.0376993157, -0.0393761359, -0.1350997388, 0.0028262704, -0.0072012017, -0.0402648896, -0.0192820635, -0.0171871968, -0.0371734612, -0.0565803275, 0.0767985955, -0.0043057329, -0.0417537726, -0.0194758475, 0.0196919963, -0.0697604939, 0.0230623353, 0.1141236052, 0.0500273369, -0.0109510832, -0.0869737864, 0.1057669520, 0.0169714801, -0.0933834761, -0.0345265828, 0.0828492194, -0.0299790800, 0.0728599802, 0.0300353710, -0.0311808065, 0.0090942802, 0.0100514544, 0.0309609156, -0.0242493041, 0.0504619405, 0.0558892079, 0.0233310778, 0.0819072947, -0.1085109487, 0.0097713415, 0.0416811518, -0.0946925804, -0.0910463408, 0.0387807190, 0.0426838994, 0.0159018822, 0.0268826429, 0.0281672180, -0.0666411817, -0.1196550280, 0.0254066456, -0.0145501094, -0.0208862107, -0.0036948768, 0.0159302391, 0.0523487478, 0.0515691601, -0.0105014471, 0.0924934000, 0.0770846233, 0.0335039198, 0.1019851491, -0.0738784522, -0.0076528979, 0.0547335781, 0.0616627522, -0.0379668809, 0.0503313728, -0.0735035017, -0.0031547577, -0.0368013978, -0.0245786104, -0.0483396724, -0.0392438024, -0.0012104643, -0.0654970780, 0.0399668366, 0.0012623890, 0.0243181735, -0.0478357710, -0.0298061296, -0.0418739207, -0.0418151841, 0.0772999451, 0.0134913921, 0.0595055632, -0.0016004125, -0.0382569730, 0.0917992368, 0.0038189811, 0.0126097361, -0.0345756523, 0.0086749252, 0.0922450647, 0.0252846219, -0.0347908102, -0.0188395064, -0.0371947773, 0.0074458853, 0.0861981139, 0.0083658304, 0.0686169416, 0.0190743599, -0.0173193719, -0.0273707304, -0.0161184780, -0.0142198252, -0.0839045495, 0.0322213024, -0.0040012524, -0.0235019363, 0.0454572663, 0.0043785162, -0.0991943181, 0.0168817807, 0.0323653817, 0.0028595589, 0.0304882154, -0.0585403591, 0.0014395908, 0.0214447677, -0.0153276194, 0.0081958184, 0.0611444190, 0.0189125817, 0.0356555283, -0.1068112105, 0.0127698593, 0.0893761292, 0.0249677245, 0.0934838429, 0.0044124727, 0.0027483832, -0.0567602441, 0.0070844311, -0.0568505675, -0.0459983163, -0.0909756869, -0.0311339963, -0.0096069481, -0.0439125746, 0.0396312028, -0.0469458923, -0.0536482893, 0.0715619177, 0.0057063331, 0.0178383049, -0.0461161733, -0.0295216143, 0.0061373310, -0.0373565890, -0.0472724289, 0.0631129518, 0.0163003225, 0.0466937646, 0.1169220507, 0.0147119276, -0.0065717865, 0.0160724688, -0.0161974709, 0.0636935532, -0.0245679636, 0.0245833825, 0.0034254000, -0.0299812295, -0.1056553945, 0.0977941081, -0.0060780449, 0.0273079071, -0.0447386466, 0.0811149329, -0.0231228620, -0.0421884097, -0.0282905512, -0.0476025306, -0.0074979151, 0.0116237337, 0.0003454710, -0.0257538091, -0.0069977297, -0.0091362698, 0.0018436071, 0.0764388368, 0.0078984238, -0.0830838531, 0.0330622792, -0.0095969122, 0.0580138378, -0.0377370007, -0.0093145976, -0.0071994667, -0.0724217966, 0.0175102744, -0.0076500783, 0.0312440544, 0.0797502622, 0.0015923762, 0.0818936974, -0.0378603712, 0.0298969392, -0.0386557430, -0.1008457690, -0.0111456513, -0.0386239924, 0.0379249826, 0.0118146399, -0.0209539440, -0.0654988512, -0.0141356662, -0.0596205145, 0.0682164580, -0.0448070616, 0.0660612509, -0.0193076823, 0.0066319783, 0.0746506378, 0.0031765399, 0.0045732665, 0.0427401997, -0.0376918316, -0.0071469564, -0.0241041332, -0.0159330890, 0.0311884917, 0.0198403597, 0.0200339872, -0.0123845702, 0.0344561599, -0.0395146832, 0.0409964398, -0.0186975114, 0.0750555545, -0.1011055633, 0.0152646480, -0.0702954158, 0.0738050714, -0.1322682053, -0.0236311574, 0.0327357389, -0.0045186388, 0.0264749248, 0.0404319018, 0.0052141328, 0.0086368220, 0.0489546955, -0.0076138689, -0.0671049505, -0.0294761099, -0.0261441078, 0.0560193993, -0.0821047127, 0.0276927203, -0.0003084935, 0.0368875042, 0.0803986415, -0.0518244319, 0.0384431519, -0.0329799615, 0.0547156855, 0.0096779251, -0.0415347703, -0.0185184665, -0.0589417927, -0.0998407602, -0.0521293133, -0.0102307266, -0.0030399684, -0.1047081575, 0.0553158931, 0.0081802644, -0.1010220647, 0.0473153628, -0.0362257436, 0.0069280420, -0.0461974740, 0.0300873369, 0.0328438617, -0.0322885960, -0.0637812093, 0.0028939168, 0.0188989416, 0.0036891601, -0.0216346644, 0.0314855091, 0.0869793743, -0.0859028772, 0.0233549420, -0.1085711122, 0.0634904727, 0.0393092223, -0.0033725929, -0.0522122979, -0.0250099078, 0.0309528690, 0.0340955816, -0.0279116686, 0.0396403410, -0.0221125595, -0.0578106120, 0.0166477524, -0.0402258970, 0.0682141855, -0.0579379685, -0.0235451441, 0.0561383367, 0.0111164320, -0.0136751318, -0.0146016506, 0.0104384171, -0.0100284722, 0.0563996918, 0.0265652593, 0.1282066107, -0.0154602826, -0.0290580522, -0.0919801518, -0.0088615781, 0.0908147320, -0.0084153274, -0.0407854021, 0.1147075891, 0.0755622536, -0.0196695272, 0.0333205014, 0.0511242338, -0.0190818645, -0.0086630527, -0.0084605645, -0.0436161794, -0.0131692896, 0.0456126817, -0.0199943166, 0.0820248798, 0.0492639728, -0.0161081292, 0.0439892970, 0.0410536565, 0.0024757094, 0.0754467323, 0.0057435748, -0.0277548917, -0.0438845418, -0.0512950681, 0.0497320928, -0.0178481862, 0.0165856257, 0.0099485014, 0.0284777358, 0.0457258672, 0.0009487815, -0.0226393119, 0.0287546106, -0.0210882798, 0.0284294616, -0.0182267074, 0.0015583412, 0.0273945425, 0.0102655245, 0.0496067852, -0.0059526302, 0.0852790251, -0.0122324638, 0.0345162302, -0.0187542420, 0.0399667062, 0.0618479922, -0.0297330953, 0.0189674646, -0.0090581309, -0.0077766278, -0.0503963642, 0.0446350873, 0.0111880060, 0.0093673263, 0.0230084490, 0.0212615207, -0.0057783909, -0.0404972397, -0.0466360003, 0.0336480439, 0.0585639030, -0.0264556818, -0.0386094414, 0.0384343900, -0.0499093756, 0.0052441191, 0.0599285364, -0.0100874156, -0.0537593886, 0.0390861742, 0.0181178749, -0.0629607216, -0.0016364575, 0.0378860496, -0.0497034639, -0.0029390240, -0.0376107953, 0.1075930372, -0.0417850576, -0.0301262550, 0.0282353349, -0.0129858470, -0.0161017533, -0.0326338448, -0.0279799029, 0.0818081424, 0.0308151823, -0.0334018879, -0.0239135381, 0.0105592767, -0.0455343723, -0.0340529941, -0.0719406530, 0.0160190742, -0.0429390185, 0.0549981706, 0.0413902476, -0.0017629219, 0.0301327072, 0.0271768291, 0.0504770875, -0.0324471965, -0.0057282718, 0.0667254180, -0.0851508752, 0.0691260472, 0.0587479956, -0.0270356201, -0.0777593553, 0.0179966483, 0.0495078638, 0.0601578876, -0.0062210695, 0.0020843195, -0.0075780619, 0.0575296208, 0.0011149449, -0.0335381702, 0.0319970548, 0.0120922253, -0.0035991448, 0.0237831026, 0.0516834036, 0.0715905949, 0.0193218216, -0.0255375970, 0.0033869753, 0.0066942764, -0.0635338053, 0.0018670998, 0.0017828181, -0.0096748369, 0.0464708991, 0.0099310111, 0.0016774751, -0.0072682141, -0.0361287221, -0.0105607966, 0.0133134359, -0.0094053848, -0.0159505848, -0.0390073881, -0.0409039259, -0.0233837087, -0.0030495650, 0.0130081782, -0.0407239236, -0.0125958305, -0.0013292560, 0.0032941613, -0.0192963723, -0.0555501953, 0.0234406795, -0.0518407263, 0.0011822885, -0.0165178273, 0.0090428460, -0.0156844091, -0.0164222028, 0.0489839613, -0.0135736847, 0.0480391309, 0.0591248088, -0.0431076400, -0.0058879615, 0.0430725813, 0.0083847297, 0.0185882933, -0.0052495422, 0.0184668377, 0.0104320524, 0.0064558159, 0.0367080830, 0.0265861861, -0.0030150919, 0.0333137028, -0.0010438178, 0.0967993513, 0.0831661150, 0.0009252530, 0.0028804569, 0.0060244305, -0.0263215024, 0.0484943725, 0.0709718689, -0.0330198370, 0.0781998038, -0.0701610446, -0.0007738403, 0.0663423091, 0.0466312133, 0.0405827947, -0.0256132502, -0.0628576577, -0.0382831581, 0.0302891601, -0.0198277645, -0.0675984174, 0.0201889724, 0.0498488322, -0.1016699001, -0.0074913641, -0.0275806542, -0.0131141217, -0.0605984367, -0.0010055444, -0.0166586656, -0.0237307269, 0.0519791357, 0.0048997514, 0.0259941947, 0.0902392417, -0.0421135314, 0.0362693965, 0.0178289730, -0.0307557415, 0.0051635266, -0.0494518355, -0.0588580891, -0.0175754186, -0.0124011748, -0.0025834569, -0.0124810552, 0.0677813292, 0.0312824361, 0.0289983898, -0.0290583074, 0.0028370994, -0.0296407454, 0.0498012602, -0.0408954993, 0.0478868186, -0.0884370282, -0.0070244586, 0.0209549107, -0.0456038639, -0.0447904728, -0.0249727983, 0.0144870682, 0.0199551340, -0.0693343505, 0.0197718441, 0.0204201546, 0.0410495140, 0.0500362702, -0.0141024850, 0.0108120022, 0.0335405879, 0.0449035726, -0.0384413116, -0.0025971995, -0.0062946966, -0.0811309367, 0.0271635167, -0.0067092967, 0.0626629740, -0.0024789276, 0.0429975353, -0.0234087184, -0.0226688068, 0.0808642358, -0.0155949034, -0.0448052511, 0.0027434435, -0.0671871006, -0.0536807291, -0.0815095454, -0.0886167362, -0.0619797707, 0.0451869071, 0.0116851656, 0.0323809497, 0.0518347882, 0.0601370856, -0.0136210006, 0.0209770594, -0.0342808738, 0.0315846242, -0.0506572612, -0.0162761472, 0.0613290183, 0.0088524763, -0.0730359107, 0.0027887861, 0.0137372166, 0.0013494231, -0.0282608084, 0.0201102886, 0.0789427683, -0.0494155809, -0.0223303903, -0.0467205830, -0.0135818562, 0.0005087062, -0.0955586508, 0.0832231268, 0.0046143145, 0.0121948859, -0.0364470668, 0.0280245245, 0.0165450368, -0.0518870950, -0.0112722898, 0.0302415155, -0.0579878837, -0.0492177866, 0.0208166037, 0.0223441273, -0.0036401926, -0.0055393307, -0.0033086131, -0.0564802140, -0.0390503742, 0.0261008944, 0.0838114992, -0.0249943752, -0.0736762807, 0.1051779240, 0.0836027563, -0.0025721402, 0.0120932907, 0.0975933895, 0.1098253131, 0.0935560167, 0.0472849309, -0.0705270097, 0.0076222043, -0.0388684757, 0.1105645671, -0.0222260747, -0.0231524557, 0.0450331382, -0.0136997988, -0.0749689415, -0.0108654452, 0.0539587066, 0.0003374922, 0.0550983734, 0.0164136719, -0.0435487479, 0.0566411242, 0.0619087406, -0.0190180019, 0.0547852218, -0.0110350987, -0.0411011800, -0.0045769573, -0.0486160628, -0.0563623644, 0.0081947306, 0.0191111397, -0.0098968651, 0.0025249941, -0.0097503867, -0.0101993326, -0.0106016044, -0.0078142099, 0.1100027710, -0.0057767015, 0.0320415311, -0.0748762488, -0.0233248957, -0.0190194324, 0.0279045384, 0.0208919886, -0.1014730260, -0.0491170995, -0.0279617384, 0.0614949204, 0.0262766648, 0.0060163857, -0.0384039767, 0.0264783893, -0.0049337503, 0.0111350054, -0.0519308411, 0.0086500393, 0.0482790768, 0.0565373674, 0.0016256000, -0.0020228750, 0.0289361477, 0.0486110412, -0.0022189217, -0.0332335308, 0.0179813951, -0.0108613791, -0.0330068506, -0.0040784776, 0.0701825768, 0.0260053612, -0.0311106220, -0.0101671033, 0.0369956382, -0.0049805962, 0.0441873781, 0.0409833491, 0.0229954086, 0.0054399464, 0.0048857532, 0.0398832299, -0.0097661540, -0.0216958541, 0.0392188467, -0.0334526487, -0.0309825279, 0.0866774693, -0.0114207175, 0.0269371774, 0.0308011360, 0.0122020757, -0.0270457882, 0.0922129676, 0.0029541950, -0.0166248828, 0.0144215636, 0.0011272590, -0.0853786692, -0.0085013499, -0.0173871201, -0.0069983937, 0.0077580768, -0.0401553623, 0.0204559565, -0.0612347163, 0.0734471008, -0.0241660178, 0.0446122363, -0.0098991366, 0.0551218279, 0.0497441553, 0.0447439067, -0.0658562407, 0.0271190535, 0.0332740396, 0.0210937839, 0.0303567946, 0.0483373217, 0.0072793718, 0.0643331707, -0.0161559060, -0.0134799257, -0.0145219415, 0.0625865161, -0.0357827581, 0.0009126233, 0.0911706015, 0.0525745526, 0.1006516367, 0.0102010984, 0.0111092832, 0.0147124873, 0.0062949406, 0.0178887025, 0.0774329901, -0.0843612850, 0.0331468135, 0.0297915433, -0.0218566339, -0.0102925971, 0.0635483041, -0.0428183451, -0.0005972740, -0.0299886204, -0.0429747440, 0.0135696502, 0.0358922184, 0.0623238310, 0.0503086783, 0.0732989982, 0.0060643121, 0.0715639442, 0.0301729999, -0.0094039384, -0.0707167387, 0.0099364808, -0.0081792315, 0.0341853909, -0.0399319716, -0.0416417606, -0.0244536586, 0.0005396925, 0.0587139614, -0.0513607524, 0.0237272121, 0.0068349489, -0.0061279042, -0.0725572929, 0.0756460130, 0.0088376813, -0.0452264734, 0.0990374014, 0.0182731766, 0.0418609492, -0.0363840200, 0.0413886644, -0.0678961277, 0.0527968183, 0.0623008087, 0.0257396922, 0.0149006359, -0.0440261364, -0.0477128886, -0.0005427833, 0.0185879804, 0.0774393901, -0.0136703141, 0.0237494223, -0.0124193141, -0.0055037406, 0.1077173948, -0.0347354226, 0.0380803570, 0.0686986893, -0.0236894954, -0.0283094682, 0.0082728062, 0.0567075387, -0.0059978818, 0.0295480751, 0.0188002903, -0.0451600477, -0.0037300284, 0.0228578467, 0.0433224812, -0.0171992723, 0.0284705553, 0.0498934574, -0.0282425806, 0.0164895952, -0.0111278780, -0.0127410311, -0.0189718381, -0.0000820568, -0.0358480141, -0.0598845854, 0.0817401335, -0.0513727628, 0.0126769934, -0.0337135866, -0.0529195480, 0.0825534239, 0.0240107663, 0.0284366459, -0.0393484421, -0.0748836547, 0.0574683100, 0.0762608275, -0.0252921749, 0.0109359473, 0.0285618994, -0.0785548538, -0.0233530588, -0.0166667551, 0.0323474109, 0.0323768333, 0.0167852882, -0.0038681417, -0.0967020765, 0.0372998752, -0.0130412867, -0.0126002049, 0.0181150902, 0.0336089768, 0.0485698283, 0.0102158962, -0.0178476498, -0.0144091267, 0.0183409434, 0.0071981703, -0.0496756360, 0.0184344072, -0.0663471520, -0.0214896258, -0.0382778496, -0.0241184644, -0.0080175782, -0.0261155721, 0.0352765843, -0.0514507294, -0.0381832309, 0.0005521277, 0.0968101546, -0.0567120425, -0.0176140573, 0.0472749174, -0.0375635512, -0.0056430586, 0.0074822442, -0.0332048684, -0.0511503704, -0.0575927272, -0.0239015967, -0.0491251536, 0.0824328437, -0.0562193766, -0.0014047803, 0.0126958983, 0.0722361133, 0.0835166648, -0.0999716222, 0.0629731193, -0.0467744879, 0.0044529871, 0.0036928002, -0.0961580873, -0.0162781402, 0.0154494392, -0.0503670610, -0.0158427022, -0.0371589251, -0.0299300756, -0.0059967637, -0.0367649086, 0.0325803608, 0.0575947128, 0.0584296174, -0.0447731018, 0.1267683804, 0.0159440897, -0.0260488298, -0.0630593598, -0.0237857550, 0.0067227711, 0.0469552800, 0.0449469239, -0.0256735720, 0.0103357965, 0.0098846881, -0.0305024628, -0.0208265055, 0.0193316862, -0.0019072193, 0.0410757214, -0.0349528603, -0.0081358710, -0.0294793099, -0.0149554564, -0.0697366521, -0.0206311960, -0.0773868784, 0.0994879231, 0.0613024868, -0.0850051492, 0.0062625706, 0.0888910666, 0.0348457471, -0.0326721929, 0.0340548493, 0.0319655463, 0.0320184678, 0.0065434524, -0.0367369913, -0.0042859805, 0.0380447358, -0.0293540210, -0.0560035408, 0.0039108777, -0.0216304101, -0.0197463315, 0.0173275918, 0.0513387285, -0.0174619313, 0.0786399767, 0.0002109604, 0.0208705943, -0.0810503513, 0.0059962226, -0.0100237997, 0.0321718529, -0.0304774512, -0.0177379865, -0.0440468192, -0.0200465322, -0.0047559463, 0.0428906046, -0.0130515220, 0.0268233344, -0.0662749037, -0.0611907169, 0.0399428643, -0.0218096469, -0.0263089053, -0.0112577742, 0.0419922583, 0.0247871075, -0.0342781432, -0.0533285774, 0.0558844060, -0.0554927327, -0.1144184843, 0.0165281575, -0.0612826534, 0.0611222573, -0.0819092244, 0.0675511584, 0.0678840354, 0.0325454623, -0.0127769196, 0.0450953431, -0.0170740951, -0.0616763681, 0.0824439824, 0.0878263041, 0.0317829028, -0.0458646938, -0.0529477820, -0.1073783487, 0.0039915144, -0.0513622575, 0.0229030736, -0.0315998979, -0.0436717123, 0.0367418416, 0.0069945068, 0.0187458135, 0.0374800377, -0.0046175094, 0.0005098549, -0.0468244478, 0.0064818207, 0.0293098409, 0.0541689917, 0.0402103551, 0.0706260577, -0.0073899436, -0.0577206537, -0.0124633722, 0.0218125638, 0.0820742846, -0.0033798306, 0.0398099422, 0.0537032820, -0.0238750167, 0.1195212230, -0.0549482442, -0.0437866822, -0.0477318875, 0.0301154684, -0.0850809067, 0.0269849785, -0.0143971704, 0.0583404563, -0.0122617194, 0.0652705804, -0.0625357553, 0.0450905822, -0.0498669632, 0.0544020198, -0.0234046932, 0.0672647953, 0.0292051155, -0.0674183890, -0.1063232496, -0.0263608042, -0.0364074074, -0.0009869306, -0.0156390630, -0.0095487144, 0.0057121157, -0.0188670624, 0.0096667334, -0.0211284496, -0.0813552588, 0.0142872659, -0.0089773135, 0.0400684960, 0.0044208658, -0.0417110920, -0.0452237949, -0.0597183667, 0.0172571111, -0.0439634249, -0.0402220488, 0.0139121749, 0.0303274784, -0.0053023370, -0.0158443768, -0.0010991922, -0.0173050221, -0.0006944518, -0.0786462501, 0.0465335660, 0.0594517142, 0.0324947238, -0.0379313380, 0.0448936298, 0.0292348098, -0.0303305853, -0.0210404322, -0.0015630346, 0.0666698217, 0.0097981077, 0.0401121452, 0.0114222448, 0.0655964762, -0.0545202233, -0.0598279834, 0.0754036307, 0.0515090227, 0.0473945439, -0.0214250684, 0.0148106003, -0.0053717755, -0.0072094593, 0.0347007066, 0.0395766795, -0.0365718603, 0.0283848215, -0.0219859835, 0.0081114601, -0.0572737157, -0.0299118385, -0.0416108854, 0.0026120411, 0.0595044270, -0.0139108961, -0.0955891013, -0.0681853816, -0.0292175878, 0.0132791242, 0.0610373318, 0.0220911857, 0.0490931757, -0.0241156425, -0.0369600803, 0.0748687759, 0.0580869801, -0.0724319741, 0.0107697882, -0.0029523044, 0.0362352915, 0.0359846130, -0.0115893837, -0.0056244610, 0.0426829234, -0.0082027260, 0.0780484155, -0.0202375315, -0.1049947590, 0.0179237071, 0.0655291080, -0.0404464751, -0.0189899579, -0.0297490768, -0.0149256811, -0.0169867836, 0.0814553574, -0.0083872126, 0.0863595679, 0.0047059655, -0.0602317639, 0.0201178584, 0.0810115933, 0.0471333191, 0.0714603588, -0.0431822725, 0.0429347716, -0.0270916726, -0.0014975957, 0.0270479396, 0.0235786922, -0.0267096162, 0.0428433940, 0.0390692838, 0.0102238664, -0.0360471271, 0.0610226765, -0.0145386588, -0.0007848660, -0.0166467484, -0.0619755127, -0.0001419646, 0.0645769611, 0.0124547575, 0.0438277647, -0.0076729096, -0.1112751067, -0.0404604971, 0.0438625999, -0.0139684100, -0.0716902614, 0.0549972728, -0.0084514488, -0.0458166339, 0.0378363691, 0.1124342456, 0.0710236132, 0.0373475812, -0.0374969095, -0.0348184258, -0.0145880245, -0.0581778660, -0.0232012514, -0.0411861092, -0.0154704414, -0.0104394797, 0.1099275723, -0.0471713543, -0.0237991605, -0.0191070568, 0.0294975955, -0.0745417327, 0.0034982152, -0.0522590578, 0.0069965348, 0.0110517209, -0.0749681965, 0.0126395402, 0.0240377877, -0.0052252719, -0.0529655293, -0.0484703593, -0.0195532832, 0.0283099432, -0.0151318973, -0.0060394160, 0.0221225638, -0.0540453829, -0.0033559697, -0.0038716262, 0.0166976321, 0.0036542239, 0.0015905473, 0.0461233445, -0.0336431563, 0.0430767573, -0.0681874305, 0.0280486736, -0.0436324589, -0.0117556574, 0.0042775311, 0.0337835066, 0.0080329413, 0.0133269178, 0.0374364592, -0.0149863716, -0.0383774787, 0.0232313629, -0.0130228447, 0.0012193385, -0.0359846540, 0.0465008579, 0.0563221388, 0.0598085262, -0.0774193183, 0.0084448485, 0.0192330126, -0.0037773391, -0.0623964965, 0.0254128389, 0.0510242321, -0.0845627859, -0.0021051017, -0.0370242931, -0.0382759497, -0.0119734630, -0.0802438557, 0.0057731899, -0.0041271611, 0.0247108825, -0.0056232549, 0.0663521737, -0.0332114846, 0.0120743914, -0.0689079538, 0.0552168190, -0.0385531373, 0.0086428374, 0.0229150951, -0.0216422323, -0.0131935393, 0.0635754243, -0.0787318051, -0.0350045562, 0.0168924928, -0.1088664830, -0.0045204801, 0.0145610506, 0.0366702341, -0.0000911762, -0.0015673247, 0.0012659837, 0.0296761505, -0.0626775846, 0.0114358366, 0.0687689632, 0.0308011938, 0.0822457150, 0.0404516868, -0.0044222600, 0.0282840598, -0.0493804775, 0.0527198762, 0.0597392395, 0.0811941475, 0.0597750060, -0.0109293265, -0.0425406881, 0.0126671959, 0.0183258597, -0.0033920673, 0.0104630738, 0.0168685727, 0.0849490389, 0.0184386130, 0.0352200903, 0.0034911952, -0.0301310401, -0.0251507554, 0.0115110129, 0.0457893573, -0.0389156677, -0.0060534379, 0.0546556301, -0.0615145080, -0.0252309535, -0.0396983996, -0.0385521576, 0.1278875917, -0.0688631088, 0.0451971963, 0.0252227243, -0.0077232197, -0.0133521529, -0.0279067308, -0.0021525528, -0.0127361147, -0.0683302209, -0.0771887898, -0.1159671396, -0.0455230959, -0.0064252033, -0.1010209098, 0.0283381827, -0.0299340636, 0.0170602128, 0.0177626535, 0.0347714089, 0.0607292764, -0.0233441908, -0.0284531470, -0.0311535839, -0.0002162382, 0.0014712723, 0.0108721433, 0.0206272416, -0.0408114828, -0.0702821091, 0.0159976147, -0.0367704704, -0.0135529926, -0.0440257154, -0.0200908314, -0.0647287518, -0.0738744959, 0.0064594666, -0.0296156406, -0.0428599641, 0.0034248389, -0.0172256920, 0.0223406553, 0.0355345272, -0.0010493074, -0.0076226452, 0.0043964917, -0.0286187008, -0.0363222510, -0.0163885653, -0.0163572896, -0.0837666616, 0.0617639609, 0.0084182546, -0.0048618610, -0.0281522796, -0.0420219973, -0.0279231556, 0.0040701195, 0.0129711377, 0.0869567171, 0.0111184800, -0.0041417545, 0.0458794087, -0.0973663032, 0.0893548578, 0.0396825075, 0.0451494046, -0.0501445606, 0.0566204190, 0.0448034853, -0.0026156991, -0.0168494377, -0.0325161368, 0.0133049609, -0.0726400837, 0.0134037305, -0.0731908008, -0.0495660380, -0.0679216757, 0.0296823010, 0.0551849827, -0.0045171264, 0.0460827462, 0.0162718203, -0.0721417814, 0.0497317240, -0.0234035458, 0.0025132722, 0.0536661707, -0.0190676227, -0.0391744599, 0.0663943738, -0.0253542084, 0.0715225860, 0.0240994953, -0.1016169786, -0.0280638952, 0.0046873144, 0.0118157165, 0.0300465301, -0.0088895187, -0.0427087434, -0.0121332230, 0.0252427049, -0.0689709187, -0.0246848073, 0.0420788825, -0.0425775275, -0.0654342473, -0.0481039584, -0.0077717397, -0.0102504976, 0.1119625941, -0.0208326224, 0.0177438874, -0.0647172481, -0.0382596962, 0.0663209409, 0.0498526245, 0.0138277588, 0.0093676746, 0.0128811579, -0.0025392978, 0.0012043735, 0.0401126333, 0.0441557951, -0.0495301671, -0.0210035183, 0.0913970545, -0.1505699456, -0.0123702055, 0.0331255533, -0.0000743388, -0.0542342216, 0.0786169097, 0.0530052632, 0.0246788748, 0.0677936003, -0.0383700244, -0.0542276725, -0.0085177300, -0.0650832057, 0.0726988390, 0.0490500815, 0.0696889088, 0.0518102199, 0.0702910349, 0.0572410002, 0.0824367553, 0.0324111097, -0.0237827674, -0.0108491648, 0.1335972995, 0.0222021211, 0.0227375105, 0.0090141948, 0.0141624426, 0.0181610119, 0.0182908643, -0.0617342442, -0.0073607867, -0.0012573298, -0.0045145592, 0.0621787123, -0.0047469842, 0.0486577302, 0.0395033099, 0.0299135055, -0.0715928599, -0.0645762682, -0.0799242631, 0.0513078012, -0.0708141699, -0.0693354607, 0.0004349328, -0.0021200879, -0.0272418931, 0.0219311491, -0.0008512704, 0.0442337617, -0.0140304361, -0.0654692501, -0.0012251057, 0.0191298053, -0.0019505282, 0.1579937488, 0.0159783270, -0.1041503921, 0.0481413156, 0.0333582982, 0.0985376388, 0.0273185950, 0.0136985024, 0.0041768672, 0.0562257059, 0.0128325187, -0.0016727736, 0.0675531328, -0.0475747697, 0.0130586559, -0.0274917521, 0.0517646559, -0.0985654965, 0.0915224478, 0.0158937201, 0.0275362022, 0.1141844839, 0.0449848920, 0.0304194540, -0.0177319441, -0.0041000191, 0.0280539840, -0.0035549442, 0.0336262695, 0.0216574930, 0.0270900521, 0.0413168408, 0.0289479736, -0.1117784008, -0.0023530568, 0.0285588522, 0.1021962911, -0.0736083090, -0.0758162290, -0.0134652322, -0.0782308802, 0.0702608824, 0.1039612219, 0.0446349271, 0.0262302626, 0.0188295823, 0.0256496836, 0.0668228045, 0.0268591419, 0.1337308139, -0.0087777553, -0.0948526263, 0.0372903831, 0.0420093909, 0.0124668945, -0.0572572872, -0.0332136676, 0.0540891476, 0.0056921178, 0.0219780505, 0.0476110391, -0.0317731388, 0.0402376913, -0.0571929440, -0.0298317280, -0.0134474188, 0.0631138533, -0.0531913936, -0.0482316017, -0.0355545916, -0.0130080935, -0.0078459391, -0.0273814052, -0.0850115344, 0.0638070181, -0.0263792966, 0.0382213145, -0.0441655777, 0.0421912000, -0.0743132532, -0.0317789167, 0.1031451523, -0.0527329370, -0.0051139547, -0.0291928723, 0.0051809605, -0.0908873677, -0.0088568116, 0.0091308998, 0.0325543955, -0.0573811121, -0.0343770087, 0.0808467045, 0.0417695157, -0.0232755300, -0.0027390595, 0.0211555716, 0.0046220296, -0.1148309335, 0.0054927319, -0.0123740304, 0.0116238147, -0.0244156457, 0.0009659907, 0.0978168696, 0.0041961507, -0.0326980650, -0.0253627505, 0.0052242009, 0.0274641030, -0.0113602402, -0.0121442508, 0.0665241107, -0.0507566854, 0.0059002042, 0.0370876305, 0.0275644213, -0.0131886890, -0.0426605381, 0.0146067049, -0.0136123328, -0.0013895651, -0.0518738776, -0.0223838594, 0.0771945789, -0.0001737002, 0.0304895062, 0.0375292562, 0.0867184922, 0.0761231780, 0.0059431861, -0.0213282853, -0.0891953632, 0.0698398650, -0.0414840020, 0.0175819453, -0.0181740057, -0.0295427386, 0.0177144092, 0.0081378091, 0.0327491872, -0.1044659764, -0.0351180658, -0.0433358178, 0.0275982041, 0.0814136639, 0.0258854628, 0.0019508507, 0.0130575635, -0.1437455714, 0.1060161665, 0.0475197732, 0.0502291173, 0.1014591828, 0.0201182812, 0.0125824884, 0.0397825353, 0.0871121213, -0.0837409645, 0.0309143234, 0.0317819938, -0.0192679167, -0.0277364664, -0.0065458538, 0.0196235515, 0.0098233009, -0.0630203485, 0.0993307829, 0.0043811062, 0.0204201229, -0.0280553196, -0.0167023260, -0.0724800229, -0.0097573530, -0.0966717228, -0.0022188532, -0.0056583695, -0.0535325930, 0.0177351199, 0.0447120592, -0.0623241290, -0.0974066779, 0.0370252766, -0.0224072393, 0.0409839600, 0.0010708685, 0.0392158404, 0.0036091341, -0.0473890863, -0.0109737581, 0.0270234514, 0.0227641165, 0.0081973737, 0.0186945498, 0.0127946166, 0.0234136898, -0.0711911619, 0.0536999032, -0.0020423564, 0.0799927786, 0.0319722965, 0.0418860391, -0.0655492321, -0.0359707922, -0.0281010326, -0.0059339674, 0.0495215990, 0.0816472918, -0.0548194386, -0.0030674180, 0.0009510297, 0.0109658120, 0.0035526922, 0.0299043618, 0.0633339062, -0.0510435253, -0.0447901823, -0.0994953513, 0.0047021327, -0.0088390466, -0.0250871051, 0.0791550949, -0.0404707640, -0.0184952524, -0.0395330936, -0.0523696989, -0.0427364893, -0.0354397744, -0.0079992814, 0.0046902034, -0.0744454637, 0.0589104816, 0.0661664680, 0.0006832368, -0.0109568927, -0.0406526439, -0.0054455777, -0.0398057550, -0.0016528785, -0.0713006780, -0.0038297474, -0.0823199525, 0.0592200086, 0.0136392284, 0.0795242786, -0.0001397089, -0.0603729822, -0.0541797578, 0.0324117765, 0.0722304657, 0.0525544137, -0.0048763063, 0.0341622867, 0.0402963087, 0.0482614599, 0.0255621225, -0.0037503263, 0.0253937207, 0.0169291124, 0.0153876441, 0.0217187032, 0.0057582259, 0.0388390869, 0.0225628614, 0.0042048357, -0.0472189747, 0.0542078391, 0.0199318286, -0.0276805963, -0.0087890243, -0.0086333677, 0.0187659077, -0.0771782845, -0.0386390835, -0.0162711609, -0.0331516750, -0.0094593111, -0.0580305345, -0.0224967562, 0.0594946966, 0.0174153633, 0.0337975323, 0.0789225549, -0.0044642300, 0.0505892262, 0.0569859743, 0.0250117611, -0.0023801054, 0.0437212959, -0.0490351208, 0.0069782161, 0.0073805694, 0.0443635285, 0.0121388678, 0.1038789004, 0.0379710644, 0.0168705508, -0.0138257630, -0.0055647581, 0.0068993359, 0.0530793555, 0.0874927267, -0.0330581702, 0.0756091028, -0.0315352082, -0.0075207539, -0.0252081007, 0.0140221566, 0.0279307999, 0.0541093685, 0.0526918732, 0.0112700984, -0.0870457366, -0.0067943619, -0.0866436213, -0.0555757582, -0.0146665806, 0.0392923914, 0.0970680416, -0.0074732578, 0.0138772428, -0.0053560627, -0.0757252052, -0.0409890339, 0.0251438282, 0.0315389670, 0.0467350036, 0.0247122925, -0.0264645368, -0.0247824267, -0.0329343528, -0.0118003031, -0.0761319920, -0.0112700537, 0.0082580075, 0.0721420497, -0.0287140384, -0.0201225542, 0.0460855737, 0.0421385728, -0.0611813031, -0.0592940003, 0.0053425473, -0.0051519624, -0.0236762669, -0.0084065497, 0.0321211740, -0.0632881746, 0.0202150885, 0.0401408561, 0.0191221312, 0.0148509787, -0.0102390135, 0.0014828529, -0.0574283712, -0.0518486202, -0.0199081004, -0.0304350629, 0.0134936888, 0.0454431437, -0.0403436944, 0.0005035431, 0.0593046360, 0.0128565878, 0.0014135173, -0.1277994514, 0.0836784020, 0.0636754781, -0.0486354977, -0.0034817553, 0.0095851850, -0.0628034770, 0.0299755875, 0.0197269768, 0.0648317337, -0.0896492600, 0.0131725697, -0.1109521687, 0.0488438793, 0.0372152328, 0.0624319799, 0.0746873021, 0.0225144159, 0.0364677869, -0.0212868713, 0.0129931401, -0.0701976791, 0.0192271732, -0.0318852738, -0.0255036615, 0.0566990599, 0.0015682571, 0.0321918316, -0.0739800185, 0.0067519536, 0.0250977986, 0.0392254516, -0.0171682145, -0.0585643947, -0.0213253926, -0.0580012873, -0.0293057375, -0.0776331425, -0.0463028587, 0.0067890650, -0.0025283424, 0.0317950286, 0.0276251696, 0.0454463847, 0.0085106157, 0.0107207447, -0.0637378693, -0.0402955227, 0.0004162411, -0.0527554341, 0.0553402379, -0.0419278815, -0.0409428775, 0.0023567430, -0.0971124992, 0.0762665793, -0.0483625345, 0.0209864154, 0.0142751969, -0.0358123146, -0.0630513206, 0.0030124784, 0.0267317519, 0.0335770883, 0.0292749237, 0.0364470743, 0.0265842993, 0.0403739549, -0.0203586575, -0.0235118382, 0.0559844226, 0.0009396551, -0.0245452002, 0.0139475130, 0.0348585099, -0.0169214662, -0.0584398992, 0.0459721349, 0.0237544179, -0.0224379171, 0.0580024682, 