//Numpy array shape [5, 5, 4, 16]
//Min -0.339906394482
//Max 0.360163837671
//Number of zeros 0

#ifndef W4_H_
#define W4_H_

#ifndef __SYNTHESIS__
model_default_t w4[1600];
#else
model_default_t w4[1600] = {0.0919396803, 0.2607231438, -0.1390756667, 0.1584404260, -0.0811378062, 0.2017814070, 0.0129917087, 0.1376701444, 0.1098964140, -0.0242558867, 0.1464427710, -0.1001043618, -0.0796583146, -0.1343305558, 0.0897666290, 0.2164480239, -0.0229284763, 0.1826073974, -0.2045364231, 0.0175822880, 0.0172054395, 0.1314601749, 0.0424919166, -0.0385805145, 0.1875271201, -0.1241659820, -0.0617390871, 0.0822522715, 0.2396646142, -0.1869133413, 0.2669561207, 0.0562853552, 0.0821490362, 0.1776903123, 0.1001596451, -0.0093290275, 0.0059493221, -0.0076967631, -0.0142920651, -0.0192313883, 0.3066397309, 0.0226915516, 0.0494075455, 0.0374841765, -0.2308495343, 0.1764998734, -0.1370264739, 0.1488955319, -0.1371908188, -0.1230279952, 0.1022082493, -0.0645425618, -0.0089043928, -0.1529616266, -0.0564995781, -0.0866476446, -0.1202699393, -0.3895398378, -0.1419515461, 0.1144208685, -0.0106567834, -0.0654882565, 0.1334530115, 0.0939433500, -0.0550941341, 0.1008257344, -0.0088733695, 0.0408029407, -0.1508535445, 0.0817621648, -0.0948313996, -0.0463063791, 0.1483698040, 0.0466461256, 0.0637477040, -0.0959342793, -0.0057563190, -0.1538287997, -0.0324623771, -0.0528457984, 0.1427129954, -0.1612053365, 0.2484289110, 0.0313565582, 0.0503625870, 0.1036943644, 0.0272727124, 0.0299019478, 0.0533101596, -0.1870644242, -0.0095457714, -0.0565232933, -0.1158718169, 0.0720858499, 0.0533926301, 0.0662414730, 0.1545129865, 0.2962973416, -0.0537482649, -0.0207026657, 0.0079025831, -0.0636833832, -0.0544654541, 0.4639584720, 0.0909514204, -0.0012445657, -0.0200131871, 0.1693589836, -0.0053280471, -0.0353792757, 0.1095247045, -0.1262585819, 0.0439002886, -0.0500293337, 0.1643236130, -0.1389422864, -0.1859077960, -0.1191779003, 0.0382173285, -0.2077343017, -0.0486502722, 0.0671953410, -0.3430201411, -0.1712083668, 0.1076884791, 0.0666773841, 0.1744918674, 0.1835779846, 0.0592223629, -0.1306458563, 0.0518499725, -0.1402682215, -0.2506395578, 0.1546301842, -0.0936365426, -0.0246368013, 0.0427133776, 0.1594879478, -0.0929630101, 0.0202060901, -0.2330915481, -0.0810022801, 0.0885384530, 0.1484413594, 0.0322522186, 0.0561478771, 0.1735129356, 0.1632238775, -0.0962272286, 0.0154092824, -0.0559528656, -0.0161425769, -0.0039376928, 0.0441251360, 0.1198926717, -0.1461474746, 0.0714085773, 0.0467070341, -0.0665803477, 0.0624821410, 0.2181710154, 0.0574271977, -0.0224754997, -0.0441716872, -0.3234125078, 0.1871816367, -0.1189926341, -0.1983969659, -0.0266790763, 0.1113022640, 0.0863329396, 0.0196298994, -0.0310800578, 0.2220244408, 0.0439252518, 0.0238051210, -0.0960864797, 0.0489398241, -0.0512783304, -0.1955720186, -0.1195474342, 0.3046931624, -0.0274951775, 0.0193131082, -0.0538157597, -0.2124334574, 0.0416363962, 0.1225617379, -0.0261310600, 0.0191390123, -0.0918819383, 0.0982003659, 0.0323883146, -0.0260622445, 0.0214354936, 0.1845117956, 0.0704551488, 0.0034278128, -0.0029498965, 0.0444449559, -0.1038545296, -0.1255090833, -0.0051514064, 0.0898045003, -0.1095251366, 0.0645651817, 0.1439211667, 0.0574172176, 0.0411876664, 0.1826492846, -0.0541021004, -0.2010060847, 0.1044246405, 0.0229517706, -0.0533401184, 0.1532825530, 0.1663540900, -0.0828391910, -0.0125680612, -0.2092236876, 0.1137213409, 0.0013235708, 0.2398468405, -0.2741748691, 0.1643209904, -0.0229759458, 0.0276433043, -0.0054503507, -0.0867436826, -0.1108321398, -0.1044885889, 0.1919058561, -0.0026804516, 0.1733963490, 0.1037128642, -0.1656133682, -0.1192121357, -0.1169396788, 0.2116751522, -0.2962934673, -0.1330478340, -0.0309025217, 0.1790010929, -0.1564701647, 0.0508728176, 0.0941129997, 0.0313970335, -0.0633312985, 0.0140195666, 0.0341762528, 0.1516157538, 0.2274680734, 0.0620385632, 0.0385693610, 0.0477399267, 0.1626234055, 0.0901169628, 0.0582224317, 0.0329052582, -0.0213811938, -0.1726306081, 0.0254979860, -0.0560791306, 0.1937630028, -0.0529498160, 0.1346068978, 0.1208371818, 0.0353264026, 0.1812816709, 0.0248272642, -0.0126337372, 0.0527175479, -0.0522431582, -0.0840835050, 0.0662572980, -0.1019414663, 0.1127985790, 0.0754833892, 0.0691667646, 0.3175076246, -0.1143008173, 0.1911125779, -0.0499426536, 0.2375284284, 0.1411318928, -0.1190176010, 0.1322732717, 0.1504222751, -0.1929724663, -0.0548395775, 0.1392588317, 0.2297438830, -0.0868061632, 0.1327759624, -0.0065979655, 0.0667388439, 0.1039212272, 0.2405844927, -0.1220919266, -0.0954065174, 0.0418220162, 0.2293684930, -0.0688199252, 0.0620525703, -0.1065913662, 0.0269625820, -0.1149171665, 0.1548121572, 0.0052099582, 0.0298005957, -0.0269225128, 0.4207410216, -0.0599780530, -0.0633481517, -0.1972121000, 0.1816139966, -0.0524590015, -0.1597949713, 0.1239525452, 0.0709343851, -0.1196159199, 0.0185305495, 0.1221934557, -0.1151333153, 0.0418270901, 0.1707921624, 0.2187165916, -0.0091462908, -0.1262192130, -0.0745712519, 0.0498728193, -0.2107920498, 0.0223518331, 0.0838100389, -0.3144722879, 0.0507525317, 0.0403009132, -0.2909071147, -0.0641791001, 0.1314551383, -0.0899787843, -0.1153816432, 0.0046398379, 0.0445732214, -0.2224286497, 0.0883348808, -0.2443637550, -0.0128690051, 0.1435875893, 0.0869014338, -0.1067381501, -0.0880218223, -0.1816737056, 0.0581633784, -0.0451278836, -0.1162164658, -0.0339073874, 0.1044295803, 0.1021377742, -0.0171042625, 0.0125678182, 0.2249069363, 0.0211229119, -0.0993308723, 0.3507465124, -0.0227205679, 0.0494470373, -0.0767007172, -0.0572847277, -0.0350211300, -0.1110868305, 0.1801240146, -0.1232069358, 0.0397843868, -0.0607950650, -0.1132608801, 0.0356148817, 0.0709293187, 0.0384721421, 0.0935967490, -0.1053888202, 0.0063123717, -0.0699246153, 0.1515423656, 0.0309986360, -0.0635142550, -0.0139721492, -0.0454912372, 0.0286516249, -0.0663483962, -0.1616562456, 0.1463962495, -0.1685069203, 0.2044696510, 0.0486695096, 0.2584776282, 0.0470768511, 0.1288178861, 0.0244742818, 0.1215213761, 0.2236438543, 0.1903764904, -0.0095063020, -0.1560663134, 0.0288998932, 0.0027385720, -0.0030997051, 0.1343086362, 0.1066460609, 0.1718749255, -0.0416365750, 0.1609447598, -0.1279692501, 0.0771429092, -0.0654989928, -0.0931167603, 0.1651169211, 0.1290495247, 0.0309792124, -0.3273733556, -0.1339586824, -0.0691652074, -0.1567424089, 0.0110751130, -0.0287392382, -0.1043001935, 0.0833957717, -0.0434527621, 0.1041877791, 0.0595395789, -0.1607922316, -0.1860754043, -0.0095895315, 0.0932365581, 0.0213265754, -0.0302494019, -0.2052607685, -0.2571679056, 0.1591743380, 0.1920894086, -0.0108132716, -0.1433027089, 0.1121525988, -0.0509441495, -0.0262075253, 0.0418494754, 0.2943753600, -0.1066251621, -0.0864926130, -0.0791291445, 0.0011503224, 0.1213845983, 0.0662379935, 0.1936595738, 0.1118006781, 0.0288734958, 0.0594655089, -0.1174611896, -0.1152860671, -0.1324076056, 0.0833074227, -0.1531153619, 0.0081885243, 0.0615143292, -0.0032688489, 0.1721980572, 0.1290375739, -0.0665448606, 0.2271134257, 0.0329736508, -0.1723439097, 0.0878432766, 0.0678428113, 0.1176267639, 0.4082116187, 0.1279747784, -0.1392188072, 0.0246228650, 0.0789457858, 0.1086145714, 0.1089454591, -0.0222643092, 0.0240806639, 0.1354675442, -0.1026809812, 0.1944446713, -0.1677085608, -0.0266059078, 0.0771965012, 0.0495383404, -0.0304399431, -0.1762174219, -0.0677446872, -0.1630913019, 0.0644018576, -0.0332279466, -0.0400535837, -0.0105972085, 0.0735157728, 0.2631158233, -0.0407556370, -0.2288257927, 0.2405989021, -0.0632339120, -0.0569640584, 0.1498655528, 0.0347054973, -0.2292861342, 0.1414374560, 0.1711321175, -0.2209120542, 0.1523342580, -0.0515267514, -0.1151807234, -0.1106888801, -0.1978116482, -0.2553747296, 0.1719333977, -0.1721892655, 0.1218267754, -0.0584388264, 0.0480232686, 0.0254785419, 0.0878045931, -0.0014646639, -0.0980270207, -0.1853803992, -0.0758475289, 0.3104583919, -0.0415578969, -0.0649622530, -0.1415684074, 0.0515652113, -0.0955007821, 0.0210352521, 0.1412152797, 0.0621501952, -0.0764154270, 0.2509345710, 0.0602516197, -0.1115535796, -0.0856962353, 0.0097425682, 0.1111797839, 0.0013394353, 0.0325968601, -0.1189842075, 0.0896360204, -0.1110433042, -0.0955694318, 0.0860667825, 0.0364603437, 0.1924238354, 0.0229880158, 0.0124484971, -0.0016869935, -0.0636455789, 0.0915854201, 0.1812663823, -0.0087255770, 0.0367697328, 0.0863591209, -0.1556806564, 0.0394482128, 0.0178029817, 0.1170936152, 0.0476597920, 0.0160097592, -0.0909417644, 0.1757829934, -0.0557224527, -0.0994383842, 0.1316884458, 0.0531316698, 0.1706649065, 0.0035831537, 0.1222785711, -0.0243407544, -0.1514812410, -0.2087430656, 0.0365892835, 0.3134540915, -0.0613401271, 0.2026366740, 0.1343781948, 0.0558971725, -0.0015007992, -0.1026924178, -0.1094824523, -0.2445899993, -0.2159166932, 0.1205061823, 0.0774817318, 0.2535885274, -0.0638635457, 0.0775018111, -0.1123662144, -0.0259357914, 0.0347229168, -0.0625388324, 0.1204906330, -0.1053983942, -0.1391472220, 0.1187398806, 0.0218788851, -0.0911823660, -0.1156535000, -0.1365561038, -0.0540466942, 0.0035234794, 0.2289739400, -0.1366962492, -0.1897020787, 0.0995995924, -0.1146484613, 0.0367414765, 0.1635399610, 0.1230129004, -0.1154784560, -0.1084297672, 0.0058321161, -0.0072984262, 0.0669388995, 0.1053412631, 0.1164744720, -0.0191770494, 0.0614215583, -0.0059149605, -0.0246747881, 0.0455388464, -0.0157653447, -0.1964571774, 0.0683459193, -0.0337779708, -0.0998046622, -0.1690410525, -0.1584807932, -0.0036981690, 0.0431314521, -0.0015250932, -0.0227920413, 0.2247994542, -0.1651736051, 0.0781521052, -0.0034043153, 0.1283075660, -0.2301847339, -0.0871208012, 0.0220710225, 0.1400914192, -0.1179719195, 0.0531243756, 0.2406256497, 0.0094587924, 0.1662696749, -0.1165728942, -0.0707199052, 0.3507067263, -0.1556661278, -0.0772943795, 0.0024773651, 0.0553219989, 0.0729814768, -0.0981384665, 0.0346953981, -0.0105660046, -0.0006874527, 0.0149778044, -0.1398525089, -0.1744658947, -0.2923551202, -0.2223899066, 0.0667851418, 0.0296985321, 0.2077575773, -0.0279221591, -0.0168445650, 0.0934101865, -0.0286836177, -0.2372041196, -0.0251603648, -0.0493254326, -0.0348542556, 0.0199017227, 0.1693612486, 0.0126400618, -0.0112571027, 0.1826604605, -0.2037939578, 0.2607287467, 0.1163975149, -0.1523685455, 0.1509172469, 0.1346771121, 0.3473447561, 0.0654247999, -0.0393522531, 0.1250099540, -0.0249255132, -0.2033002079, -0.1146565452, 0.0661575720, 0.0762216896, 0.0634539425, -0.0761765242, -0.1604218334, 0.0711687654, -0.1042680293, -0.0121496310, 0.0588583536, 0.0347699933, -0.3330922723, -0.1801558137, -0.0674265847, -0.1327364147, -0.0934613645, -0.1002978012, -0.0865155011, -0.0203603692, 0.1843872964, -0.2150848955, 0.1286035925, 0.0482771695, -0.1808186620, 0.0205169227, 0.0053224536, 0.0089376979, 0.0188034568, 0.0340938903, -0.1270488203, -0.1615261436, -0.1451759189, 0.1823147684, -0.0799214616, -0.1353759021, 0.0910799131, 0.0899479315, 0.1623744518, -0.0329497419, 0.1334362328, 0.1185491309, -0.0707994476, -0.0485797264, 0.1554830521, 0.0103417356, -0.0239146538, 0.2219602168, 0.0490380339, -0.1363082677, 0.0560132600, 0.0814553276, 0.0268430039, 0.0340603292, -0.0690578148, -0.0726383552, 0.0816114545, -0.0142684793, 0.1164396107, -0.3182262480, 0.0058190823, -0.2207276970, 0.2796797752, 0.0752712041, 0.1387582421, -0.0211502239, -0.1505057067, 0.0936645642, 0.1989135891, 0.1796629131, 0.0128877694, -0.1143932864, 0.2113771141, -0.1832821965, -0.0548643917, 0.0030924617, -0.0651620105, 0.0232211854, 0.1717298627, 0.2321031392, 0.0482916869, 0.2251081765, 0.1905480027, 0.0981774554, -0.1731848270, 0.0059585003, 0.1784383506, -0.3051582277, 0.0617544241, 0.1562304199, -0.0451954938, -0.0286340043, 0.1346156150, 0.0149225788, -0.1175151691, 0.1118883342, 0.1358714998, 0.0281104911, 0.0653129667, 0.1025554463, -0.0786516741, -0.3366856277, 0.3890980780, 0.0693115145, 0.2323103398, 0.0555017442, 0.1254309714, 0.0148273986, -0.1577975750, -0.0957150981, 0.0040815542, -0.1799806654, 0.0349910110, -0.0733582452, 0.2164417207, 0.1085736528, -0.0628214329, 0.0089242402, 0.0090949014, -0.0402020440, -0.2772780359, 0.0551279038, -0.0428306609, 0.0813522935, 0.1672763228, 0.0663849562, 0.0581755899, -0.1508968771, -0.2305188924, 0.1183353737, 0.0847514570, 0.1977640539, -0.0427529328, 0.0211356413, 0.0714237615, 0.1214610413, -0.1177135929, 0.3112568259, -0.2112559974, 0.0401233137, -0.0102765951, -0.0613651313, 0.1054978296, -0.0974347368, 0.1915867925, 0.0415415205, 0.0967428163, -0.1008589864, 0.2144570202, 0.0465387180, 0.3349209130, 0.0194603074, -0.0190122519, 0.1862210631, 0.0476023443, -0.1567620635, 0.0799875036, -0.0355817154, -0.0496654399, -0.0498533323, -0.1238847747, 0.0529233292, 0.0358994976, -0.1637639254, -0.0475718044, -0.1644579172, -0.0160649028, 0.1517105103, -0.0227863677, 0.0011710613, 0.0158476774, 0.0734815300, -0.0194051098, -0.1020731404, 0.0189774949, 0.0652427226, -0.1740937233, -0.1339287758, 0.1150987074, -0.0907103643, 0.2420003414, 0.0298529193, -0.1181173548, -0.0185352359, -0.0543786287, -0.1118439659, 0.0626704097, -0.0629007816, 0.0594999865, 0.0824285299, 0.1822334081, 0.0490258262, 0.0661144406, 0.0418844856, 0.0074508931, -0.1323374063, 0.1852802336, -0.0354465358, -0.1439013183, 0.0736755356, -0.0577159636, 0.0460868739, -0.0451261885, 0.1702518612, 0.0775825083, -0.0628176481, 0.0270291399, 0.3345430195, -0.0386165641, -0.0239011217, -0.0061628534, -0.1361650527, -0.0189014059, -0.1029952839, -0.1466826797, 0.1271942705, 0.2524805367, 0.0832811221, -0.2189796120, -0.1696804464, -0.2642317712, -0.0104363402, -0.0162559114, 0.1539417356, 0.0759644136, -0.1375257522, -0.0853999928, -0.0018058550, -0.1496468484, 0.0470330194, -0.1104943678, 0.0705666393, -0.0592572950, 0.0299626458, -0.0933005139, -0.0378369540, 0.0454460718, -0.0620574988, 0.0634866506, -0.2904139757, -0.0727605969, -0.0328542218, 0.0161083508, -0.0239486899, -0.1735666841, -0.0003002119, 0.2023678571, 0.0898491368, 0.1338590235, -0.0437439233, -0.1672345549, -0.0365214460, -0.1545725465, -0.0672360882, -0.0196273234, 0.1488587707, -0.0616163388, -0.0581894442, 0.1641445607, 0.1809939444, -0.0153596466, -0.1939644665, 0.0172963571, 0.0647620782, 0.1647666097, 0.1471911520, 0.0406968072, -0.2097811252, 0.1380738169, -0.0963438749, -0.0258307848, 0.0554797947, -0.1063661277, 0.0793505758, 0.3236219287, -0.0770779848, -0.1338314712, -0.2387342304, 0.0821329728, -0.0684437230, 0.0969868153, -0.1278073490, 0.1313630939, -0.2603499293, -0.0372964628, -0.1606541276, 0.3005940914, -0.2337604314, 0.0023107198, -0.0977032110, 0.0670512542, -0.0761436000, -0.1783432662, 0.0754420981, -0.0599504858, -0.0844814852, -0.0207033716, -0.0063880673, 0.0699250177, -0.0482813418, 0.0434576049, 0.0374211185, -0.0331914611, 0.0290819034, 0.3398184478, -0.0425198041, 0.1450444609, 0.2440252751, -0.0316269174, 0.0224699602, 0.0195565317, 0.2852532864, -0.1118482798, -0.0326761976, 0.1683462262, 0.0107975164, -0.0414074808, -0.2440189570, 0.2018245310, 0.0219837837, 0.0131100332, -0.0735190362, 0.1866908818, -0.0726288110, -0.0062909527, -0.0915737674, 0.0469496809, 0.1519369334, -0.4365204871, -0.1219463572, -0.0646570772, 0.0718316659, -0.0646747425, -0.1221155301, -0.1237501726, 0.3263188899, 0.0506376661, -0.2398221642, -0.1019687653, 0.1351061463, -0.1712909639, 0.0304610915, 0.0775879696, 0.0928614661, -0.1134591922, -0.0086517483, -0.0651372299, 0.0201858133, -0.1670227498, 0.1374086142, -0.0447132736, -0.1519664675, 0.0436232202, -0.1037324294, -0.0369448476, -0.1556873024, -0.0768467933, -0.0068506533, -0.0899045467, -0.0424408466, -0.1754330248, 0.0192425437, 0.0652164817, 0.0028171800, 0.0530013517, 0.0942298993, -0.1211220995, 0.0672624186, -0.0420368016, -0.0055929194, -0.0184951685, -0.3002678156, 0.0426332653, -0.0817218795, -0.0399054550, -0.1397235692, 0.1859214753, -0.0551416166, -0.0326375403, -0.0428372175, -0.0034470069, -0.0206991117, -0.1333871335, -0.0920645669, -0.0934616178, -0.0782607719, 0.0680972338, 0.0210592318, 0.0529185981, -0.1634961218, -0.0975165814, -0.3722749352, 0.1702386588, 0.0336550027, -0.0683557317, -0.0637807250, -0.0438928343, -0.0276317373, -0.0837397426, 0.0615951791, -0.0581559800, -0.0206009448, -0.0838452280, 0.0120466398, 0.1757112443, -0.2179955095, -0.0803845823, 0.0256035700, -0.0839767903, 0.1995636523, 0.0267416909, 0.0477177650, 0.0260426775, -0.2599137723, -0.1212940887, -0.1082534268, -0.2453579456, 0.1721235663, 0.0903917402, 0.0391301960, -0.0937163979, 0.0069455649, -0.0980031788, -0.0725851431, -0.0202584937, 0.0115363402, 0.1542265266, -0.0009174668, -0.0169721488, 0.0038465813, 0.1727187783, -0.0916327536, -0.0970404223, -0.0806367025, -0.1462477446, -0.1045247167, -0.0668850094, 0.0385354273, -0.0737498030, 0.0443096757, -0.1071804762, -0.0588620380, 0.1008000225, -0.3466775119, -0.1459280252, -0.0566553436, 0.1949076355, -0.0504705198, 0.0279080421, 0.1138091534, -0.1902292520, -0.1004993916, -0.1064234674, -0.0717252493, 0.0743874535, 0.1520539522, 0.1000562906, 0.2048020065, -0.0640497208, 0.1102347970, 0.1802458465, -0.2405036390, 0.1586177796, 0.1590762883, -0.0415653475, -0.1926185638, 0.0193163808, 0.0877861604, -0.2402097583, 0.0726824924, 0.2082089186, -0.0315867215, -0.0877073035, -0.0493109114, 0.0105097340, -0.0646775812, -0.0549902692, -0.0063033160, -0.2706452906, -0.0456937738, 0.1774728447, -0.0656553432, -0.1164334491, 0.0846456066, -0.0700845644, -0.0719473287, 0.0306814238, 0.1142213270, -0.1039209664, 0.2957701385, -0.1830258816, 0.0889977217, 0.0871012583, 0.2629741430, 0.0085968049, 0.0358698890, -0.0999682844, 0.1874609441, 0.0798616707, 0.1447336972, -0.0692644715, -0.1045485139, 0.0828680620, -0.1918508112, -0.0295963492, -0.0860489830, 0.1259880960, 0.0687929615, 0.0515898727, -0.0296784975, -0.1272804439, 0.1435250342, -0.0768366307, -0.1127805114, 0.1239064336, 0.0081397751, -0.0908548385, 0.0911114737, -0.1272777021, -0.1754792780, 0.1220437214, 0.0059902170, -0.1083014011, -0.1199942976, 0.4173810482, 0.1787390709, 0.0775096416, -0.0073639513, -0.0632239655, 0.0659747496, -0.0207831990, -0.0568813719, -0.0141520575, -0.1933093965, -0.0228103660, -0.1932025254, 0.0648039356, -0.0861879066, 0.1286955923, 0.0818081275, -0.0047424552, 0.0344586112, 0.2292809486, 0.3325982690, -0.2485533059, 0.1683000177, 0.0476363748, -0.0234424137, 0.0354787707, 0.0040845908, -0.0348277315, -0.0369274132, 0.1339476407, 0.1004830673, 0.0146064917, 0.0966745019, -0.1252327859, 0.1281750053, 0.1206168309, -0.0460763760, 0.0732933879, 0.1646087468, 0.0356887765, -0.0306606181, 0.1025005430, 0.1694324017, -0.0976024494, -0.0445222408, 0.0513269752, 0.1489553601, -0.0951051265, 0.1768683344, -0.0024820436, 0.1039088368, 0.1187572926, 0.0375512093, -0.1630381793, 0.0748269036, 0.1959816962, 0.0842903182, 0.0583708324, 0.2314247042, -0.0844285414, -0.2183170319, 0.0625981688, 0.0419725813, -0.0031050122, 0.2094385922, -0.0825143382, 0.3605615795, -0.2453133017, -0.1030327603, 0.1267301738, 0.0301717520, -0.0167233739, -0.0098519428, 0.1176472455, -0.0405228287, 0.0140673984, -0.1288277954, 0.0534251556, 0.0482746884, 0.0985549614, 0.0548522435, 0.0528708212, -0.1041591763, 0.0199228991, 0.0490296222, 0.2311512083, 0.0625052974, 0.0723619387, 0.0491983183, 0.0775219575, -0.0533818267, 0.0398361869, -0.0110337138, 0.1572602242, -0.0257677585, -0.0718384609, 0.2162338048, -0.2383587211, -0.0134824002, -0.1390166879, -0.1594827920, 0.0627162978, -0.0881099179, -0.1123383641, -0.0986729264, 0.1042746231, -0.2527842224, -0.1295281351, 0.1324215531, -0.0016562466, 0.0206337608, 0.0435066931, -0.0533341467, 0.2476086318, 0.0254238006, 0.0593702048, 0.2751974463, -0.0986323655, 0.1132578179, 0.1685438603, -0.2130907178, -0.0019951344, 0.1167820767, -0.1597070545, 0.1112048849, 0.0865076408, 0.0073901881, 0.0996743590, 0.0832271129, -0.0856694952, -0.0217748340, 0.0008414212, -0.0775111318, 0.0623379089, -0.2623871863, -0.0631936044, 0.0354181603, -0.1423164159, -0.0387775451, 0.2204618305, -0.0090861218, 0.0084978184, 0.1104506329, -0.1876911670, 0.1206766888, 0.0929074064, 0.0633068532, -0.0455123633, 0.0778798312, -0.1541128308, 0.2365957201, -0.0126473252, 0.2608662844, 0.0874794498, -0.0137551948, -0.0394719504, -0.1011794135, -0.0422072709, -0.0203840751, 0.1824626476, -0.1782894731, -0.2933121622, -0.0158366431, -0.3012233675, -0.0736083835, 0.1864096820, 0.0984683260, -0.2994168401, 0.1313696802, -0.0420762002, 0.0434827842, 0.1937370896, 0.0717905536, -0.1537376642, -0.0261850506, 0.0513884462, 0.0858108923, 0.0144524183, 0.0443977751, -0.0613985844, 0.1638079584, 0.0780933425, -0.1609662771, 0.1232554913, -0.0682898164, 0.1090654433, 0.2083783299, 0.0383742079, -0.0541559048, 0.1215861067, -0.0391337834, 0.2326693982, 0.0453675166, -0.0112394299, -0.0239326414, -0.0940025151, 0.0489088744, -0.1604867429, -0.3285437226, 0.1494090855, 0.0805556402, 0.0277381781, 0.0292452686, -0.0886047035, -0.0283530876, 0.0584855266, 0.0601970330, 0.1829887778, 0.0232062284, 0.0121858222, 0.0014964265, 0.1884819120, -0.1195555329, 0.0586234815, -0.2239061296, 0.1320575327, -0.0429974683, 0.0081148688, 0.0295109954, 0.0109970570, -0.0768914521, 0.1220493913, 0.0273269732, 0.2425599843, 0.0154210683, -0.0157735534, -0.0087786149, -0.0049086362, 0.1078204885, -0.1430587173, -0.0432973765, -0.0893009603, 0.0619844086, -0.0075103971, -0.0094908187, -0.1349170804, -0.0823816657, -0.0095064435, 0.0707238019, -0.0745839775, -0.0563438721, 0.1786176115, 0.0676373467, 0.0303152371, -0.1943368763, 0.1867604107, 0.2676964700, -0.0755822510, 0.0112956408, -0.0629344210, -0.2073786408, 0.0063848170, -0.2415135056, 0.1685234904, -0.0632955953, 0.0900734887, 0.0360827334, 0.0076939422, 0.1175281033, -0.1116082072, -0.0128519461, -0.0799501017, 0.3846105933, -0.0043867347, 0.2192274928, -0.1612292230, -0.1937242746, 0.0290725008, 0.1937438697, 0.0005730740, 0.1822713912, 0.1967770755, -0.0321518965, 0.1089246571, 0.1289661080, -0.3314440846, 0.2074848115, -0.0053702793, 0.1739361137, -0.0971347019, -0.0535473116, -0.1037938967, 0.0630668998, 0.0362858102, 0.1281853467, -0.0918999836, 0.0167124886, -0.1337096989, -0.0465898328, -0.0182847045, 0.0262956694, -0.0298915096, -0.0709238052, -0.0123918196, -0.2049654722, 0.1260302216, -0.2121877968, 0.0066666580, -0.1520980746, 0.0998045802, -0.0024087681, -0.1238597482, -0.0134658264, -0.2346644700, -0.0678136498, -0.1069756001, 0.0386245549, -0.0276789051, -0.0705774501, -0.0484205894, 0.0076317578, 0.0079008536, -0.1779924184, 0.0905215666, 0.2719133794, 0.0215177853, -0.0840928927, 0.0315553509, 0.1045016348, 0.0653125867, -0.1762869805, -0.0171589721, -0.0006686226, -0.0028027492, 0.1257907301, -0.0679455698, 0.0830278993, 0.1481216699, -0.2206657380, 0.1170116663, -0.0801845267, 0.0390343703, -0.0426076539, -0.0705750957, -0.2188469470, -0.0298026018, 0.0294339079, 0.1323520839, 0.1405846775, 0.1080850661, -0.0028115539, 0.2073693573, 0.0828074068, 0.2681305110, -0.1988815963, -0.0338050686, 0.2483662516, 0.2032623291, 0.0118028149, -0.0417732596, -0.0645278022, -0.0493191890, 0.1844995618, 0.0362016112, -0.0733302012, 0.1057760715, 0.0297183637, 0.3136611283, -0.0752302781, -0.1705197543, -0.0239251554, -0.1076040268, -0.2850757241, -0.1986920536, 0.3363792002, -0.0358878560, 0.0058648014, 0.1919888258, -0.0002473833, 0.0358277224, -0.0814326480, 0.1277093142, 0.1638365686, -0.0850101858, -0.1181920394, 0.0841728076, -0.1962066591, -0.1808674186};
#endif

#endif
